799 100
@ -0.13563104 0.072764955 0.032798234 0.055533305 -0.07474959 0.29529175 0.023910837 -0.12958486 -0.3309331 0.044660434 0.13055252 0.07425686 0.032149445 -0.23531228 0.1961057 -0.12555821 0.2813883 0.003134637 0.09420782 -0.08152308 -0.04790339 -0.016393231 -0.05956716 -0.21847782 -0.117562 0.041634675 -0.09888668 -0.12905839 -0.10017352 0.1100558 -0.16286804 -0.051788557 -0.11484793 -0.05659881 0.046470862 0.014116619 0.07090314 -0.14412853 0.061249852 0.019070094 0.025688602 0.019888323 -0.050584223 0.18055971 0.01268709 0.22278412 0.1195316 -0.15064238 0.038522463 -0.12911402 0.17590882 0.0895079 0.024686037 -0.026596613 0.019628515 -0.08269911 0.022043701 0.08256349 -0.08565179 0.041882027 -0.048908632 0.036888435 0.17174074 -0.14669982 0.049423683 0.037263133 -0.08783555 0.056795556 0.0014652673 0.038213544 0.05703328 0.20679152 -0.0078171855 -0.09207153 -0.08178858 -0.108110376 -0.03950859 0.04026927 -0.048915636 0.012472812 0.1143017 0.026663559 -0.049769584 -0.056573946 0.14615415 0.040620163 0.095375456 -0.00022265835 -0.053767174 -0.108852945 0.011392783 0.024251662 -0.013095606 0.034887865 -0.012554889 -0.009741341 -0.054191653 -0.035795 0.012191012 0.017584309
  -0.13559037 0.045780443 0.13058664 0.031552576 -0.21290064 0.16681857 -0.09117746 -0.12719311 -0.38753393 0.059163578 0.23963478 0.07624642 -0.10092832 -0.1448609 0.044657234 -0.08460606 0.26148278 -0.01835117 0.06581687 -0.08027481 -0.100191824 -0.004632198 -0.02445346 -0.21287659 -0.040663347 0.04931289 -0.14770328 -0.09780027 -0.051588718 0.079276524 -0.012564143 -0.052897792 -0.12976117 -0.022818524 0.013794853 -0.038121916 0.103064284 -0.118056834 0.056094117 0.031641718 0.01304203 -0.02660423 -0.05439223 0.13036624 -0.017238155 0.20466623 0.06843426 -0.115306534 0.020910384 -0.1521696 0.1927738 0.06257391 0.065066166 -0.0928869 -0.064440705 -0.08905249 0.043198563 0.019059258 0.025950879 0.09541796 -0.06747308 0.122981384 0.09300418 -0.07064463 0.049286142 0.042895377 -0.073228694 0.028405862 -0.07475117 0.038318682 0.04812018 0.1845248 0.0071770772 -0.07947039 -0.12100959 -0.022724707 0.028895754 -0.041097578 0.029646924 0.06599365 0.10921261 0.021305753 -0.043111853 -0.024702305 0.059179317 0.0183955 0.071392156 -0.046262395 -0.08401648 -0.091733396 -0.01835768 0.081292145 -0.07116769 0.13300115 0.10411289 -0.020950215 -0.067195006 0.05567339 -0.014670144 -0.013827752
ㅇ -0.16949086 0.00824164 0.07427114 0.07390554 -0.20119211 0.118301384 -0.124707796 -0.28664166 -0.17837544 0.05866601 0.22711563 0.09176425 -0.052886155 -0.20431215 0.027259357 -0.10326399 0.11373209 -0.017563751 0.10044598 -0.08221757 -0.18081345 0.034238078 -0.038239453 -0.1782668 -0.10479144 0.090269 -0.05337229 -0.10283933 -0.032991663 0.0498825 0.07721579 -0.027089147 -0.11446765 -0.03239273 0.08986524 0.0039004132 0.05296401 -0.1339075 0.17553423 0.026460283 0.10394391 -0.058901444 -0.0008069815 0.09615083 -0.06659047 0.12064543 0.07128862 -0.21010888 -0.034719676 -0.12882394 0.13597307 0.12698145 0.010851595 -0.096205994 0.118060544 -0.012244261 0.16846739 0.004160518 -0.026451314 0.042775325 -0.15412284 0.2426796 0.028744936 -0.11348925 0.06295392 0.16772163 -0.08308361 -0.03131579 -0.1829328 0.055191796 -0.031570427 0.18943898 -0.008830981 -0.16931592 -0.18299325 -0.1782849 0.032759026 -0.060243964 0.25663456 0.045971148 0.0021698475 -0.034959476 0.030980805 0.03162145 0.03995924 0.097522795 0.017294051 0.129966 -0.09218158 -0.1962844 0.0066419495 -0.02866546 0.16519286 0.24960606 0.10611259 0.11098898 -0.022711396 -0.012155002 0.01748271 0.029709654
S -0.039055165 0.038408596 -0.043128297 -0.09629497 -0.25163436 0.14319827 -0.0004743455 0.0056568403 -0.3324695 -0.017749913 0.2438785 0.017259872 -0.09736144 -0.11707923 -0.0013470001 -0.06419639 0.085838236 0.09799683 0.14214428 -0.14863336 -0.01773888 -0.106905185 -0.017698616 -0.26121667 0.0015410954 0.105757326 -0.020930389 0.0414619 -0.13111152 -0.053047612 0.0331415 0.10191328 -0.09096353 -0.09891594 0.17832305 -0.08778802 0.20800011 -0.119825825 0.26663226 0.07188251 0.048510477 -0.11998167 -0.031745292 0.016167238 -0.04052397 0.19193773 0.09131082 -0.20664707 -0.032375928 -0.13343893 0.13032837 0.15554124 0.058683503 -0.15478843 0.07496402 -0.010158376 0.085152425 -0.0003023208 -0.008593547 0.03291926 -0.120842434 0.24298295 0.22642869 -0.26425397 0.0011922637 0.11645355 -0.08730958 -0.061538536 -0.009471293 0.14950778 -0.025504244 0.1952826 0.03358252 -0.216563 -0.22630845 -0.09927492 0.11104248 -0.102492705 0.08762057 0.04203846 0.0511709 -0.06160044 0.09279305 -0.04651084 0.050521486 -0.0039597005 0.007324597 0.022785787 0.02217508 -0.037329733 0.11407401 0.053741515 -0.031033434 0.0705647 0.1634931 0.04204121 -0.013078969 0.041851588 -0.1731629 0.08378005
P -0.14092317 -0.04514454 0.053705595 -0.010776527 -0.12909783 0.12040178 -0.16450892 -0.269835 -0.22211775 0.0833782 0.14627182 0.1510969 -0.17208765 -0.15883973 0.09470897 -0.027951313 0.09523712 -0.0138897635 0.15059112 0.0136435805 0.001851712 0.017087745 0.002171281 -0.103729755 -0.030213522 0.11577725 -0.058730688 -0.1261419 -0.15686144 -0.0046345326 -0.016964236 -0.09811108 -0.25446773 -0.20987047 -0.0010473509 -0.11146503 0.14900851 -0.14964019 0.1272344 -0.06370885 0.059757702 -0.01677386 0.07887707 -0.0015050815 0.0118216975 0.2658125 0.19384332 -0.20843856 0.0005452139 -0.17104937 0.1941639 0.14713043 0.08134427 -0.09065462 -0.09058487 -0.072972044 0.11959729 -0.068076655 -0.07559999 0.034926996 -0.013812432 0.1321218 0.10694545 -0.08452476 -0.034641966 0.12005578 -0.18423252 -0.05874853 -0.10191661 -0.047757067 -0.07354909 0.23652948 0.08098774 -0.046626102 -0.08911725 -0.04418995 0.057619262 -0.04437967 0.12712267 0.22368777 0.028899098 0.02270297 0.01538798 0.026431028 0.06150939 0.004027916 0.034737967 -0.030592464 -0.008803435 -0.18110743 0.040066805 0.045852523 0.123593144 0.054800518 0.1279209 0.11278591 0.0594019 0.02715715 0.14962 -0.063581735
> -0.048918847 -0.14361612 0.16655433 -0.07727046 -0.20548776 0.036954306 -0.10967379 -0.13606095 -0.15577179 -0.018599454 0.29040793 0.1306564 0.06532786 -0.13683675 0.09346341 -0.08403771 0.0627517 0.15158981 0.10992533 -0.012062344 -0.1675862 -0.057722304 -0.052603375 -0.24340685 0.011602811 0.03656292 -0.20506193 0.021020364 -0.08288971 0.07402661 0.05863586 -0.08560318 -0.13195387 0.027858894 0.096353985 0.068911456 0.14795162 -0.09462623 0.068205 0.06483093 -0.03478016 -0.10544279 -0.10104169 0.13730584 -0.033167683 0.23151897 0.032244295 -0.12207113 0.06299829 -0.12602867 0.08759101 0.22108035 0.06787519 -0.08768188 0.11754539 -0.09348734 0.105775505 0.050556466 -0.107835956 -0.003782641 0.013293455 0.13510983 0.14190611 -0.06186083 0.17836513 0.07609141 -0.1710364 -0.0044243853 -0.081483275 0.06647013 -0.04149761 0.20678675 0.07022841 -0.11749656 -0.2311768 -0.004127465 0.027088113 -0.043563593 0.062260386 0.04329676 0.031321723 0.013186417 0.0027144712 -0.04189579 0.08518438 0.07551192 0.12623817 0.012435369 -0.12769958 -0.10779857 0.0056905486 0.035697255 -0.032228116 0.29051107 0.23643738 0.060780033 -0.033249557 0.0141971875 0.18432443 0.05108567
< -0.1663315 0.083608985 0.18902263 0.0016621558 -0.04549371 0.22453873 -0.103096515 -0.1593554 -0.1740675 0.14014703 0.23256144 0.049022365 -0.107072175 -0.07155951 0.019058028 -0.11539162 0.13335499 0.09973748 0.061113905 -0.14130306 -0.05591283 0.05617204 -0.010905392 -0.21099138 -0.115318194 -0.01979838 -0.101724036 0.013922614 -0.0525705 -0.06511735 -0.11713374 -0.100080155 -0.25158387 -0.12157786 0.12972029 0.019525532 -0.0083151795 -0.13714732 0.19815035 0.024698127 0.11494728 0.021321513 -0.053450156 0.034832727 -0.10654244 0.26308423 0.056026474 -0.11694797 0.049973592 -0.1537575 0.17667143 0.12889963 0.026113793 0.0013855435 0.051817384 -0.060732994 0.06717888 0.03327905 0.03860213 0.0074550984 -0.19640681 0.23291655 0.09486648 -0.058608506 -0.040986948 0.12982179 -0.014314248 -0.07985148 -0.04349133 -0.020211946 -0.003345478 0.13444884 -0.020812323 -0.07398407 -0.06695272 -0.09291913 -0.012146673 0.12148814 -0.0029068065 0.15540951 0.115837276 -0.07443719 0.04862831 -0.052440602 -0.021280983 0.11958202 0.15328826 0.06855989 -0.13945803 -0.023640186 -0.024356626 0.030551108 -0.055720642 0.297878 0.23647563 0.019980727 -0.09145803 0.22426927 0.13216308 0.1174268
ㅏ -0.26866966 -0.07689599 0.0766586 0.2683 -0.1599685 0.07168446 0.091046795 -0.17357564 -0.2103957 0.09481339 0.27762458 0.06671379 -0.05436557 -0.026571225 0.013860943 -0.07575156 0.16513972 -0.062908344 -0.0022172881 0.022752006 -0.19380306 0.09776667 -0.13138947 -0.24107547 -0.038684662 0.049747184 -0.03257921 -0.043683853 -0.026105028 0.18720365 0.075395845 -0.13276972 -0.0971792 -0.03744432 0.070457354 -0.103633136 0.1546257 -0.08282535 0.19971101 -0.06552499 0.028712599 -0.15615956 -0.060646784 0.13436314 -0.051380984 0.18987784 0.09138226 -0.17093493 -0.008276332 -0.15723872 0.08885249 0.21995619 0.14382954 -0.19288447 -0.103995875 -0.05798219 0.13480537 -0.04197853 0.05709283 0.04430234 -0.026473375 0.1253649 0.047919475 -0.1816503 0.03894331 0.19944927 -0.02830364 0.022252273 -0.12759918 0.13708203 -0.14441645 0.3032816 -0.029809311 -0.20324405 -0.17555639 -0.051896688 0.0020466407 -0.08361783 0.023886077 0.08733075 0.21241581 -0.09097011 0.03856107 -0.12918271 -0.057328004 0.09185829 0.017464282 0.030608637 -0.08562824 -0.076870434 0.11007231 0.01756709 0.11300008 0.25212345 0.20359465 0.056098953 0.05363117 0.12778577 0.045530405 -0.100474715
ㄴ -0.07254576 0.08660049 0.09336439 -0.046393823 -0.23736249 0.10135684 -0.0319183 -0.1994434 -0.15548392 0.049337756 0.19924861 0.021802139 -0.09147539 -0.10908329 -0.01410904 -0.08669833 0.1978467 0.011663967 0.10956216 -0.08660105 -0.09493827 0.002996064 -0.020002998 -0.19836521 -0.048150755 0.11268315 -0.13083021 0.023677854 -0.03711843 -0.074451394 0.064726695 -0.042349063 -0.17006108 -0.05724696 0.11578198 -0.060459446 0.060718548 -0.06541228 0.092426814 0.033115074 0.08383098 0.0034087105 0.027522985 0.063209176 -0.016664634 0.13759963 0.16541602 -0.21717183 0.0051449495 -0.0763875 0.10738779 0.34086335 -0.023939485 -0.11985871 0.011413851 0.0679265 0.001157309 -0.036949113 0.093860455 0.050834797 -0.028618786 0.15133737 0.12263384 -0.08396813 0.06300967 0.14007235 -0.10621509 -0.13620804 -0.13170843 -0.00527503 -0.03695866 0.28579542 0.067605115 -0.091924876 -0.18965127 -0.086046845 0.12058613 -0.06858057 0.101216175 0.020559857 0.086441465 -0.09777819 -0.08416397 0.013963609 0.02920417 0.11581074 0.018911742 0.09167176 -0.12164717 -0.1399062 -0.015556389 0.03260942 0.08097112 0.21465136 0.09741418 0.092857584 -0.02998356 -0.0022211855 0.14480859 0.012683322
ㄱ -0.061046455 0.13079101 0.18838353 0.05552399 -0.25142658 0.06175517 -0.08416768 -0.17880341 -0.24069898 0.072915785 0.26964253 0.040459946 -0.21626486 -0.1732281 0.03768525 -0.049032908 0.018411899 0.030465988 0.085713536 -0.0760988 -0.19826181 0.061759297 0.0313779 -0.18404405 -0.0529365 0.089011475 -0.10770079 0.022772426 -0.16683502 0.021724729 -0.061120458 0.030077403 -0.116509184 -0.04741798 0.1311709 -0.013439577 0.053155407 -0.005339942 0.08162117 0.07103951 0.025359334 0.0060670646 -0.11466372 0.104085974 -0.078704625 0.2088959 0.09298093 -0.10820614 -0.1242758 -0.14777648 0.16637442 0.21434814 -0.024217773 -0.079978086 0.03498208 -0.022075322 0.032794397 0.0065011396 -0.0965433 0.0024211702 -0.10673054 0.16151576 0.04433074 -0.124992825 0.0555291 0.17594549 -0.0808634 -0.20144367 -0.1775 0.07436064 0.010846055 0.21291313 0.01086613 -0.021418083 -0.1734072 -0.07614442 0.10794622 -0.14620823 0.112225056 0.119652875 0.047534492 -0.13437085 0.063814744 -0.10385761 -0.05532965 0.13117875 0.03963588 0.07383592 -0.15888287 -0.07800866 0.1264703 -0.061566636 0.20426525 0.24080284 0.11882758 0.12758878 -0.018266562 -0.0417609 0.033116065 -0.0433677
ㄹ -0.09823465 -0.062094945 0.030153252 -0.05290546 -0.2677492 0.12829618 -0.11629197 -0.23687135 -0.18329448 -0.011574047 0.20926516 0.11411939 -0.20005445 -0.120737635 -0.017283253 -0.0877546 0.08307014 -0.02567312 0.087170266 -0.018438559 -0.04016611 0.16494797 0.030710014 -0.25209293 -0.114427626 0.0890019 -0.16862857 -0.019923091 -0.12409814 -0.023881778 0.100002006 -0.122827314 -0.08818979 -0.12079995 0.12246516 0.004931092 0.13249864 -0.0047383243 0.11219694 0.029733684 0.0032752638 -0.09930607 -0.07340948 0.022395173 -0.036757294 0.05841645 0.09163587 -0.1374674 -0.012628133 -0.117714 0.119397625 0.25848117 -0.02768145 -0.09778965 0.007663069 0.03628565 0.12248549 -0.03485896 0.12575673 -0.09956799 -0.057560593 0.15355329 0.13128994 -0.054402586 0.09334827 0.1565225 -0.16399126 -0.14443405 -0.121379845 0.04433448 0.018693008 0.3287495 0.05101599 0.01427705 -0.20177057 -0.116767496 -0.01802285 0.010255192 0.09131934 0.11017008 0.15912049 -0.026798792 -0.0115685845 -0.0467065 -0.08777164 0.14977866 0.012536137 -0.023971938 -0.09101126 -0.12576413 0.014198298 -0.026258547 0.047878206 0.29211968 0.1595041 0.12729882 -0.015256918 0.034708098 -0.024725042 -0.060828924
ㅣ -0.13089201 0.0011988032 0.16632916 0.078661785 -0.26991436 0.10419558 0.0019270146 -0.2611619 -0.15108448 0.01910884 0.16788489 0.056163628 -0.03994548 0.026127879 0.1387194 0.032613765 0.16168062 -0.025562886 0.13828503 0.009965919 -0.0937432 0.12997504 -0.006583561 -0.21268646 -0.0488475 -0.016373105 -0.1064192 -0.050117545 -0.04752585 0.04833522 0.09867631 -0.13238466 -0.070359915 -0.11683897 0.033998966 -0.10810614 0.19367406 -0.05825902 0.2640428 -0.092395134 0.14770357 -0.08288123 -0.0613978 0.12996763 0.058716577 0.13746081 0.14651038 -0.1455426 -0.03190355 -0.08209333 -0.00705111 0.19840506 0.08473273 -0.17416309 0.035329748 0.07185636 0.011636951 0.006228671 0.028270803 0.04514915 -0.06385601 0.10913557 0.060545616 -0.14834093 0.02495331 0.13485885 -0.17807221 -0.069753155 -0.1941671 0.09032557 -0.156083 0.16531208 0.04916924 -0.15382667 -0.2568771 -0.09667262 -0.0870246 -0.124367476 0.008508993 0.15783961 0.19896087 -0.111473575 0.07497416 -0.08502134 -0.051326185 0.20471483 0.041753467 -0.018214574 -0.13727005 -0.089795694 -0.00100259 0.10063468 0.07426798 0.16355965 0.25120607 0.15667717 -0.019792601 0.16722804 -0.0053189164 -0.046071116
ㅡ -0.1399581 -0.07064297 0.05224928 0.09471287 -0.14603522 0.15075205 -0.13054201 -0.17824861 -0.18542495 0.044854242 0.19632469 0.056173295 -0.01344499 -0.05679392 0.023884388 -0.009156422 0.10999526 -0.075021505 0.14631277 -0.007803087 -0.10006679 0.09887836 -0.030603262 -0.13321808 -0.10104804 -0.034363404 -0.21858771 0.033951066 -0.23547901 0.11121115 0.18009655 0.039642796 -0.11603872 -0.1744752 -0.013087315 -0.031213103 0.17509523 -0.090469025 0.12647477 -0.009123752 0.059954546 -0.13090514 -0.055510595 -0.050601594 0.0639917 0.12121438 0.20672509 -0.17561659 -0.05607946 -0.10999171 0.0793124 0.18610284 0.1769691 -0.2609551 0.035171747 -0.047860026 0.14309356 -0.010719916 -0.010713364 -0.026627138 -0.18445912 0.12022283 0.11405612 -0.13031901 -0.11535301 0.18447594 -0.122647695 -0.04329783 -0.19283268 -0.043074314 -0.08135733 0.1271653 0.0630139 -0.10307412 -0.19915706 -0.21597226 0.007624545 -0.123673536 -0.10615092 0.020009937 0.04615403 -0.04504942 0.11955345 -0.118579745 -0.0906846 0.12419658 0.07809176 0.056938086 -0.1545723 -0.19651282 0.05267708 -0.09446442 -0.08362335 0.21713635 0.27542248 0.04290958 -0.13351077 0.22699866 0.06900396 -0.02101718
ㅓ -0.12375953 0.042001184 0.06104585 0.03368813 -0.13460812 0.017736271 -0.18496673 -0.23639874 -0.17943385 0.12118399 0.30576834 0.074096166 0.04542587 -0.084809415 0.10546977 -0.07059558 0.099693 -0.039528105 0.18415096 -0.19636524 0.013156412 0.088536754 -0.06960367 -0.17985907 0.008270178 -0.037572797 -0.09297596 -0.0144253895 -0.01172763 0.082801774 0.06271778 -0.09414887 -0.026373124 -0.074734636 0.1178818 -0.21158202 0.20657478 -0.046314277 0.046507686 0.03413311 0.037816264 -0.084981516 -0.10830732 0.077359535 -0.10115472 0.15223938 0.14820501 -0.17473848 -0.09424014 -0.09774965 0.14027414 0.13651474 0.036270287 -0.2708477 0.003740381 -0.00056503393 0.03050668 -0.06871526 0.08118222 0.013090891 0.110103294 0.108532555 0.121373676 -0.07721346 -0.086384475 0.19722132 -0.21019486 -0.034950428 -0.26673785 0.035503376 -0.11174044 0.17336407 -0.030424282 -0.28487152 -0.25903386 -0.098029114 -0.036794417 -0.12086289 0.111551166 0.21998294 0.105500475 -0.09929538 0.14705645 -0.14734547 0.107274376 0.25350273 0.017401462 0.1079089 -0.15625632 -0.018346218 0.028423468 0.11077494 0.17735206 0.26547444 0.27844083 0.08944393 -0.006115961 0.12018454 -0.030168058 0.02040705
ㅅ -0.12189017 0.029751897 0.21348344 -0.074743554 -0.25475565 0.047058925 -0.09892187 -0.2412916 -0.22946857 0.07074146 0.32440272 0.08650502 0.031328667 -0.14008328 -0.030243622 -0.11106683 0.11886152 -0.023452029 0.16799311 -0.11513283 -0.1378656 0.09916934 0.044111416 -0.23291457 -0.09736355 0.035068918 -0.09472311 0.007866033 -0.2109894 -0.002473743 0.100479014 0.060158882 -0.035622355 -0.19169337 0.1277428 0.008089405 0.04030167 -0.026856419 0.117551595 0.07379136 0.112858504 -0.10750318 -0.010749555 -0.08268303 -0.081187256 0.17265165 0.15375209 -0.13290322 -0.09434773 -0.09181791 0.00062426477 0.18381606 -0.03472444 -0.0061646537 0.05686945 -0.03249244 0.026638448 2.6062737e-05 0.040384423 -0.011593496 -0.11805805 0.051707175 0.08971562 -0.092786506 -0.06723117 0.14543682 -0.114264615 -0.028046288 -0.07524343 0.14391722 -0.053824995 0.13584484 0.04903446 -0.02478561 -0.11679474 -0.060689434 -0.00419162 -0.05971197 0.079933204 0.17617472 0.042726494 -0.09325193 0.13242811 0.010398695 0.013993351 0.1972448 0.07499434 0.07946243 -0.12045517 -0.111789 -0.04248793 -0.117202446 0.19162335 0.20244521 0.20047691 0.13790064 -0.0067210216 0.019317616 -0.014655236 -0.08708907
ㅗ -0.15567137 -0.07460841 0.17998931 -0.023000916 -0.20655815 0.105500154 0.045666266 -0.19554892 -0.109533936 0.04826312 0.2608043 0.041859996 -0.047173183 -0.06979911 0.07377393 -0.019892579 0.11174829 -0.113148786 0.12894562 0.022499038 -0.09948312 0.11647221 -0.024635402 -0.20606032 -0.07266094 0.046692852 -0.124801986 0.0077733197 -0.11360878 0.08030561 0.07241163 -0.06361229 -0.057694677 -0.20881729 0.06390138 -0.056364935 0.14936417 -0.028491434 0.1523326 -0.047714125 -0.008292028 -0.14582919 -0.00049881474 0.064317465 -0.029681409 0.057030074 0.20575832 -0.103763096 -0.053523723 -0.19463912 0.19911385 0.2094157 0.056615405 -0.17072113 -0.07980748 -0.030177305 0.014951629 -0.05275542 0.10823392 0.01069775 -0.11883184 0.26232955 0.116500355 -0.1266513 0.088390075 0.19296183 -0.12569775 0.018347006 -0.1520973 0.08725054 -0.24256982 0.2697557 -0.014962185 -0.112579584 -0.20277995 0.009300437 -0.08617786 -0.08622484 0.033325214 0.14430346 0.046847638 -0.06342288 0.03081551 -0.024140444 -0.020138515 0.11951609 0.0618426 0.07214793 -0.14882627 -0.10697541 0.09849705 -0.051663503 0.029387606 0.22991925 0.11612082 0.15315287 -0.051156227 0.2602477 0.005809278 0.039357822
ㄷ -0.3042104 0.02605579 0.21987592 0.092747636 -0.19470394 0.14470327 -0.05980994 -0.117207214 -0.2986039 0.19748226 0.3524235 0.15227449 0.019230645 -0.06612117 -0.06976512 0.03834468 0.24297307 0.055716928 0.18002506 0.058659755 -0.059441335 0.09437407 -0.023657668 -0.18506068 0.03947632 0.10687035 -0.2136876 0.05130911 -0.14505407 0.21042892 0.0971361 -0.1520024 -0.017831584 -0.12517175 0.073545925 -0.1187269 0.00026417908 0.028269392 0.09622634 -0.21131796 0.11947067 -0.20204903 -0.07918781 -0.030942656 -0.09381669 0.16913179 -0.0037172348 -0.0934223 -0.1164741 0.02134764 0.015741222 0.23366044 0.061047267 -0.027342012 0.05208004 0.17711495 0.2538841 0.019353878 0.21969976 0.1097389 -0.11578218 0.07611431 0.030988084 -0.22241163 0.0049949936 0.07985444 -0.010738744 -0.08918362 -0.15410234 0.19332792 -0.10007298 0.24790563 -0.07621112 -0.16597578 -0.22133681 0.025503835 -0.051784847 0.0068398397 0.15032727 0.10977756 0.18236439 -0.0132853305 0.065694526 -0.16491115 0.103168525 0.094435506 0.0030298992 0.12807252 -0.053191386 -0.073494874 0.13738003 0.055925366 0.32613504 0.23555274 0.3037271 -0.006423456 0.04748307 -0.11217101 0.05082518 -0.14954267
ㅈ -0.13748915 0.039862383 0.2342351 -0.06565595 -0.3187184 -0.05053869 -0.099392295 -0.2068899 -0.18353851 0.06111608 0.24993016 0.010409236 -0.06591249 -0.102513224 0.09293063 -0.07673365 0.17128018 0.033148907 0.051278755 -0.010762071 -0.22380407 0.03765116 0.08645535 -0.31050974 -0.097134106 -0.0028026227 -0.13887797 0.051487677 -0.29095167 -0.08167576 0.12174837 0.037978448 -0.19210173 -0.12565936 -0.022039352 -0.024914825 0.1487368 0.0057820445 0.2785714 0.029282117 0.103258595 -0.025794653 -0.07819995 0.13880509 0.0747097 0.24469398 0.15583564 -0.12912017 0.025146589 -0.091964394 0.045580324 0.20655067 0.030650137 -0.062192243 -0.058740836 0.0072215404 0.12556684 -0.010270583 0.11194519 0.023156535 -0.20653175 0.13137534 0.08280307 -0.03633624 -0.0029541475 0.19524865 -0.071235575 0.061793964 -0.10583043 0.08674351 -0.031282406 0.12301396 0.047782518 -0.019730534 -0.13534215 -0.050741572 0.10810705 -0.108583 0.095779836 0.07660375 0.010943131 -0.09075069 0.13523622 -0.031198671 -0.08128894 0.15679963 0.067797765 0.10454304 -0.014159185 -0.015760545 -0.028910652 -0.066930965 0.21148854 0.2531083 0.2089879 0.086844765 -0.0503824 -0.06973627 0.031879913 -0.09636698
ㅎ -0.0962681 0.12212506 0.19402851 0.1201764 -0.2079756 0.08319425 -0.010049803 -0.13082443 -0.24413049 0.110648826 0.31044224 0.23792094 0.0064853793 -0.24175885 0.08609718 0.11833011 0.13596779 -0.080306925 0.116055846 -0.037108358 -0.23506087 0.018538628 0.045553602 -0.12045733 -0.06758902 0.013100636 -0.27612308 0.03168332 -0.08074055 -0.015079636 -0.03987009 -0.12953922 -0.060423803 -0.026981868 0.100125134 -0.044280004 -0.05013162 -0.004993442 0.2488691 0.007468269 0.03082856 -0.084234916 -0.049693745 0.12132118 -0.025309358 0.1437201 0.06886848 -0.032715797 -0.05528762 -0.07059575 0.11402161 0.20101531 0.20668748 -0.040548287 -0.012141449 0.1608852 0.14592238 0.1005277 -0.06626246 -0.07233946 -0.24139969 0.39219883 0.09645442 -0.21203753 0.029827427 0.07062992 -0.07353038 -0.17360023 -0.2578486 0.13061596 0.008581882 0.08793735 -0.038440857 0.03991564 -0.12613036 0.053375978 0.03786758 -0.29272658 0.11654052 0.21482947 -0.0025097684 -0.07317879 -0.01667036 -0.11722806 0.13971883 0.034315556 -0.044028338 0.039039075 -0.078432605 -0.013539806 0.1453412 -0.14893873 0.24246714 0.11864833 0.18910182 0.17298512 -0.08238143 0.041278854 0.1025857 0.023607679
ㅁ -0.074848376 0.090739705 0.04873848 -0.11288722 -0.2766355 0.05312554 -0.039876156 -0.15745816 -0.19839627 -0.055616125 0.22664793 0.023968643 -0.15001324 -0.14672603 -0.011429957 -0.066832915 0.12495158 0.07256336 0.04074793 -0.08352614 -0.14013676 0.020657703 0.03385177 -0.18799534 -0.11312071 -0.04227538 -0.16717787 -0.119407356 -0.20428088 -0.00023558522 0.15141179 -0.05002339 -0.14892519 -0.09242074 0.08265602 -0.19769661 0.18608983 -0.0707426 0.15468879 0.07368542 0.030591488 -0.06117493 -0.07710987 0.14382204 0.003982108 0.20816346 0.139755 -0.18210445 -0.029188074 -0.046060603 0.1629682 0.3315117 0.028959163 -0.06446385 -0.046354994 0.041274138 -0.08099759 0.06289869 0.11793035 0.10562818 -0.27078006 0.14383562 0.08584568 -0.0742277 0.040631544 0.16972323 -0.108008824 0.055250403 -0.22367081 0.11977476 -0.05986728 0.32743704 0.07514992 -0.007021608 -0.07837242 -0.07864752 0.04751842 -0.11027695 0.12971567 0.05481802 0.031055907 -0.019090554 0.13100757 -0.060610797 -0.017614404 0.105563685 -0.026436957 0.10789423 -0.13508964 -0.19019687 0.036737066 -0.11315485 0.0638771 0.16941743 0.14859402 -0.067736 -0.024124099 0.080380626 0.19157854 -0.013624557
ㅜ -0.09517712 0.11974275 0.18928039 0.012601 -0.2868976 -0.12271627 -0.024171138 -0.12912586 -0.0527473 0.1543 0.37578815 -0.00646726 -0.028528554 -0.106026396 0.10479057 -0.1771696 0.10957218 0.031026311 0.07885559 -0.17517523 -0.0985226 -0.019002762 -0.023590287 -0.22660442 -0.13920358 -0.061646625 -0.042284805 -0.03475571 -0.12652025 0.06278561 0.00712525 -0.0022821561 -0.16653335 -0.21480113 0.027112762 -0.029203955 0.16617821 -0.017073369 0.24692719 -0.10030439 0.12296769 -0.041639432 -0.015090415 0.062813595 -0.049111146 0.06043609 0.21773584 -0.023424685 -0.12570381 -0.13615364 0.00981653 0.1824919 0.051960647 -0.15171845 -0.026405167 0.029343626 0.0149838505 -0.08451946 -0.032922465 0.105665475 -0.09270001 0.27891833 0.07963187 -0.1567764 -0.020470787 0.1617765 -0.12991887 -0.026645198 -0.15452972 -0.008288911 -0.10978801 0.21484162 -0.015919028 -0.08095668 -0.29085916 -0.07239766 0.055584986 -0.248145 0.09664375 0.14313059 0.10808798 -0.1421847 0.0024535197 -0.012941641 -0.007680047 0.1989145 0.029766236 0.003878257 -0.10572908 -0.07169226 -0.038495515 -0.008120599 0.0072318097 0.18470755 0.19367094 0.13835698 -0.03566737 0.12403704 0.062364656 0.037429772
ㅂ -0.057954196 0.096830115 0.15385334 0.06282925 -0.33729005 0.13186623 -0.10432206 -0.2633169 -0.14342192 -0.074463055 0.30807054 0.20496683 -0.058238707 -0.02345931 -0.08774475 -0.03401219 -0.061999857 -0.091511466 0.15494545 -0.037132937 -0.0057495446 0.048397668 -0.05321935 -0.23594937 -0.10283428 -0.032531247 -0.09305412 0.07393428 -0.15500525 0.03205049 0.097269624 -0.03705571 -0.15977706 -0.12496085 0.00562091 -0.07653736 -0.0047293245 -0.030999487 0.19298345 0.13964611 0.025102902 -0.067928135 -0.045053735 0.122235194 0.0055570384 0.13732226 0.22241205 -0.20244327 -0.063739575 -0.02832198 0.11590917 0.2949439 -0.013159795 0.050160967 0.04076975 0.021215793 0.08391848 0.14238426 0.016947774 0.06056422 -0.0890652 0.19741465 0.037812546 -0.094577156 -0.033705592 0.24453707 -0.060927503 -0.115169965 -0.22889681 0.20414439 -0.10723221 0.23010188 -0.02544241 0.009295801 -0.1285477 -0.08762875 0.08647887 -0.10297071 0.04244042 0.16777124 0.035117045 -0.0040463223 0.057469968 -0.051028732 -0.06165696 0.22436473 0.03176855 0.20900278 -0.11165267 -0.031842317 0.015729312 -0.061434127 0.08954988 0.047300536 0.13266012 0.11742449 -0.0021706652 0.05439015 0.009331432 -0.06216313
ㅔ -0.09043441 0.05641447 0.14577487 -0.10454082 -0.24663976 -0.050714843 -0.06865332 -0.087721035 -0.17214802 -0.059341364 0.2494516 0.05963707 -0.027592873 -0.14225307 0.011215507 -0.03470448 -0.002892357 0.01612904 0.09464992 -0.0943925 0.08520633 0.09887001 -0.032952502 -0.14932428 -0.05339406 0.07741587 -0.07513969 -0.059128173 -0.17042458 0.03743497 -0.052665256 -0.0661785 0.029418703 -0.2399936 0.13492678 -0.01404486 0.1479885 -0.07193526 0.18619613 0.018555075 0.058865584 -0.088998325 -0.03840422 -0.061250757 0.044994164 0.16957168 0.106375985 -0.12434946 0.100811355 -0.15062806 0.10701008 0.3290925 0.1296313 -0.053430457 0.062878035 -0.07178392 0.021869339 -0.046647187 0.0956329 -0.0039619748 -0.08078203 0.14129643 0.12465901 -0.07613791 -0.10742096 0.289075 -0.10749518 -0.110928155 -0.21875462 -0.0939339 -0.1361672 0.19140425 0.1463026 -0.061940633 -0.20143276 -0.1545259 -0.014126186 -0.22359307 -0.06513207 0.103975035 0.16682437 -0.06844021 -0.011417759 0.03356144 -0.061349284 0.08228204 -0.007627491 0.031788684 -0.06624838 -0.123351425 -0.0410548 0.009392641 -0.01819564 0.23065457 0.22577882 0.103561364 -0.091072254 0.06154228 0.053654436 0.110606626
ㅕ -0.09079211 0.07029374 0.21115135 0.008498729 -0.2104551 0.041618776 0.056450903 -0.091773115 -0.17439686 0.101846114 0.32705885 -0.07137271 -0.02310068 -0.10265593 0.007433444 -0.15079917 0.08117569 -0.05025764 0.07177376 -0.07378198 -0.031184448 0.057567675 -0.12891844 -0.10017448 0.039402105 0.032948915 -0.07562976 0.015556031 -0.16483064 -0.018595016 0.006136321 0.16901833 -0.32108557 -0.1651096 0.13113219 -0.011496253 0.15193295 -0.08839773 0.20458078 -0.11389888 0.12082997 0.033124723 -0.06649364 0.023381922 0.016425932 0.1635002 0.20262568 -0.0021931848 -0.053648733 -0.1264935 0.003166761 0.25326315 -0.15261288 -0.1990222 -0.04527891 0.03954775 0.0059036086 -0.108637094 -0.00082321424 0.17135358 -0.08339432 0.13647963 0.17818318 -0.10466053 0.058838453 0.15684631 0.033669643 0.016387217 -0.027561715 0.041227713 -0.019217351 0.25740477 0.20907418 0.02527719 -0.3378562 0.20236813 0.082999974 -0.1755069 0.016743599 0.024873413 -0.039239485 -0.2306893 0.05918424 0.012354364 0.051107235 0.10224699 0.07554177 -0.0649407 -0.21754609 -0.1177334 0.064955235 -0.0598789 0.024734177 0.17604947 0.18320945 0.24126035 -0.123345464 0.035427943 0.21302894 0.082629345
ㅐ -0.10910183 0.00598159 0.08496782 0.10680413 -0.33267975 0.01575637 -0.0026413791 -0.19884792 -0.055128705 -0.070970535 0.25592935 0.05541182 -0.16750634 -0.04683651 -0.06167985 -0.1798224 0.09610618 -0.15951999 0.14651962 -0.14721248 0.05316978 -0.07394822 0.020362066 -0.11036367 -0.06804361 0.028551526 -0.08324711 -0.07720721 -0.114483714 0.11290729 -0.2113129 -0.038297795 -0.05851014 -0.1286519 0.16380522 0.051607884 0.086379535 -0.13950685 0.15688547 0.055731308 0.033778884 -0.10397985 0.010152531 0.07439753 -0.15832944 0.011304512 0.16063468 -0.046798933 0.05392494 -0.18603511 0.0549352 0.25093314 0.1652854 -0.15263493 -0.002249557 -0.14466342 0.017959153 -0.11563032 0.025175905 0.07445309 -0.1265218 0.18241552 0.1381989 -0.18168165 0.08508097 0.2967343 -0.14796476 -0.02640409 -0.18362519 -0.05385563 -0.12936601 0.3643473 0.08745035 -0.001211017 -0.20050485 0.014779562 0.1056528 -0.11391333 -0.011574912 0.07358553 0.012281292 -0.038906835 0.0064852377 0.031309225 -0.03632844 0.18098025 0.069710225 0.052726995 -0.1932382 -0.0864789 -0.023456512 -0.12120964 -0.07165806 0.250738 0.16015491 0.16027758 0.021017466 0.15805128 0.14537574 -0.038241763
ㅊ -0.18435274 0.044347174 0.23462796 -0.18628328 -0.23870048 0.035248887 -0.11708757 -0.14489911 -0.12785 0.028324485 0.4781561 0.07451517 -0.14170799 -0.10193348 -0.02639505 0.01953808 0.08709228 -0.027929528 0.25060016 0.0014672833 -0.10916473 -0.041830026 -0.048417076 -0.18763128 -0.1213109 0.08810552 -0.010403672 0.14220454 -0.22782494 0.05379238 0.03399716 0.025920367 -0.022586646 -0.13318402 0.1412793 -0.045687832 0.06283061 -0.039769877 0.21734244 -0.07241532 0.15915892 -0.045724068 -0.17735906 -0.037253045 -0.12757328 0.18552528 0.19711849 0.0664608 0.106054164 -0.19520766 -0.041742206 0.22697432 -0.012118354 0.09748185 0.018069541 0.13858245 0.14054804 -0.06465775 -0.06885418 0.011656148 -0.09881456 0.1528078 0.17687324 -0.094428696 0.038465396 0.3395261 -0.0993401 -0.116130225 -0.20010698 0.03989747 -0.053719547 0.082187556 0.024208207 -0.000906362 -0.1708909 -0.050652523 0.031976067 0.010785365 0.07967811 0.054162554 -0.08579179 -0.081767984 0.12079417 0.0732441 -0.010408051 0.19616799 -0.049873605 0.086650155 -0.08870753 -0.006742697 -0.02767334 -0.14885965 0.15806234 0.11942184 0.17429918 0.11157893 -0.034556314 -0.06388509 0.0435039 -0.08300987
ㅆ -0.3867431 -0.058473993 0.12271613 0.25489986 -0.20444335 0.26265472 0.025102576 -0.1678482 -0.37717375 -0.08521298 0.3430913 0.15423559 -0.18531898 -0.19247088 -0.05183064 -0.05320469 0.24799463 -0.0022533585 0.060552232 0.0020080542 -0.11929099 0.05987178 0.21414068 -0.19142711 -0.0063257064 0.18479553 -0.32197905 0.13495123 0.10533222 -0.050629225 0.2905829 -0.045632165 -0.10641931 -0.059398904 0.0645111 0.06327482 -0.010751158 0.26696882 0.15906994 -0.058267806 0.06828143 -0.29328832 0.14940678 0.0651183 -0.15986192 0.36337942 -2.479419e-05 -0.30141744 0.045598906 -0.17872918 0.023306867 0.03028408 0.13349934 -0.049273923 -0.36418945 -0.0043444103 0.0057190075 0.01777274 0.12016848 -0.14594182 0.07581018 -0.15542914 0.18148904 -0.049298055 0.0352854 0.31121108 -0.20100172 -0.04653969 0.25323033 0.2637983 -0.15962267 0.38099125 -0.08227191 -0.23727673 -0.21261087 -0.08928877 -0.11612882 -0.3040423 -0.02427425 0.06667676 0.22669727 0.055733927 -0.081478655 -0.32929495 0.14164916 0.33145955 -0.079149716 0.2932084 -0.06767268 0.15371247 -0.1712211 -0.26358607 0.27409557 0.19252189 0.08431358 -0.11326601 0.12760268 0.18820737 -0.00053290045 -0.2506938
. -0.16367729 -0.4418059 0.2962066 0.2467269 -0.12849967 0.3283796 -0.10738776 -0.16363493 0.015002512 -0.19917569 0.3250873 0.6261664 0.20427217 0.07506208 -0.27523106 0.35674712 0.21744363 -0.18233165 0.014518164 -0.27806512 -0.16270581 0.077160046 0.11592912 0.12946615 -0.34714368 -0.090691045 0.12557161 0.3340071 0.2433174 -0.19512305 0.18223625 -0.18791717 -0.2659344 -0.50535685 -0.038085166 0.082415484 0.38012126 0.3468049 -0.05709987 0.20899026 0.3637014 -0.1952054 -0.031843483 -0.071013734 0.011421768 0.38113838 0.31816044 -0.056155834 0.22242859 -0.09243577 0.20965739 -0.040960506 0.13599998 -0.014926435 -0.10374432 -0.33883023 -0.4422728 -0.5569832 0.51528275 0.054101393 -0.49204016 -0.25416616 0.34902558 -0.10685044 -0.00941336 0.30931365 -0.45754206 -0.284301 -0.05525906 0.3325212 -0.20568739 0.49831986 -0.17840058 -0.04614651 -0.4559726 0.1222555 0.17326741 -0.2736496 0.122437514 -0.02144542 0.0027134723 -0.027497672 -0.13306534 -0.35569546 0.071822084 -0.05253565 -0.010721589 0.5199107 -0.0022081349 -0.31763625 0.33528143 0.20031717 0.64405304 0.44995454 0.3460227 -0.061377477 -0.415556 0.08799786 -0.29604197 0.12687384
ㅌ -0.1541926 -0.11632197 0.09836383 -0.015992863 -0.29518425 -0.04214613 -0.12372463 -0.24611104 -0.1604111 -0.0900848 0.36655474 0.18100818 -0.025138361 -0.06024813 -0.1498103 -0.08597465 0.13119642 0.068942174 0.22450629 0.04104167 0.07982455 0.17428178 0.07912072 -0.2976998 -0.1387208 0.09103884 -0.090864785 -0.00020833402 -0.48491758 -0.12880097 -0.10887167 0.0162206 -0.03292844 -0.08907217 0.09219122 -0.07167423 0.16236387 -0.06721523 0.13607556 0.15337013 0.09806123 0.008084076 0.023116104 -0.043896127 0.061690655 0.005269864 0.13024628 -0.21312135 -0.012736735 0.08104272 0.10883356 0.30254298 -0.07529625 -0.07281584 0.089458145 0.17824416 0.005280669 -0.064161055 0.29472965 -0.15232916 -0.109875344 0.10909833 0.012756141 -0.09493951 0.03704406 0.11928447 -0.1725693 -0.13872589 -0.14523032 0.04354376 -0.024075761 0.17805132 -0.061326265 0.067400396 -0.35234898 -0.13965379 -0.025425818 -0.005178432 0.01607112 0.13907644 -0.0941692 -0.13232006 -0.0073856297 0.0025731046 -0.08783475 0.19081303 0.0707776 -0.08647339 -0.109413266 -0.058896627 0.04192337 -0.066170394 0.0543335 0.10889544 0.22114593 0.079901665 -0.039554965 0.092154324 0.16795897 -0.101769455
ㅢ -0.05240898 0.06721004 0.052972544 -0.18100515 -0.23851623 -0.009460913 -0.2553442 -0.112341896 -0.06327671 0.088523015 0.13971883 0.10503265 -0.17487611 -0.11619889 0.09934717 0.023710795 0.081566826 -0.07550522 0.17904685 -0.23755407 -0.09540981 0.07610009 -0.0975571 -0.13052005 0.053981896 0.05723893 -0.10513808 0.06328916 -0.09539046 -0.015840322 -0.04078339 0.17820147 -0.0021691313 -0.01880351 0.019076247 0.1457432 0.07168952 -0.10094467 0.236556 0.030523695 -0.117151275 0.028745051 -0.15230037 -0.019665755 0.068347715 0.088729575 0.34157076 -0.14366838 -0.10500751 -0.210765 0.2566436 0.32328913 0.0025216232 0.034203194 -0.10123492 0.013204111 0.11534694 0.027585145 -0.12335836 -0.09370622 -0.083466224 0.176289 0.30768663 0.02102162 0.022086661 0.2664681 -0.10112301 -0.15535082 -0.16219777 -0.23078048 0.0157418 0.028664086 -0.0018358132 0.03138244 0.005710744 0.00042727322 0.12413936 -0.12718718 -0.15023555 -0.19435447 -0.028045708 -0.2755326 -0.040088456 -0.090468995 0.1088548 0.09429217 0.07183911 -0.17691906 -0.12276465 0.25140703 0.02343754 0.06465442 0.016883638 0.2243716 0.2869157 0.10278693 0.035066374 -0.09515704 0.033213373 0.0061984765
ㅘ -0.20281297 0.1238539 0.09809368 -0.021182967 -0.36529034 -0.07169088 0.009771423 -0.22945142 -0.050773524 0.093916476 0.15666643 0.02230747 -0.08739391 -0.07631647 0.15681687 -0.21094657 -0.004083024 -0.023556825 0.1284543 -0.22934787 -0.25113067 -0.04943035 -0.040693834 -0.23533793 0.009915552 0.03247158 -0.015039586 0.061108205 -0.23151109 0.12311997 0.042746432 0.09032713 -0.18430725 0.00069329067 0.054400362 -0.007736463 0.028919755 -0.1768218 0.11519677 0.122006096 0.022284415 0.07800668 0.027890706 -0.015679253 -0.0967107 0.1477192 0.2086521 -0.07103323 -0.03235904 -0.24249743 0.28793 0.36358207 -0.06438442 -0.081930354 0.23422688 -0.04526496 0.031307243 0.12368476 -0.09478321 0.02088598 -0.06274901 0.1940461 0.02096008 -0.08487205 -0.026838794 0.32562816 0.060049534 -0.08609113 0.026294889 0.08570182 -0.17527908 0.12589504 0.004754703 0.20154248 -0.06681848 0.054859012 0.13346125 -0.25500262 -0.056992624 0.026564201 -0.041091673 -0.22050178 -0.035841823 -0.028794086 0.010201222 0.11546624 -0.14723353 -0.22160517 -0.033939894 0.03741948 0.17538345 -0.14988987 0.051745567 0.19228888 0.36183578 0.19839056 -0.068042934 0.06188813 0.11712791 -0.00831422
ㅍ -0.2548646 0.09444507 0.051076543 -0.022143139 -0.26468763 -0.014229954 -0.057161815 -0.09780391 -0.16508223 -0.08372088 0.33962986 0.12747973 -0.1731723 -0.021712199 -0.12704428 0.017342634 -0.045458842 -0.093692385 0.28359097 0.092874326 -0.11694549 0.1519742 0.07571233 -0.2703447 -0.12601373 0.005527797 -0.15523905 0.020872677 -0.2949445 0.034852322 -0.07432059 -0.08555384 0.10953313 -0.12515928 0.07222601 0.045326352 0.0856311 -0.02177658 0.01547112 0.1607276 0.15065163 -0.05490536 0.103114314 0.09926556 0.07515431 -0.04749077 0.28110945 -0.26804703 -0.12796012 0.078564204 0.16065057 0.34947643 -0.08932187 -0.011965979 0.005270715 0.035594877 -0.0625916 -0.25792888 -0.09558163 -0.11128782 -0.27205887 0.17932296 0.17793123 -0.1515619 0.05622228 -0.024051072 0.11488708 -0.06348865 -0.09536758 0.23563044 -0.11430483 0.18359502 -0.01906272 0.030648725 -0.28175014 -0.15874583 0.005372453 -0.10477436 0.07260667 0.1290486 -0.048130732 -0.08536287 0.050841127 0.005098857 -0.11182252 0.12972167 -0.062199112 -0.06654777 -0.18948908 -0.21289423 0.13162765 -0.1259032 0.005481172 0.3627876 0.18488735 0.007845671 0.118483864 0.029590523 0.20938782 -0.098059565
ㅚ -0.0032408256 0.1529687 0.35637757 0.07176924 -0.26322374 0.05049869 -0.12620133 -0.04222561 -0.3725854 0.16311964 0.2994015 0.03273182 0.013786118 -0.14933462 -0.07814293 -0.05141228 -0.032459866 0.016370477 0.22181971 -0.05519367 -0.31999534 0.055295795 -0.015702942 -0.17182769 -0.03204019 0.011026958 0.14517395 -0.009438568 -0.016397055 0.17249061 -0.14797758 -0.022873402 -0.15483055 0.094005786 0.21572448 0.10571531 -0.09516383 0.03769095 0.06380424 -0.041076317 0.045770083 -0.15044683 0.019175168 0.27776167 -0.11445725 0.22330828 0.1879235 -0.0069884374 0.07742349 -0.032560896 0.012940246 0.323587 -0.15841681 -0.29649454 -0.11674193 -0.25604343 0.118151575 -0.14301908 0.01734653 0.06401652 -0.058277532 -0.033240393 0.1571237 -0.2448947 -0.046560332 0.43461236 0.07745699 0.016968152 -0.21795999 0.20316792 -0.35926607 0.07261856 0.046938114 -0.12097605 -0.118973225 -0.17426477 0.20077126 -0.22639044 0.021957293 0.10683099 -0.080045186 0.04453753 -0.0023403156 -6.0450013e-05 -0.11830442 0.07633008 -0.1876572 0.08620597 0.1282484 -0.03216402 -0.024700169 0.07145155 0.18233879 0.21860957 0.21729141 0.28159302 -0.018354122 0.20759133 0.1192531 -0.016559355
, 0.12539865 -0.008082769 -0.13664584 -0.07143818 -0.15428916 0.122923665 -0.20170687 -0.2058313 -0.14084652 0.050620347 0.08434417 -0.07193813 -0.064730465 -0.013386462 0.025752159 -0.092217036 0.24888611 0.07822718 0.09555733 -0.08333725 0.07063609 -0.12267457 -0.10313915 -0.14967886 -0.12569259 0.121666044 0.00932217 -0.11389167 -0.107923895 0.12045818 -0.060130503 0.1940987 -0.034082785 -0.13350983 0.053098507 0.2363052 0.089887284 -0.009955284 0.14608516 -0.012356798 0.092053615 -0.045505308 -0.21031432 0.2082462 0.08391578 0.10260945 0.032539472 0.06733517 -0.006111886 0.005215643 0.39058673 0.09836876 -0.016720464 0.049280312 0.00020581027 -0.19101743 -0.15506677 0.05640492 -0.09677608 0.032925542 -0.25138476 0.08290496 0.13273579 -0.09632855 -0.035267968 0.15168819 -0.10898083 -0.3710012 -0.1988964 -0.25260594 -0.01938815 0.19204903 0.07607178 0.13699783 -0.4875442 0.036527127 0.060018934 -0.052557625 0.03239215 -0.031858202 -0.00023695978 -0.10182075 0.07789996 0.14832263 -0.020870237 -0.021776143 -0.014901875 0.05085228 -0.019320413 -0.10443496 0.18583576 0.14079385 -0.12577346 0.10261735 0.27760026 0.08520818 0.15346827 -0.07846121 0.20109113 0.14017236
ㅛ -0.1650564 0.05444487 0.23444824 -0.18282591 -0.41272953 0.15886971 0.008623045 -0.17691213 -0.2712997 -0.02142042 0.35355 0.22895497 0.08521176 -0.054800663 -0.07796241 -0.004250397 0.045428894 -0.010921605 -0.033867 -0.010210812 -0.07984868 0.14371428 -0.041732706 0.000475658 0.16846482 0.15137021 0.14827368 -0.23859091 -0.03243736 0.0051051574 -0.017455904 0.19542429 -0.15927546 -0.08501842 0.025141213 0.028945874 0.10229181 -0.02903207 0.2564654 -0.18388347 -0.13651614 0.021275856 -0.19715706 -0.10374961 -0.14171258 -0.0129917 0.10695187 -0.13762332 -0.12046181 -0.09219893 0.24049851 0.28656474 -0.04335161 -0.2640914 0.1262131 0.11094082 -0.023307623 0.030355018 0.010825311 0.12990472 -0.23091844 0.097204916 0.2934808 0.14241743 -0.005979596 0.3386248 0.03186501 -0.072632015 0.01808505 0.047345668 -0.21902405 0.3090954 -0.08281495 0.015066189 -0.100617066 0.10228296 -0.13950369 -0.06680826 -0.06841837 0.011136562 -0.04891533 -0.047267944 0.19658434 -0.1931638 0.0023082378 0.22197852 -0.017589804 -0.099075995 -0.21131513 0.10867307 0.12529042 -0.20198147 0.057474583 0.176703 0.113810346 0.25757378 -0.1536469 -0.035981864 0.4557349 -0.1254672
ㅝ 0.0093250545 0.17804955 0.09374555 -0.020063229 -0.22733332 -0.021866148 -0.03919035 -0.10238603 -0.072563 -0.006885254 0.35694462 0.15871787 0.14116064 -0.07082226 -0.19674231 -0.1269923 -0.14813669 -0.09691638 0.21505715 -0.11052162 0.27181295 0.04033394 -0.00096373877 -0.08877634 -0.09314644 0.012495208 -0.28189096 0.16999649 -0.022843499 -0.07034583 -0.072631314 -0.010317203 -0.25069427 -0.09228157 0.0843735 -0.039279666 0.028292222 -0.22325835 0.20808241 -0.16549116 0.18332273 0.13596596 -0.0072044074 0.20106228 -0.052294135 0.44966567 0.35704222 -0.082279876 -0.025337862 -0.11543853 -0.028928215 0.28406975 -0.04469406 0.0118397735 -0.0196545 0.050399557 -0.21176559 -0.07305501 -0.08745251 0.13565278 0.001428736 0.057112023 0.23299584 -0.17016609 -0.11889583 0.33587766 0.16840245 0.24960405 -0.11877792 0.09403447 -0.00066298025 -0.19741203 0.24996477 0.17165121 -0.3745608 0.21112916 -0.0038320147 -0.3001373 0.22429803 -0.07876784 -0.22703768 -0.11131967 0.04731546 -0.120133445 -0.19160499 0.06605912 0.08341897 -0.029955715 -0.26251328 -0.0944866 -0.033078086 0.08442028 0.023612488 0.044041313 0.37981707 0.279182 -0.13402201 -0.0662272 0.09483532 -0.027239118
1 -0.24606538 0.2000423 -0.101143226 -0.06449965 -0.14397869 0.17554754 -0.06619657 -0.25718135 -0.083991945 -0.021791557 0.028697541 0.07852722 0.24278359 0.1993469 -0.22698395 0.010830051 -0.08346806 -0.30784732 0.35314026 -0.0575664 0.3583101 0.12946714 -0.04874581 -0.08757972 0.055080716 -0.07330725 -0.19596247 0.13540886 -0.09527383 0.08670115 -0.10878238 0.12231841 -0.22117746 -0.047650367 -0.07146029 0.016440652 0.028850172 0.27643648 0.3104353 0.10225844 0.2749872 0.056510128 -0.20672762 0.04861919 -0.072898 0.20374285 0.37951005 0.010440964 0.03786132 0.1937538 -0.14774217 0.2167832 -0.17112264 0.3178115 -0.25022918 0.16835797 -0.1483668 0.04112512 0.16804428 0.11111781 0.13067314 -0.048122685 0.2730178 -0.14468399 0.1586031 0.24072278 -0.008321062 0.09505656 -0.44258097 0.04326282 -0.07798776 0.1609967 0.14498158 0.16551371 -0.6111094 0.14005387 0.13097072 -0.10303221 0.43662998 -0.06152908 -0.37791905 -0.05412798 -0.003438757 0.06474028 -0.2168407 -0.07324096 -0.17554986 0.26032946 0.06306398 -0.08227027 0.13427632 0.10032348 -0.16476282 0.2686309 0.108586155 0.2406553 -0.17231731 0.27868965 0.24931476 -0.14297421
ㅋ -0.12030739 -0.21480723 0.10466964 -0.15717082 -0.21790859 0.107906796 -0.16194434 -0.050870918 -0.027244488 -0.16880564 0.4652026 0.33930153 0.009039735 -0.08347178 -0.42823854 -0.07769949 0.13987681 0.03986969 0.18043415 -0.0028809728 -0.0991885 0.31431472 -0.20377374 -0.32356933 0.056157798 0.124790646 -0.012883576 -0.1954823 -0.3594817 -0.18977383 0.1051069 0.06367676 0.16503935 -0.20606896 0.09789486 -0.100228444 0.13114227 0.15202607 0.18429656 0.2240354 0.13030992 -0.02499783 0.0076632136 -0.1290892 0.1985205 -0.03628559 0.14854744 -0.28666767 -0.08134061 0.14704327 -0.042032756 0.46070454 -0.05659433 -0.03944421 -0.13218246 0.08001927 0.005957687 -0.104420915 0.14942083 -0.038625687 -0.16928026 0.27377525 0.06514222 -0.09815858 -0.0031246885 0.1001807 -0.05298549 -0.13354611 -0.24265769 -0.04066204 -0.06137369 0.070312284 0.07429393 0.04306207 -0.36511388 -0.3200738 -0.08292491 -0.08547119 0.16161992 0.24585205 -0.12385509 -0.13744028 -0.091832824 0.08271184 -0.32331628 0.18768153 0.15362866 -0.18773818 -0.18412025 -0.24907826 -0.10698217 -0.26292944 -0.023414947 0.19094057 0.04967535 0.072400145 0.10032302 0.1299337 0.1542641 0.07542462
0 -0.2562022 0.027194018 -0.20148782 -0.018637924 -0.17174798 0.19667767 0.05773904 -0.3598354 -0.06630387 -0.078169994 -0.20158961 -0.22969276 0.42263147 0.3116938 -0.27714944 0.069898106 0.045847718 -0.17693955 0.4611083 -0.13195181 0.32250777 0.13335258 0.20361531 -0.11114454 -0.37142292 -0.21634856 0.018047057 0.17643318 0.109251566 0.0049347873 -0.21076179 0.0862845 -0.22314118 0.025179613 0.011476077 0.16134427 0.13299245 0.12594026 0.4886013 -0.022815373 0.23317349 0.09063702 -0.045590308 -0.04493652 -0.006433607 0.38102078 0.12893865 -0.013149089 -0.07756748 0.16288093 -0.22808173 0.1570021 -0.27237415 0.4051748 -0.44296378 0.21256725 -0.27260554 -0.13200016 -0.022837285 0.012906181 0.0107184965 0.15141858 0.29846102 -0.186491 0.29347944 0.21120788 0.08703286 -0.057352517 -0.32240883 -0.011967438 -0.073432796 0.19681284 0.2804339 0.35830376 -0.6444898 0.33736143 0.11950876 -0.29628992 0.388867 -0.1484776 -0.6239387 -0.022134647 0.092083566 0.004774646 -0.20200236 -0.12604797 -0.1957901 0.32407376 -0.05004375 -0.10747758 0.060696136 0.17068224 0.0668627 0.3315147 0.25177976 0.014401986 0.22242475 0.17663124 0.401959 0.06346062
2 -0.26213098 0.09770692 -0.007173483 0.048231646 -0.1820526 0.02518615 0.012090581 -0.21162449 -0.0011887648 -0.13308565 0.020787705 0.056334823 0.33338827 0.2118858 -0.31644934 0.06890454 -0.041397303 -0.14980327 0.275453 -0.099614665 0.37316933 0.23064898 0.037958834 -0.13172399 -0.037053414 -0.1605997 -0.043800145 0.047318 -0.061281472 0.15328643 -0.41848165 0.10249912 -0.2266382 -0.1333634 0.014025202 0.08465849 0.040200856 0.11837834 0.49162453 -0.002238515 0.22617944 -0.043771375 -0.2055428 -0.12444247 -0.099115536 0.27544752 0.2595453 -0.14397466 -0.17572255 0.16013546 -0.16257213 0.37759936 -0.114498034 0.4505954 -0.15526475 0.21606728 -0.21454245 -0.003256824 0.16126494 0.21019371 0.091733046 -0.037041143 0.17481832 -0.11504006 0.1644308 0.33380598 0.14920005 0.0023053072 -0.394859 -0.014246614 -0.06320273 0.22742437 0.1663454 0.1126874 -0.50432026 0.24971732 0.13178618 -0.17843215 0.42680097 -0.05719264 -0.2703412 -0.09436942 -0.11275807 0.12847964 -0.077311754 -0.10537823 -0.1741588 0.28739145 -0.09577011 -0.23756835 0.11316632 0.023151157 -0.14550397 0.2171532 0.0928345 0.06991853 -0.008893815 0.06776052 0.31786087 -0.10070557
ㅠ -0.3281952 0.14625527 0.07996715 -0.14851904 -0.45576853 0.00506278 -0.09369221 -0.099645995 -0.17358637 0.24682485 0.27228028 0.2759991 0.06334316 -0.017156657 0.06959723 -0.19950038 0.02803577 -0.22091465 0.12690052 -0.055135123 0.15580745 -0.051790312 -0.0066791405 -0.20578602 0.29534486 0.03992591 -0.110609934 -0.09527442 -0.05021802 0.021004543 -0.07063816 0.14092636 0.08040477 -0.23642717 -0.13024959 0.11890474 0.060461532 -0.09572684 0.18175724 0.0047667804 0.10759755 -0.07840926 -0.03499161 0.12217978 0.057076037 -0.046274442 0.34679213 -0.16562717 -0.1754819 -0.027241398 0.18866241 0.06459165 -0.001615059 -0.019782377 0.10464172 -0.020061892 -0.21320823 -0.10594517 -0.16803029 -0.22221398 -0.32571286 0.08860389 0.11905901 0.035025507 -0.16628635 0.3072826 0.159793 0.08065824 -0.10212415 0.06734272 -0.21309844 0.099742055 -0.036904562 0.09013394 -0.32107583 0.005676498 -0.06640516 -0.2621686 0.13456412 0.008556889 -0.07840357 -0.10737145 0.041732416 0.07687507 -0.12264686 0.22047102 -0.021449232 -0.11334525 -0.11736474 -0.06339936 0.102446795 -0.054295 -0.012546657 0.3140152 0.26436833 0.29458073 0.0118529005 -0.13241196 0.21082583 -0.058737602
ㅟ 0.006939552 -0.06135118 0.20391479 0.028238649 -0.29858452 0.06538138 -0.21052086 -0.0345123 0.015118139 -0.02958163 0.13310073 0.00014114908 -0.1738608 -0.17519042 -0.02323452 -0.12777098 0.03335727 0.17040215 0.19416006 -0.2380022 -0.037431613 0.11218178 0.11723432 0.022665579 0.09116693 -0.024978992 -0.31285456 -0.10321206 -0.21690579 0.13556293 -0.15859087 0.061751604 -0.25884542 -0.16162127 0.020205203 0.08449844 -0.032263886 -0.061678957 0.3575679 -0.015074447 0.05204469 0.039207797 0.12099464 0.0062310486 -0.038537584 -0.013966922 0.23578863 -0.16345763 0.014234574 -0.17783064 0.121540256 0.3227385 0.026961774 -0.03556931 -0.054694727 0.0650404 0.09790621 -0.020540696 0.34749034 0.13476573 0.06234651 0.002173687 0.15587471 -0.22828119 0.078925505 0.41075897 -0.0012201923 0.09717256 -0.28651583 -0.077714704 -0.14980282 0.26588878 0.017146586 -0.041277166 -0.40133646 -0.16272226 0.07317858 -0.17083806 0.13791452 -0.040633976 -0.13672593 -0.0631685 -0.02574448 0.09491817 0.1222754 0.20621641 0.16569151 -0.016694585 -0.15332103 0.19709778 -0.055325884 0.21245432 0.21604593 0.20983371 0.19350201 0.19395761 -0.15348367 0.26051083 -0.13992648 -0.047761727
ㅑ -0.234754 0.00074441603 0.20221426 0.06938754 -0.35443696 0.09381017 0.07132898 -0.011430347 -0.3545596 0.04135003 0.13608369 0.046937548 -0.08814669 -0.13608304 0.029182922 -0.09636201 -0.023845354 -0.0012480939 0.10132009 -0.115302615 -0.03649978 0.21207742 -0.0927764 0.08458643 0.06461386 0.0907547 0.07267388 0.01121449 -0.046370104 -0.005824534 -0.07131187 -0.049069837 -0.047044095 -0.06410822 0.01865405 0.1398511 0.0812399 -0.047277685 0.18932624 0.003776826 0.08076871 -0.09362431 0.020790393 0.100047775 -0.00034399054 0.16685358 0.26062799 -0.24168757 -0.14866893 -0.10653199 0.25916657 0.2690761 -0.12678692 0.08339655 0.037818577 0.08230203 -0.005536099 0.102516055 0.23717608 0.102607556 -0.02742134 -0.07953167 0.16180165 -0.13629428 -0.042076588 0.19858398 -0.017935157 0.0698186 -0.03647042 0.25311187 -0.12266899 0.29637724 0.13163051 0.07067622 -0.09979744 0.21748905 0.028377581 -0.18248305 -0.03229168 0.08437689 -0.07054287 -0.1454458 0.15198918 -0.121754065 -0.06874314 0.2449308 0.01702739 -0.23682392 -0.31962648 -0.08649836 -0.03310916 -0.12118526 0.07320344 0.3667605 0.26542854 0.1449163 -0.04418164 0.059983965 0.03819166 -0.016895449
ㄲ -0.028878607 -0.013091982 0.17102116 0.15934244 0.008097497 0.05850119 -0.08232444 -0.36327398 0.02020314 0.09091187 0.18172978 0.00024654466 -0.030010337 -0.17400336 0.07713617 0.17893298 0.2068528 0.18935914 0.2994247 -0.13433897 -0.039274883 0.012239334 -0.20430551 -0.22404772 -0.060498964 0.24506335 -0.1504335 0.28080907 -0.096081905 -0.13474704 0.19108663 -0.16982308 -0.36021513 -0.18715028 0.15947546 0.09162174 0.32514256 0.004771313 0.37172505 0.31967962 0.11773763 -0.22533385 -0.11146656 -0.14499174 -0.0032199223 0.19729793 0.09032252 -0.23328455 -0.27059048 0.028528929 -0.00808917 0.15564345 0.0038566596 0.07410869 0.024803061 0.032066856 -0.10476976 0.09887055 0.24438153 -0.07470469 0.10367349 0.07349966 0.047717053 -0.17245622 0.025311096 0.16337687 -0.18611188 -0.02765482 -0.22855039 0.019739045 0.15236744 0.40248382 0.086710766 -0.18598802 -0.25391462 -0.120421216 0.21088615 -0.042976078 0.116919234 0.22524504 0.1512793 -0.07612196 0.0291162 -0.0071270103 -0.1349939 0.121039905 0.08500092 0.20822889 -0.13994211 -0.21290772 0.12291197 0.008813021 -0.20716257 0.3365763 -0.035193756 0.06538784 0.06590221 0.08122276 0.022785889 -0.37781388
ㄸ 0.017177684 0.084925994 0.14674796 -0.076633275 0.069601856 0.2711861 -0.2031337 -0.15326086 -0.4373772 0.16741908 0.1937109 -0.03816742 -0.3313727 -0.30823284 0.008718685 0.0991298 0.2344318 -0.01931279 0.031958997 0.11848118 -0.07089099 -0.08875428 -0.05310642 -0.3567826 -0.4532253 0.02629182 -0.30528182 0.09001502 -0.13735428 0.058371622 0.2973845 -0.07221254 0.029956248 -0.091591194 0.015899125 0.08138039 0.04837323 -0.30856037 0.11288318 0.21505128 -0.068986945 0.007410667 -0.008494011 -0.2839936 0.07321511 0.1407769 0.12998477 -0.13989453 0.05310523 0.118437216 0.03744151 0.08753918 -0.008569601 0.06584914 0.041104205 -0.14173914 0.42693573 -0.018037189 0.24157052 -0.10171297 0.025483789 0.0397441 0.1375572 -0.092952125 0.048204146 0.13858113 -0.08776561 0.057987485 -0.18254513 0.3446498 0.024786063 0.19202717 0.07428237 -0.24045654 -0.39830527 -0.04646075 0.052755233 0.0091755 -0.13765275 0.20140342 0.10344348 -0.040506836 -0.039443918 -0.05607981 0.10675498 -0.019435491 0.059046682 0.03631706 -0.043194618 -0.040479127 0.20108855 0.024927037 0.0032354265 0.09944607 0.17291848 0.22895412 0.04402904 0.13871472 0.16969135 -0.06388388
ㅖ -0.18797708 0.112464696 0.34622154 -0.026134403 -0.24851422 -0.020580577 0.09238193 -0.013843658 -0.11895542 0.106040165 0.24808 0.16184755 -0.054800577 -0.29328775 -0.0077574626 -0.113568515 0.06808681 -0.011552228 0.3576806 -0.1935483 0.026625523 -0.009896517 0.017669747 -0.22925964 0.2997098 0.111379236 -0.085446835 -0.14294969 -0.13296685 0.027670335 -0.1899156 0.10293941 -0.17333464 -0.19799447 0.11452017 -0.05343027 0.15267502 0.16268753 0.11147722 -0.06499502 -0.031456232 0.06085763 -0.16734368 0.081009306 -0.14838031 0.15489876 0.08275898 0.20787342 0.030572537 -0.20495771 0.1281681 0.35571855 0.0023374802 -0.04578415 0.082701966 -0.021374475 0.0985962 0.066053696 0.048375085 0.060630605 -0.0656499 0.29366124 0.041957762 -0.11279026 -0.06609212 0.4409896 -0.07114466 0.06673521 -0.040129136 -0.057620585 -0.098102905 -0.023823302 -0.065630116 -0.0014889581 -0.24619675 0.04339561 -0.061099812 -0.378268 0.17957921 0.074443884 -0.3234317 -0.037319433 0.03804446 -0.062148396 0.21541868 0.12557198 -0.102067545 -0.109753296 -0.03946084 0.019215502 0.056362357 -0.21096654 0.058928587 0.19474564 0.22799443 0.057140596 -0.11923615 0.030110847 0.08451257 0.08950291
( -0.40702194 0.18269287 -0.7023337 -0.2100517 0.01553861 -0.020240584 0.034010414 -0.03804361 -0.30130756 -0.32513687 0.5764805 0.39683598 0.21393842 0.13657871 0.40365148 0.17895764 -0.15948063 0.3090478 -0.15849866 -0.14793813 0.26871684 -0.07725048 -0.6190524 -0.114348404 0.11336731 -0.07404967 0.28633568 -0.30203083 -0.5286159 0.008992075 0.038097866 0.1005193 -0.1311128 -0.08621872 0.14656298 0.27134633 -0.23474288 0.10417793 0.32000425 -0.2712163 0.23105821 -0.24382377 0.16319887 0.22491471 -0.28350016 0.03637967 -0.023639452 -0.03947488 0.01928387 0.04803765 0.10247531 0.17788336 -0.04048884 0.20848057 0.082362965 0.053701367 -0.4289116 0.24433038 -0.13443883 -0.042676724 0.09184548 -0.24330541 0.11060058 0.07372608 -0.10355652 -0.14861287 -0.066434085 -0.2565044 0.16492814 -0.5974773 -0.13009182 -0.31190804 0.069803305 0.13989657 -0.088443786 0.07869519 0.10586644 -0.10769554 0.034737702 -0.17706035 -0.483437 -0.14814016 -0.122089654 0.1378264 -0.33742154 -0.08758232 -0.10112751 0.060213383 0.050644156 0.02567 0.23262197 0.19664861 0.053518753 0.39752916 0.1375105 0.20842049 0.4461585 -0.11025717 0.27273867 0.42896324
) -0.07852968 0.013019639 -0.76057243 0.053733908 -0.05317484 -0.19095825 0.19340116 0.19794029 -0.33892715 -0.24091999 -0.042766828 0.30711967 0.44349882 -0.06619255 0.027383672 -0.008996359 0.2623706 0.0013784518 0.36579546 0.14798132 -0.029456677 -0.26750243 -0.24089609 -0.53149486 0.36947504 -0.1169467 0.10402353 -0.042307373 -0.22990885 0.0017916049 -0.1577593 -0.13224244 -0.38331407 -0.0026600691 -0.18502936 0.5440974 -0.22659026 -0.09539246 0.20850903 0.050399702 0.021976875 -0.12394217 -0.02016958 0.2964743 -0.19673513 -0.028626787 -0.14565916 -0.17789735 -0.1329867 0.30157608 -0.042377498 0.20721611 -0.17530796 0.27987894 -0.11629406 -0.10177381 -0.3470183 0.045998104 -0.17033817 0.43317306 -0.04293598 -0.086409025 0.39557013 -0.004266113 -0.23470284 -0.047614045 0.016925314 -0.12467327 -0.18021023 -0.56178164 -0.17783335 -0.07521094 0.21344997 0.21749146 0.017193245 0.3323681 -0.37267616 -0.024170974 0.13413301 0.22603992 -0.115600765 -0.29738286 -0.023258055 0.05023444 -0.19813699 0.18259057 -0.19061442 -0.13350262 -0.09925459 -0.06361277 0.019989477 -0.028396592 0.22105725 0.25970995 -0.13069199 0.16442041 -0.12847239 -0.078680374 -0.09127806 0.34705684
3 -0.21154012 0.14432406 -0.2841409 0.0102622975 -0.18914801 0.01401528 0.065531865 -0.2910089 -0.15549615 -0.15535082 0.14505091 -0.016164167 0.28417957 0.30257306 -0.19692239 -0.10458298 -0.17378843 -0.09673473 0.20542343 -0.029040594 0.39698976 0.15292352 0.035159167 -0.18598577 -0.0909109 -0.060348403 -0.060234725 -0.06786113 -0.21416773 0.085088044 -0.34644303 0.124515295 -0.15704091 -0.088185534 -0.07736185 0.051904015 0.071612455 0.18079814 0.43856373 -0.13229766 0.1308868 -0.022455178 -0.21365122 0.077714555 -0.19187412 0.12087134 0.25198695 -0.07838851 -0.0116009535 0.19416213 -0.14832039 0.2157978 -0.062062316 0.45843247 -0.33194447 0.24061692 -0.09865783 -0.019071728 0.07516576 0.28926808 0.09799176 -0.0035243144 0.2771151 -0.0186589 0.23527354 0.25890273 0.0377677 0.022340424 -0.40165964 0.103304856 -0.11101399 0.16377373 -0.03180376 0.0017667627 -0.36383858 0.210954 0.15127605 -0.08078194 0.41977558 -0.018636912 -0.37288693 -0.15454395 -0.03303289 0.029709755 -0.09123814 0.042619582 -0.2271392 0.23387149 -0.059624087 -0.09794996 0.08979907 -0.0410207 -0.08277943 0.28707987 0.11893686 0.21333948 -0.04884306 0.14936203 0.2958524 -0.13883908
' -0.5318815 -0.0032722305 0.08376743 -0.1596954 -0.49460864 -0.11501175 -0.015307524 -0.029849986 -0.055495266 -0.063345246 0.26226804 0.19792734 -0.06551978 0.2291145 -0.13711023 0.1648332 0.047714658 0.68742836 0.12777105 -0.15188815 -0.06845367 0.060351916 -0.32020572 -0.19454427 -0.025330111 -0.03360735 0.15823211 -0.003647955 -0.04261569 0.0009487853 -0.27631164 0.060155854 -0.23060991 0.07475606 -0.036404405 0.32893202 0.130085 -0.106008664 0.13526537 0.17130575 -0.18869883 -0.12510814 -0.034907807 -0.20819832 0.20518297 0.016583474 0.110088386 0.013229752 -0.3264439 -0.09288688 0.2489231 0.28940472 0.1068265 -0.19148476 -0.13889241 0.056362037 -0.024627509 -0.06732686 -0.104037255 -0.31129697 -0.35981354 0.39589664 0.27255976 -0.11068389 -0.020451268 0.20751834 0.029307488 -0.34623396 -0.18322738 -0.09867987 -0.13046055 -0.06890438 0.059200365 0.12549153 -0.27294907 0.07973681 0.040735964 0.2329276 0.036654968 0.29373705 -0.064472675 0.10712964 -0.12773672 -0.0038591446 -0.09904777 0.36388898 -0.06912924 0.12775515 -0.30526936 -0.48301828 -0.14130545 -0.053701717 -0.22351362 -0.23956369 0.2106332 0.06843938 0.19803804 0.08373424 0.21349347 0.06486814
5 -0.24341628 0.10960735 -0.17312717 -0.006687418 -0.17698626 0.04944969 0.058461282 -0.2983784 -0.19951019 0.025157971 0.014130699 -0.107204504 0.31110018 0.02031417 -0.23054191 0.052904956 0.020996671 -0.22092287 0.2857725 0.050099757 0.2464516 0.19789511 0.10496126 -0.16048412 -0.12798798 -0.09953189 0.012512089 -0.11788301 0.039453834 0.13145229 -0.26725924 0.21824746 -0.088696934 -0.14509277 0.001402856 0.11484861 0.073525794 0.29627967 0.4648209 -0.0031015452 0.17619221 0.09835608 -0.25401035 -0.05170093 -0.1546696 0.21189474 0.25348344 0.05349334 0.02588939 0.12800078 -0.089899905 0.16860342 -0.12405849 0.37758198 -0.33944553 0.10788101 -0.15361679 -0.069315456 0.12888385 0.06873592 0.12216821 0.0020263533 0.34729618 -0.06037383 0.19599442 0.13181137 0.1884257 0.17279476 -0.2319959 -0.091751404 0.0051558083 0.07138828 0.112648554 0.024272287 -0.5721581 0.15842152 -0.033836715 -0.090598576 0.39966306 -0.023747753 -0.36864412 -0.08467429 0.053660247 0.15343116 -0.068331786 -0.046622876 -0.17835544 0.3543202 -0.0039414754 -0.15235636 0.22173677 0.121848084 -0.019734994 0.40689838 0.09014153 0.2518695 -0.06874238 0.12461882 0.32051232 -0.16014381
4 -0.23277454 0.15706016 -0.22948623 0.009677206 -0.27121907 -0.001806127 0.08249539 -0.3188815 -0.18294409 0.0014621406 0.039337303 -0.0337043 0.47266343 0.06360366 -0.1923098 -0.08961359 -0.025547558 -0.2152726 0.28563803 0.05980677 0.3221176 0.20955917 0.114128664 -0.247283 -0.10969418 -0.11882258 0.08224679 0.007970766 -0.05698006 0.11232347 -0.34012964 0.078167096 -0.17616333 -0.09066463 -0.0024416847 0.15924072 0.036426045 0.40937635 0.2707531 -0.0028195665 0.07467643 0.05933948 -0.14949146 -0.082367204 -0.19025612 0.14482467 0.23011872 -0.0024179083 -0.1140426 0.25895095 0.023502255 0.20253448 0.025037631 0.3727606 -0.25030735 0.10294909 -0.054540996 -0.034391917 0.11650064 0.14087938 0.12863505 -0.062077314 0.2614949 -0.12345859 0.19080323 0.08388055 0.09176894 0.11598814 -0.28853595 -0.02224914 -0.10441784 0.10205408 0.048678312 0.07971405 -0.4764728 0.106155284 0.10905127 -0.18637231 0.3573962 0.053560942 -0.35083285 -0.13842689 -0.05444703 0.22245097 0.0065921163 0.03411073 -0.15131722 0.34096292 0.120613396 -0.123621136 0.15344866 0.040743012 -0.06499447 0.3658769 0.14386034 0.19276688 0.071225174 0.23833768 0.3196508 -0.12239082
" -0.28734374 -0.095948756 0.0041057738 0.2071333 -0.12883116 0.12969038 0.10258611 -0.4207015 -0.12670799 0.20012563 0.25042853 -0.12974943 -0.22616814 -0.025519347 -0.08454339 -0.077662006 0.22371228 -0.09621145 -0.032837953 -0.26730448 -0.26189873 0.16282178 -0.11423283 -0.034516446 -0.007784661 -0.043955952 -0.0825157 0.16038376 0.18571128 -0.0995274 0.36379677 -0.030046139 -0.13326116 0.018924035 0.06180062 0.01540809 -0.029155247 0.03966833 0.22988138 -0.102547355 0.11641783 -0.3557352 0.107629105 0.0666518 0.102437444 0.25969067 -0.07350513 -0.18291128 0.0140095595 -0.090277456 -0.06429776 0.20882893 0.25981516 -0.20710422 -0.07336211 0.019771123 -0.12450156 0.010532535 -0.027680581 0.107341394 -0.35675725 0.023743805 0.3039021 0.029594567 0.06443193 0.042836264 -0.08107593 -0.4730096 -0.10036402 0.38123426 -0.05942003 0.41697407 -0.17289372 -0.14268135 -0.26657695 -0.042096596 0.1537795 -0.2452651 0.0049060923 0.16129434 0.022867743 0.1382966 -0.020338474 -0.11006199 0.11915059 -0.15594526 -0.109207265 -0.114541374 -0.3816076 -0.31468385 0.24175829 0.016604027 0.5349017 0.39178574 0.095817335 -0.047693882 0.090514325 0.16884993 0.23066637 0.2536811
6 -0.2810689 0.06763371 -0.18839937 0.023467971 -0.16309568 -0.08405877 0.19036888 -0.3377016 -0.2607849 -0.033286937 0.043820627 -0.06513282 0.2955823 0.081964254 -0.18969509 0.15744331 -0.07551724 -0.18541715 0.40763572 -0.01072923 0.30195197 0.13580619 0.056610566 -0.13105005 -0.013212413 -0.08578839 -0.041349366 0.049855288 -0.14150487 0.023598306 -0.28113952 0.225795 -0.10638754 0.06936305 -0.1356094 0.17296185 -0.008010935 0.28495514 0.4338299 -0.053515878 0.23180537 0.19497412 -0.08106132 -0.1323563 -0.2176745 0.25328982 0.08460844 0.011990833 -0.012142801 0.17952079 -0.1064335 0.22664553 -0.06246348 0.2536948 -0.15956254 0.26038915 -0.23106973 0.09851615 0.058978908 0.18555683 0.11923248 -0.11086027 0.3541934 -0.09603384 0.26150063 0.2636275 -0.039181724 0.08566111 -0.28784817 0.014564374 -0.103562586 0.15311512 0.124737896 0.21096371 -0.5216341 0.07817028 -0.019447163 -0.071888454 0.41260853 -0.13987716 -0.412237 0.047231454 0.021126602 -0.020424513 -0.21420422 -0.1182095 -0.22110434 0.24654913 0.09236196 -0.13752012 0.28543952 0.17209904 -0.12171359 0.3567664 0.24513045 0.2499684 -0.11863042 0.26753488 0.27375942 -0.15796143
ㄶ -0.086712785 0.081484735 0.096734196 -0.06704188 0.28272784 0.03558616 -0.00084392575 0.02584835 -0.07271136 0.26391461 0.37829587 -0.00063471706 -0.014698391 -0.34650958 0.13279752 0.2646937 0.5500045 -0.030975077 -0.00057867315 -0.1486045 -0.35036695 -0.018836152 -0.101457484 -0.15945324 -0.36006135 0.30492237 -0.37632966 0.23322128 0.36549225 0.03520877 0.6011529 -0.2874735 -0.06845092 -0.07888605 0.28248084 -0.28204542 0.24033381 0.013388603 0.3688449 0.05711251 0.11004766 -0.18620875 -0.03411321 0.04277304 0.0054921526 0.31776565 0.0361301 -0.31741515 -0.25658467 -0.34764698 0.24151361 0.030305983 0.036901947 -0.07691404 -0.3349836 0.087037794 -0.28477076 0.13046446 0.08833287 -0.22574565 -0.061961614 0.0554198 0.16192113 0.010577261 -0.1729028 0.37404415 -0.13849187 0.077235594 -0.24925911 0.27909556 0.23306629 0.48250467 -0.11610791 -0.11730356 -0.25259462 -0.21115118 -0.03705109 -0.34315386 0.21244842 0.17687367 0.4674735 0.10646836 0.07754941 -0.30166987 0.24116364 0.08429586 0.0596121 -0.29057053 -0.31508166 0.075483546 -0.040650975 0.023744196 0.09637525 0.24188106 0.10695479 -0.034151446 0.040576585 0.03393992 -0.029204218 -0.58471715
7 -0.25101689 0.110460125 -0.2868961 -0.116526194 -0.113831036 0.045410167 0.045650207 -0.22711542 -0.1431844 -0.11034362 -0.021154935 -0.047859885 0.35863724 0.13289998 -0.21890795 -0.005605215 0.059451085 -0.20462744 0.33829355 -0.043369766 0.4243776 0.04871673 0.023153432 -0.09858286 -0.06579131 -0.14539516 -0.0053725494 -0.09273652 -0.10429221 0.15299532 -0.29249385 0.12930961 -0.038432002 -0.034500666 0.00074210955 0.084891036 -0.063798636 0.40711346 0.35773242 0.025328746 0.27864295 0.10928798 -0.26456213 -0.013366585 -0.2827181 0.25988913 0.11773605 0.04294465 0.018995862 0.24096467 -0.17125484 0.25502196 0.010547453 0.35138062 -0.24491361 0.14155978 -0.19273901 0.07889642 0.15079099 0.21941246 0.15400809 -0.06819824 0.3582758 -0.20429139 0.14097413 0.19199228 -0.029248478 0.021644734 -0.34100547 -0.06126312 -0.093868166 0.10908233 0.1718412 0.16451702 -0.5548179 0.09303975 -0.0076055434 -0.14646071 0.36047846 0.052288745 -0.2992244 -0.06104436 0.02803022 -0.03157913 -0.17388262 0.046397395 -0.2660032 0.28150964 0.11243543 -0.09374911 0.10472364 0.04851157 -0.06600546 0.3538474 0.33482847 0.12172425 0.025521757 0.09884602 0.30202842 -0.036186393
8 -0.06207178 0.097180605 -0.31727424 -0.08937176 -0.23023862 0.082368135 0.14101624 -0.21936087 -0.23883411 -0.03336425 -0.0048220055 -0.09855695 0.41615605 0.29023874 -0.3536619 0.07024667 0.06452741 -0.30798045 0.38500184 0.0042900946 0.22041366 0.17906809 0.20801227 -0.2607667 -0.10003057 -0.24145725 -0.10161506 -0.0024130845 -0.022579173 0.16766594 -0.2328715 0.12117971 -0.13886125 -0.17966564 0.062895656 0.1356913 0.035442077 0.3151132 0.3890827 -0.08585385 0.22698691 0.10659846 -0.1146018 -0.118286945 -0.34851304 0.08560894 0.2527257 0.019526463 0.027042972 0.22508772 -0.2448703 0.34680566 -0.06148792 0.23281701 -0.3067508 0.2655112 -0.20677514 -0.1501652 0.066999085 0.114976175 0.14780352 -0.07762907 0.37042868 -0.10718117 0.20153692 0.16973576 0.047894776 -0.036623426 -0.24186195 -0.024047371 -0.11262391 0.20571072 0.14625686 0.09956662 -0.45606667 0.19420482 0.12833269 -0.2145846 0.39102703 -0.19223459 -0.3414039 -0.19148548 0.03751422 0.12921768 -0.17138629 -0.107431814 -0.25555637 0.31488147 0.08569326 -0.20204164 0.11193011 0.0045115678 -0.084955476 0.36276898 0.2194041 0.12767112 0.040094472 0.16162996 0.46517828 -0.22091366
9 -0.2829899 0.18063827 -0.32369876 0.16340503 -0.2853106 0.12149438 0.08534377 -0.18541391 -0.22380444 -0.1438546 -0.19344133 0.09218184 0.24938616 0.03079096 -0.4100244 0.011381234 0.03209653 -0.5684325 0.35940427 -0.284456 0.18979225 0.10178171 0.08043038 -0.2538171 -0.10755053 -0.3163514 -0.1569117 0.21111359 -0.07154831 0.06897876 -0.24851501 0.052163392 -0.34407982 -0.00031131686 -0.07582982 0.0907717 -0.058000814 0.44061348 0.37112412 -0.06317444 0.24859634 0.20970106 -0.016497167 -0.028757848 -0.24435472 0.03159353 0.06438973 0.29737952 0.05783145 0.178352 -0.22169252 0.34598798 0.06125209 0.2950219 -0.18875872 0.2183624 -0.4710451 0.119999595 -0.1392619 0.019556317 0.30176568 -0.070674464 0.28679955 -0.03883623 0.049920235 0.06553916 0.085453324 0.0062351106 -0.25870454 -0.088210054 0.100705534 0.005849655 0.13493991 0.12568156 -0.58500046 0.105604924 0.21691018 -0.17522922 0.549626 -0.052406635 -0.2614558 -0.10896635 0.20212866 0.12816362 -0.08354343 -0.13156603 -0.17615917 0.36919415 -0.057159435 -0.03512253 0.104890354 0.085876495 -0.06444666 0.34777564 0.42099258 0.23142758 0.085118495 0.18583609 0.45032543 -0.32388887
ㅄ -0.1962731 0.07147375 0.35283047 0.104919486 -0.32475293 0.44426015 -0.0053500943 -0.4229647 -0.36212558 0.08105877 -0.105900586 -0.12286458 -0.2738048 -0.13442644 0.098211505 0.0698649 0.40618396 -0.13782325 -0.21741125 0.19847679 -0.034507006 0.1967261 0.2724579 -0.6050634 -0.41739145 -0.04057798 -0.21136932 -0.019906428 0.2531868 -0.20839807 0.534315 -0.13454473 0.055323545 -0.0060718805 0.06916165 -0.27950674 0.20475927 0.036609996 0.0953913 -0.0056697857 -0.07654247 -0.19048254 -0.19889487 -0.031798005 0.12678117 0.45572403 -0.0052335015 -0.30625284 -0.07367663 -0.19586153 -0.16437997 0.0001260824 0.011723801 -0.2396024 -0.07721858 -0.1554775 0.19060609 0.12561962 0.0971189 -0.26254433 -0.0038104358 0.02697623 -0.0043036565 0.2762488 -0.23015569 0.52781796 -0.3712539 0.10936646 -0.15760937 0.37374187 -0.040459238 -0.0117233405 0.15883648 -0.14671142 -0.21583712 -0.14296062 -0.12634538 -0.37440878 -0.08546299 0.049382802 0.24363604 -0.098657675 -0.11195368 -0.27317214 0.037618827 0.2976494 -0.016094273 0.20550106 -0.049609087 0.112704016 -0.10364677 -0.08413865 0.2253832 0.45133913 0.10542511 0.22464724 0.14011464 -0.074171014 -0.19535865 -0.25134465
ㅉ -0.021619644 0.20184459 -0.0037676857 0.03675043 0.06143742 0.22527814 -0.09014239 -0.28294373 0.053726688 -0.21621041 0.17427902 -0.07986327 -0.3248194 -0.36833566 -0.10324189 0.03054088 0.14122032 0.2389532 0.34304062 -0.05621258 0.31405908 0.15371847 -0.03489738 -0.30114168 -0.6672456 0.043377336 -0.15595087 0.17809457 -0.217559 -0.09374615 0.03957212 -0.28998613 -0.22706395 -0.20207562 0.055144303 0.25471678 0.27197188 0.17430288 0.061096 -0.15956892 -0.12717868 -0.092362314 -0.23254462 -0.041363183 -0.0030589087 0.12717873 0.20732954 0.119165726 -0.26450545 0.21811743 0.11354842 0.12187974 -0.06649956 -0.10420386 -0.07626601 -0.012726279 0.25068983 -0.16976784 0.33781406 0.4378613 -0.049763348 0.18710521 0.22665624 -0.0136321895 0.040162005 0.011777036 -0.031555295 0.09170163 -0.08690006 0.16138344 -0.024815738 0.39463916 0.2502187 0.0021995606 -0.36956865 0.16716394 0.10983506 -0.16918594 -0.10187946 0.11908998 0.16290827 -0.1342698 -0.07929752 -0.051311642 -0.013007077 0.09880408 -0.1858588 0.14407273 -0.094189264 -0.24880338 0.14164817 -0.027053967 -0.23798585 0.3837188 0.026715485 -0.09878901 0.1695856 0.034382362 0.090495944 0.007643008
- -0.20423646 0.27450913 -0.1929439 -0.065228276 -0.12590107 -0.0773397 -0.30871576 -0.19889697 -0.009900648 -0.41007525 0.07279389 0.19823037 0.38489133 0.39623296 -0.13065283 0.042915985 -0.32705554 -0.046913333 0.053537596 0.09568702 0.2378952 0.21334136 -0.04135829 -0.26256603 -0.038028054 -0.22264652 0.16874668 -0.020617198 -0.3182412 0.16373624 -0.2845881 0.16412541 -0.4864484 -0.5003065 0.2025968 0.45933264 0.22984155 0.09755821 0.27309927 0.038982756 0.39710975 -0.12386385 -0.050914146 0.049800776 -0.004814098 0.16922624 -0.19027753 -0.07644738 -0.078444615 0.22830316 -0.16570242 0.52775645 -0.5908389 0.50929767 -0.24341013 -0.33288735 -0.3831493 -0.22219464 0.099493824 -0.038294945 -0.30934715 -0.33406767 0.095875815 -0.33628342 0.33156657 0.10144589 -0.0024271135 -0.37593222 0.043724086 -0.23680651 0.017612047 -0.15903613 0.15684932 0.051702257 -0.8465142 0.27234715 -0.13510746 -0.31920025 0.2119402 0.22821958 -0.36715236 -0.32304972 -0.10667536 -0.036138747 -0.11706182 0.027639348 -0.27244997 0.0066176625 -0.048238482 -0.20566644 0.07560543 -0.012395559 -0.121616416 0.029276673 0.050606266 0.33392996 0.19694257 0.17486504 0.13919523 0.0058443644
ㅃ -0.084212095 0.14066166 -0.12344535 0.18758476 0.0074435407 -0.11192513 0.17139415 -0.22896782 -0.34592748 -0.08731253 0.33121857 -0.10871281 -0.28776884 -0.33427307 -0.08889912 0.16168754 0.18051143 0.09363231 0.0951037 0.040261485 -0.14759977 -0.09258992 -0.20492584 -0.22944926 -0.5892492 -0.07025753 -0.10987114 0.22174545 -0.213306 -0.020310927 0.55576986 -0.20658633 -0.07246206 -0.004160661 0.1722266 -0.070626184 0.18046986 -0.047395557 0.13347843 0.091323934 -0.08830146 -0.037300736 0.05211721 -0.23851883 0.04855941 0.08635836 0.2206125 -0.12718175 -0.3029362 0.022931833 0.010478425 0.29072928 -0.16906385 -0.09763114 -0.043586243 -0.010122444 0.181681 0.076741226 0.26717442 0.23385662 -0.045390166 0.087955415 0.09734617 0.123208515 -0.13217245 0.07505752 -0.1424182 0.041011814 -0.18454936 0.3194456 -0.0011973068 0.24606681 0.11853741 -0.059120387 -0.16755578 -0.010041477 0.13460027 -0.003005666 -0.055577334 0.15445492 0.17578404 -0.085511066 0.06593079 -0.14038117 0.21874462 0.15367202 0.118766606 0.04121697 -0.3920307 -0.24831846 0.07266415 -0.07122955 0.19891217 0.3758895 0.33628625 -0.017232055 0.2021433 0.3473775 -0.03854812 -0.16153686
ㄺ -0.48320493 -0.45373526 0.32972056 0.4514649 -0.1339546 0.52188134 0.17730553 0.034910765 -0.30312055 0.3831156 0.39939198 -0.017506445 0.09583541 0.02209439 0.041019935 -0.43972832 0.26369742 -0.20893548 -0.22427748 -0.3296999 0.017090894 0.6927242 0.0560797 -0.34741566 -0.35284176 -0.17645349 -0.315054 0.31804118 -0.21233211 0.073792584 0.30777863 -0.34538144 -0.7850221 -0.30222577 0.074415684 0.081426986 0.3660024 0.47086686 -0.03724841 0.05512469 0.15220794 -0.45223498 0.45341817 0.15637603 -0.03070996 -0.084902525 -0.22849958 0.08594219 -0.11045148 0.11560291 0.3258982 -0.17539097 -0.2588561 -0.38392678 -0.19828591 -0.25050488 -0.16129339 -0.045973256 0.6776763 -0.19723281 -0.10223947 -0.22528577 -0.11352761 -0.2002162 -0.19659998 0.50494635 -0.4204118 0.17176478 0.2689846 0.23486435 -0.32894295 0.2574115 -0.042413015 0.03718984 -0.49353284 0.308783 0.26357576 -0.219229 0.47134918 -0.15613946 0.23427513 -0.29449528 -0.30882552 -0.6047435 -0.028810397 0.2487248 -0.13679793 0.48093235 0.22923924 -0.11078435 -0.006554561 0.12660797 0.61723375 0.13532886 0.33261746 0.015665907 0.1547728 -0.1736442 -0.3757465 -0.26386034
% -0.39192405 0.19560328 -0.15401046 0.40950733 -0.12668642 0.0760759 0.37655044 -0.32776868 -0.2677119 0.04113382 0.08875375 -0.12671885 0.38832846 0.45669398 -0.3504335 0.14114347 -0.24841177 -0.10374643 0.24333635 0.20978276 0.27404663 0.44642588 0.1947091 -0.010684423 -0.24061272 0.35859203 -0.023964852 -0.22663037 0.08651345 -0.0010449707 -0.047078244 0.18266779 -0.29482424 -0.03608601 0.10254424 0.11448022 0.11046382 0.4678015 0.4270543 0.09697173 0.5250505 0.55473644 -0.061566636 0.37005875 -0.40009603 -0.061988834 0.014103543 -0.056618206 0.07203678 0.1574419 0.23978479 -0.1288112 -0.2080171 -0.046993952 -0.029985582 -0.029050307 -0.30274808 -0.16449855 0.05469872 0.31629515 0.38080505 -0.20715228 0.24825476 -0.0752891 0.08615217 0.15081997 0.0047683776 0.04776795 -0.2745465 0.2126147 -0.35658467 0.21995206 -0.08880355 -0.29848304 -1.0366137 0.17154337 -0.2885468 -0.098618515 0.66832775 0.14215124 -0.06070644 0.10696551 0.2653374 -0.17364416 0.006849012 -0.034500927 0.100309186 0.51080215 -0.049207088 -0.040875908 0.27646407 0.2177691 0.014979301 0.11984975 0.2510468 0.29135215 -0.013272396 -0.11823494 0.53141266 -0.53244835
A -0.06820374 0.11119791 -0.1776213 -0.30763623 -0.30003017 -0.02590405 -0.012525876 -0.32471144 -0.030715086 -0.05241449 0.03774182 -0.034737766 0.24531071 0.5980268 -0.095333695 0.19347994 -0.122967474 0.05719197 0.23061027 0.20275263 0.15787293 0.07329658 -0.0030030194 -0.55015576 -0.33569086 -0.0029275615 0.36064678 -0.25406823 -0.10680208 0.22633065 -0.059864357 0.55561614 0.43394348 -0.10175158 0.22249669 0.1937204 -0.28402233 -0.055470135 -0.21805072 0.28473634 0.22484854 -0.011108499 -0.026890902 -0.046661194 0.008881268 -0.09503697 0.195827 0.06079544 0.093325585 -0.21958487 -0.019069942 0.75640273 -0.28595373 0.15424159 -0.019461704 -0.42213 -0.2665602 -0.23963188 0.25553352 -0.02832344 -0.3755194 0.11424904 0.29154637 -0.34039533 -0.42533252 0.23442267 0.1019915 -0.42880112 -0.0035286276 -0.19514455 -0.27956164 -0.09048313 0.18689336 0.05007604 -0.4808274 0.08265231 0.14315817 -0.17973334 -0.015658028 0.29952303 -0.35663795 -0.06889971 0.107667565 0.20258024 0.09778936 -0.0494779 0.036968015 -0.3047331 -0.39991456 -0.338275 0.057044987 0.06526188 0.26243427 0.27432466 -0.07224048 0.059944864 -0.021059336 0.27930367 0.17238422 0.0261965
C -0.055633135 0.03986139 0.01870534 -0.37824723 -0.25632676 0.09500448 0.1283288 -0.15411483 -0.102559604 0.26609167 0.14893202 0.06691897 0.16250363 0.59194195 0.12953618 0.15172347 0.04996013 0.1826422 0.32936096 0.09568637 0.17515992 0.04498904 -0.03452678 -0.58093387 -0.1665563 0.16641359 0.08981201 -0.035926886 -0.0037429307 -0.018481381 -0.047885887 0.5474117 0.2871744 -0.006894816 -0.18880086 0.17889552 -0.23403424 0.089321524 -0.16389379 0.06968084 0.19384615 -0.20557398 0.20012131 0.17622684 0.31031683 -0.07268359 0.12087846 0.0658142 0.027000727 -0.014896707 0.006703914 0.56677127 0.005619669 0.29043594 -0.11801905 -0.05668116 -0.42413184 0.06996221 0.20470113 -0.032039713 -0.22741081 0.18445675 0.33364928 -0.37251666 -0.533768 0.35219106 -0.093964346 -0.42043144 -0.28932297 -0.34253734 -0.3479016 -0.31181484 0.03988573 -0.0004771431 -0.40318 0.12555157 0.08303291 -0.34117135 0.014038743 0.23526673 -0.40115198 0.034508824 0.025702005 0.12661296 -0.033363145 0.07239243 -0.02762245 -0.1329942 -0.41999564 -0.33354273 -0.12321006 0.13257928 0.23148765 -0.004242288 -0.061747484 0.06798059 -0.14824626 0.082923576 0.04439377 0.1252639
e -0.6809038 0.12439017 -0.79225516 -0.3021248 -0.2639014 0.28412923 0.17904449 -0.3380778 -0.020679124 -0.0040581496 -0.39545992 0.0749486 0.40698472 0.40836388 0.1583189 0.22279452 0.5452625 0.13050246 0.0636484 -0.3504432 -0.08703124 0.33265176 0.21938278 -0.5690534 -0.5252973 -0.32173607 -0.026341442 -0.5674444 0.22771259 0.09946004 0.29755342 0.35619235 0.027155308 0.23338348 0.03221317 0.19816323 0.010719253 0.31263548 -0.053644694 0.13499428 0.20755479 0.11870659 -0.031768292 -0.35136262 0.3491709 -0.28609264 -0.039062887 0.10086571 -0.27311057 -0.22476186 -0.51870716 0.24412772 -0.2579953 0.6969476 0.06259276 -0.25322235 -0.099345006 -0.16302814 0.03451982 -0.038406722 0.028009921 -0.34336665 0.09828695 -0.44273862 -0.20348828 0.6491503 -0.16379179 -0.55589867 -0.03804643 -0.29736322 -0.5342496 -0.008346263 -0.084066994 -0.4020743 -0.3935974 0.53908926 0.08437435 -0.49061713 0.16764836 0.59051377 -0.41507888 0.21551329 0.16007696 -0.9632292 -0.32849738 -0.2642885 0.21730456 -0.19158924 -0.63233155 -0.2866087 -0.000663803 0.24158625 0.30245867 -0.0064937375 0.2976084 -0.13198191 -0.14520954 0.32863125 -0.14829476 -0.012559807
· 0.12030988 0.16028424 -0.29537717 -0.603161 0.32317194 -0.016297283 -0.24263588 0.35624945 -0.27572384 -0.10041351 -0.14320992 -0.077400506 0.14514022 0.19619066 0.15979473 -0.0060231322 -0.21850902 -0.3964359 0.063309684 -0.04976654 -0.029504918 0.32033527 -0.2451811 -0.17228854 -0.04352082 -0.07461546 -0.013631956 0.12689768 -0.36321366 0.01578539 -0.39711562 -0.13020839 -0.4272428 -0.009051395 -0.04657299 0.51318187 0.013943471 0.069848634 0.36679393 -0.12274714 0.2754954 0.26016745 0.03832281 0.5441329 -0.16217133 0.10303223 0.14000691 0.11180918 0.38881078 0.18450424 0.4607185 0.51124144 -0.11321557 0.19735447 0.12991807 -0.10134241 0.07122644 0.11776007 -0.25532028 0.60081697 -0.11469537 0.13479866 0.7336746 0.14009325 -0.18372391 0.06417013 -0.28980297 -0.25469455 -0.23765716 -0.049805585 -0.054212846 -0.47208053 -0.15044512 0.06694399 -0.41764054 -0.007023716 0.1051941 -0.10823967 0.11085703 -0.15465276 -0.004363391 -0.03374716 0.3005467 0.06527513 0.074997194 -0.23495783 -0.17850141 -0.2765374 0.07996094 0.4119216 -0.05021708 -0.12671557 -0.024391273 -0.07352442 0.03300694 0.36025622 0.08370084 -0.16761705 -0.010081154 -0.07121706
o -0.98647195 0.18288213 -0.597132 -0.0813522 -0.39374396 0.28990546 0.40810972 -0.46682337 0.015402373 0.041510772 -0.15904559 0.3044647 0.2724635 0.54290426 0.08760381 0.22596034 0.36338803 0.21681555 0.16568428 -0.34499434 0.16142102 0.4932214 0.16649425 -0.5918761 -0.42967507 -0.16557357 -0.25702932 -0.35467586 0.35631198 0.0012439644 0.12140976 0.16628817 0.020044604 0.43591776 0.026331916 0.35787126 -0.12222379 0.4886671 0.109112896 0.10083045 0.217255 0.13564663 0.105257764 -0.29125124 0.44477555 -0.48336178 -0.010328371 0.055285987 -0.36733884 0.013401833 -0.53280795 0.22700472 -0.2308953 0.5536996 0.14621729 -0.12638105 0.09293104 -0.15982816 0.092039526 -0.216462 0.060507324 -0.40402323 0.08523865 -0.40684575 -0.25041538 0.60731965 -0.13270362 -0.467677 -0.009849471 -0.53949875 -0.6401135 -0.26955375 -0.14187609 -0.36760315 -0.5778761 0.6398889 0.05200993 -0.35053334 0.38591594 0.2752096 -0.26254946 0.33191594 -0.108212024 -1.1057556 -0.4141936 -0.35679623 0.18076955 -0.020931326 -0.48136914 -0.1906847 0.013947172 0.51106685 0.2461992 0.038040325 0.34435645 -0.018615583 -0.045426212 0.17759478 0.00787352 -0.30193135
B -0.3466498 -0.15070972 -0.124215655 -0.33717492 -0.3396515 -0.0033289166 0.124318115 -0.5091764 0.023846285 0.22067566 0.027059475 -0.18005092 0.14021063 0.5831359 -0.26005232 0.38652027 0.07002396 0.28791985 0.4530027 -0.16804895 0.28944156 0.111204095 -0.32786486 -0.59467226 -0.10157274 0.043300644 -0.0040885187 0.174715 -0.06435691 -0.0036684126 -0.01529251 0.35496894 0.10923927 0.20133244 0.12157837 0.33265635 -0.19706902 0.07041171 -0.22407188 0.24032415 -0.08099256 -0.004153304 -0.13819727 -0.07858817 0.12848356 -0.16173488 0.111074865 0.20736682 -0.023071606 -0.14701408 -0.29462886 0.6522903 0.11012581 0.05438114 -0.17276089 -0.09050677 -0.39332452 -0.37140086 0.3573747 -0.1630198 -0.16278613 0.20650354 0.23726594 -0.24286957 -0.62451535 0.17752211 0.024659697 -0.4690899 -0.23382898 -0.114850424 -0.39292333 -0.027571755 0.21070062 -0.04436005 -0.31039113 0.26273972 0.1619725 -0.28548864 -0.07026527 0.35216835 -0.2057922 0.06000096 0.34531927 0.054652944 -0.160893 -0.22284871 0.024445936 -0.047592197 -0.5542457 -0.19383983 0.098461434 -0.11641226 0.47364438 0.25204125 -0.4219637 0.04326073 -0.006569472 0.3457238 0.40026718 0.02340139
K -0.062303945 0.020849235 -0.06851751 -0.058023613 0.16788992 0.10939119 0.18567346 -0.28329647 -0.17613778 0.1940479 0.10778286 -0.0027591223 0.2231231 0.42678735 -0.2402921 -0.031152017 -0.12397242 0.24553528 0.33421922 -0.17133817 0.18589033 0.036214318 -0.1260598 -0.2952985 0.050608464 -0.0689918 -0.13878424 -0.10885404 -0.4095501 -0.03734956 -0.075802706 0.7102266 -0.0425134 -0.48836842 0.06633102 0.13344936 -0.21765308 0.04624197 -0.088519126 0.07150957 0.0478766 -0.07986095 0.06568809 -0.027655775 -0.069912784 -0.024129223 0.07778767 0.011725667 0.0348594 0.021339353 -0.17309397 0.7385191 -0.0076388707 0.04098892 -0.050309226 -0.040354528 -0.3486716 -0.010239721 0.00032980408 0.06980923 -0.21678609 -0.01932883 0.33126757 -0.18019278 -0.030787162 0.4675632 0.13408282 -0.36332756 -0.15522182 -0.111130945 -0.09364363 0.08573547 0.21891157 0.04295155 -0.24794997 0.4106676 0.21923167 -0.173451 0.11299724 0.49584755 -0.4089873 -0.10443703 -0.030180577 0.1840559 -0.1274969 -0.06396073 0.17946325 -0.30325198 -0.4370792 -0.5169887 0.025130784 -0.019259773 -0.052245554 -0.11317978 0.104899384 -0.035156436 -0.17180751 0.1383338 0.14566402 0.10369714
a -0.7167799 0.16652988 -0.6955444 -0.09680352 -0.28277707 0.27499038 0.28406408 -0.17280224 -0.07249129 -0.0056715487 -0.19351533 0.19573481 0.5084881 0.3358955 -0.07472173 0.3249391 0.54702884 0.15508533 0.19174448 -0.38304433 0.06194533 0.40223134 0.20998481 -0.59921724 -0.53307045 -0.29667857 0.09231575 -0.30782968 0.27902555 -0.06750429 0.003570281 0.2002004 -0.049073886 0.39293465 -0.08440976 0.3956133 0.064871244 0.36080182 -0.01254836 0.01498944 0.12214483 0.03520622 0.0355462 -0.32137883 0.41109288 -0.55870885 -0.042253513 0.23275222 -0.3491621 -0.19759588 -0.34162733 0.2692205 -0.10327609 0.57386196 0.17721945 -0.11692974 -0.06023042 -0.15751134 0.058628645 -0.017049441 0.11328883 -0.2439764 0.16247718 -0.3835565 -0.30048683 0.5432151 -0.15832727 -0.4118157 0.05363333 -0.32752714 -0.5604832 -0.076632164 -0.10517668 -0.4457477 -0.44401976 0.52902323 0.153202 -0.30615294 0.3631736 0.3832997 -0.48723537 0.25040808 0.08795555 -0.9797263 -0.40290204 -0.15972525 0.12735303 -0.05575992 -0.6477778 -0.42580217 -0.08180975 0.2791102 0.17725715 0.062903814 0.23204866 -0.23176241 -0.09104906 0.35657775 -0.036981758 -0.07878423
T -0.1665727 0.0814475 -0.26308113 -0.02748689 -0.03425096 0.13727944 -0.055935644 -0.26817963 -0.058609672 -0.021450844 -0.19870904 -0.12231108 0.19560677 0.6360306 0.059254274 -0.0051374533 -0.19382943 0.3509819 0.23376206 0.0308189 0.061033305 0.34762466 -0.07157308 -0.7522367 0.0076881265 0.15194553 -0.11253697 -0.23613545 -0.113069616 0.14128378 -0.11085026 0.42700508 0.0079185935 -0.13019484 -0.11377291 0.427856 -0.26969752 -0.1178541 0.19199185 0.1938337 0.16205661 -0.031948093 0.22758329 0.17743863 0.10488462 -0.40940577 0.2282487 -0.15027192 0.008260175 -0.0075902822 -0.041329075 0.54296714 -0.23615713 0.24748702 -0.003511493 -0.08023883 -0.10762764 -0.08366065 -0.18537788 -0.06828519 -0.23435768 0.19941697 0.3257427 -0.2720445 -0.25743002 0.36463293 -0.0032330675 -0.37308106 0.014191167 -0.44574437 -0.27940443 -0.16723587 0.022052452 -0.134362 -0.31087413 0.46107337 0.25866675 -0.25827265 0.37122303 0.26393303 -0.24140583 -0.23382871 -0.03795809 -0.17448933 -0.0208829 -0.14424028 0.038488142 -0.28660148 -0.29237065 -0.3005228 -0.07002797 -0.09571521 0.1289536 -0.0957642 -0.07076918 0.11760527 -0.027404157 0.38108784 0.28839552 0.015758976
m -0.54789245 0.3970749 -0.5900257 0.12898307 -0.107263595 0.025381403 0.33417243 -0.29905868 -0.3722296 -0.015911441 0.0019132793 0.22477952 0.21002874 0.20622955 -0.091092005 0.24522632 0.13006215 0.11030748 0.4154338 -0.3525289 0.3775783 0.28129482 -0.20658416 -0.4593507 -0.1578957 0.18089017 -0.12816978 -0.2010158 0.1088829 -0.09685629 -0.10425585 0.22556 -0.1762741 0.13886946 0.029587 0.38821602 -0.07432538 0.3087074 -0.06875165 -0.028531069 0.34743306 0.20150045 0.060867127 0.049152043 0.22258645 -0.28798732 -0.09582663 0.064236775 0.0038511825 0.17689659 -0.37983918 0.084867276 -0.39628702 0.55625296 0.12484865 -0.1141506 -0.308103 -0.12753326 0.025402956 0.1166984 0.20632364 -0.6626519 -0.02604298 -0.12910187 0.021022998 0.36973685 -0.15242931 -0.25143135 -0.19796753 -0.28043395 -0.36988485 0.09209381 0.16157392 -0.27386135 -0.475911 0.596037 -0.043506436 -0.15955314 0.4053776 0.07198825 -0.31875062 0.23182175 -0.06924025 -0.6165168 -0.4712956 -0.53570557 0.16888806 -0.015051549 -0.36903876 -0.39936626 0.04783126 0.39953777 -0.22690788 -0.0042727785 0.19703886 0.07482879 -0.006882604 0.042952504 0.2490739 0.027083268
i -0.62374747 0.07418036 -0.7842816 -0.2235665 -0.1539238 0.30140647 0.2002335 -0.29377788 -0.101776205 -0.018068308 -0.16766214 0.2798453 0.51304394 0.42329285 0.14063193 0.35754344 0.5480759 0.115078434 0.22207794 -0.4140806 -0.1755631 0.2951108 0.13108982 -0.5453686 -0.6418572 -0.24454768 0.04554552 -0.4303653 0.23757055 0.12297284 0.17809102 0.16212337 -0.1556853 0.29944187 0.14242983 0.36949086 0.041897863 0.33338764 0.057532724 0.075883 0.122659646 0.0084480755 0.09265571 -0.37280464 0.27464533 -0.49513558 -0.14826165 0.23733337 -0.24038197 -0.069399185 -0.6272024 0.37828642 -0.24650744 0.769598 0.010762374 -0.22635567 -0.04097829 -0.1679018 0.10240717 -0.11828529 0.12313415 -0.29459938 0.17806314 -0.4950491 -0.20402627 0.74247074 -0.06161447 -0.41576773 -0.0582323 -0.48350322 -0.5699605 -0.005024087 0.027707545 -0.38986486 -0.37914985 0.48536763 0.28438044 -0.48980728 0.34616137 0.4595302 -0.5206664 0.2224028 0.18823542 -0.8588342 -0.46080378 -0.33465376 0.1283204 -0.027738238 -0.37145197 -0.26380736 -0.061575595 0.20663628 0.30148146 0.012932108 0.25338736 -0.18934 0.08353497 0.30231696 -0.1259954 -0.12035282
L -0.1933335 -0.06287805 -0.21822664 -0.016249489 0.11454402 -0.35438332 -0.03818427 -0.18317568 -0.04891081 -0.014272507 0.08331869 0.09432785 0.17941687 0.21247473 -0.32627502 0.04019292 -0.007692707 0.25307477 0.19292368 -0.00032227015 0.09793103 0.0936736 -0.06542029 -0.43213317 -0.22363527 0.0652676 0.034126602 -0.16039044 -0.43433997 0.12692286 -0.2121686 0.4949687 0.31701335 -0.36277604 0.010731531 0.23830776 -0.37720618 0.022542065 -0.026596447 0.28738663 0.12763469 0.034920808 0.054526936 -0.11595405 -0.09292724 -0.16594075 0.18119761 -0.076249115 0.15672225 -0.097042374 0.056977656 0.5894981 0.030752663 0.3170331 -0.006221119 -0.26548457 -0.28662875 -0.049499538 0.23772717 0.102008276 -0.24116239 -0.017165098 0.32081747 -0.19521296 -0.26687005 0.31432486 0.027864814 -0.33787832 0.04584178 -0.275973 -0.21895872 -0.10843264 0.09944442 -0.025915157 -0.31180817 0.33837515 0.13979521 -0.18733288 0.07920679 0.4823794 -0.32630286 -0.23417762 -0.09473566 0.071418315 0.1300577 -0.11259072 0.26733637 -0.32678133 -0.41716185 -0.47676456 0.10202557 -0.03752697 0.10326978 0.07041305 0.114460684 0.18103091 -0.14609529 0.37154603 0.16264682 0.110513635
t -0.68812793 0.22382978 -0.733413 -0.31354278 -0.41487664 0.14772719 0.27345443 -0.18866761 0.118324034 -0.12908569 0.03442063 0.30284426 0.6374029 0.24057643 -0.0794591 0.19430102 0.37184638 -0.023929922 0.12206426 -0.38619995 0.2830214 0.29209992 -0.040886622 -0.56046283 -0.47917712 -0.21817467 0.082537554 -0.2599084 0.20037909 0.052640792 0.078069076 0.13507345 -0.04902281 0.24507752 0.12595174 0.24940553 0.064600185 0.43791485 -0.04553876 0.066321105 0.06488881 -0.033371184 -0.053941127 -0.3693393 0.39207032 -0.32885015 0.0033229906 0.21719332 -0.26911035 -0.01749641 -0.5269181 0.21192795 -0.19969864 0.82269377 0.14585997 -0.29851356 0.00048474094 -0.07688865 0.072477035 0.0815743 0.19209759 -0.27053934 0.08562725 -0.44341126 -0.30562428 0.54772437 -0.25211504 -0.4159846 -0.11572262 -0.34673604 -0.6119109 0.03618005 -0.08464923 -0.34603754 -0.47170877 0.5212916 0.13807611 -0.31190345 0.30286184 0.43666595 -0.42898968 0.25372562 0.04666898 -0.8345713 -0.32454577 -0.2702807 0.24689488 -0.065571636 -0.5369124 -0.12508468 -0.025199711 0.3458009 0.27471215 -0.01804474 0.014582544 -0.06758927 -0.10097682 0.40146047 -0.17534886 0.1034837
r -0.96090746 0.1409392 -0.7719234 -0.11883253 -0.17281283 0.21445361 0.23252612 -0.21706215 -0.15118319 -0.0063596163 -0.30973566 0.35261527 0.33177003 0.3384794 0.05326907 0.28358042 0.37476012 0.27280042 0.21543199 -0.44279036 -0.037629038 0.40944687 0.043962955 -0.4898174 -0.54990655 -0.06340735 -0.024228027 -0.33142284 0.234842 0.06582041 0.22016244 0.22583312 -0.017218184 0.38914722 0.092813954 0.39650765 0.030666152 0.4430436 -0.034045525 0.17171717 0.16707896 0.1121064 -0.08234852 -0.3041071 0.41232535 -0.52012676 -0.062220436 0.16334707 -0.28170294 -0.0802834 -0.5145927 0.23255673 -0.3113329 0.59257317 0.18191129 -0.19609645 -0.07943607 -0.2197742 0.1516072 -0.17364463 0.100853056 -0.37343732 0.057602637 -0.33725306 -0.28916168 0.6105064 -0.13886182 -0.5362659 -0.041714765 -0.428586 -0.6048189 -0.1416613 -0.065026194 -0.50548774 -0.5718698 0.5495125 0.083626084 -0.41710266 0.2821055 0.45337775 -0.39430216 0.26480144 0.21147093 -0.95198697 -0.44785783 -0.31995535 0.10732939 -0.043246366 -0.60207504 -0.25375777 0.0539159 0.34494475 0.28691292 0.06326334 0.24065588 -0.077913165 0.034900755 0.2375494 -0.06472612 -0.17616186
n -0.7613705 0.20768307 -0.8012922 -0.21119769 -0.24533994 0.2416476 0.20781232 -0.23556359 -0.12376291 0.0019427582 -0.23556404 0.14132684 0.44401 0.32074234 0.1143064 0.365445 0.53935224 0.07092546 0.1296419 -0.3274148 -0.11926097 0.3150181 0.18825257 -0.5212722 -0.56615984 -0.2897892 0.04713725 -0.43222737 0.2499759 0.20657258 0.12971042 0.22352126 -0.08844022 0.22584721 0.112861626 0.4502564 -0.054032166 0.3273792 0.05588093 0.16559061 0.14902289 0.0661484 0.101475604 -0.23009497 0.25196543 -0.5994981 -0.12348104 0.3008624 -0.23472773 -0.24653578 -0.46285847 0.29433987 -0.26038852 0.692181 0.09909711 -0.3641615 -0.10681242 -0.14545894 0.017656645 -0.23114957 0.057325993 -0.2863563 0.14614733 -0.49497014 -0.3255267 0.7686175 -0.1179809 -0.5914436 0.100063816 -0.52497065 -0.62861687 -0.09699187 -0.10407282 -0.43814462 -0.4692458 0.5788258 0.21504302 -0.45496902 0.24282506 0.5013495 -0.42833695 0.21090092 0.17415297 -0.95484436 -0.3283715 -0.28559944 0.22163765 -0.12747832 -0.53918666 -0.19871911 -0.044470504 0.33357054 0.3576744 -0.11949449 0.19863659 -0.14788294 0.110524364 0.16831382 -0.22777477 -0.21729635
: -0.47169632 0.4017496 -0.20728593 -0.033315074 -0.35911867 -0.44581544 0.09527584 -0.050194994 -0.23849116 -0.41292393 0.10918196 -0.020065423 0.41901082 0.038651954 -0.24389353 0.11219479 -0.3357615 -0.29066488 0.22374128 -0.0052968506 0.36398175 0.12608717 0.0538921 -0.054301213 -0.42462796 -0.13500395 0.27725247 0.4609415 -0.15845576 0.18820104 -0.18725908 -0.09431199 -0.2997358 -0.3154761 0.19426946 0.25536433 0.18192166 0.29224822 0.21461406 0.024480272 0.3390562 0.057630323 -0.036647707 -0.067781284 0.028096447 -0.044401433 0.29338646 0.30180898 -0.0733772 -0.00932266 -0.3841841 0.48319316 -0.76925033 0.9172285 -0.061262455 -0.14972427 -0.42764387 -0.19964762 0.18552056 0.0765072 -0.1945047 -0.32576975 0.17412513 -0.50935036 0.14525409 0.17414716 -0.38869798 -0.39480782 -0.43419823 -0.667275 0.011763872 -0.14017607 -0.0071901414 0.32190055 -0.57290196 0.4147272 0.05450003 -0.3838758 0.25258785 -0.06201686 -0.6795055 -0.060357645 0.18217576 -0.15684232 -0.109938174 -0.33086056 0.0023761017 -0.02680556 0.0054451316 0.14952883 -0.13621292 0.3235595 0.05031049 -0.011796776 0.14675817 0.18118048 -0.46506158 0.2028065 0.006535461 0.15987483
G -0.10885688 0.07468984 -0.43377817 0.15341133 0.08564584 -0.25556877 0.05328484 -0.2876713 -0.22868708 -0.14385033 0.04442152 0.24031422 0.24100624 0.114612326 -0.07105306 -0.013100984 -0.17584698 0.28209355 0.17980666 0.120280676 0.16853209 0.022426767 -0.061212946 -0.3895909 -0.054770865 0.05811379 0.1484396 -0.3175866 -0.35456556 0.12032474 -0.20356716 0.4740951 0.40682977 -0.47996476 -0.053608455 0.32906407 -0.41143376 0.022020452 -0.17932262 0.0779354 0.120939896 -0.04896131 -0.018751413 -0.07711691 -0.20040783 -0.09471396 0.15883328 -0.09003043 0.12084126 -0.010861453 0.093166456 0.66700894 0.15335682 0.24746689 0.11713623 -0.16785526 0.12515233 0.026886381 0.14958201 0.13908783 -0.29329392 0.013022622 0.0867586 -0.25011846 -0.05126912 0.40367553 -0.059814822 -0.34331897 -0.042476773 -0.47827938 -0.1348323 -0.067750335 0.105765276 -0.07818055 -0.32154024 0.22337143 0.11211679 -0.2819644 0.1801499 0.47820202 -0.038863342 -0.38335136 -0.23077652 0.09328557 0.059630256 0.011541002 0.062222615 -0.23666441 -0.11991741 -0.46444306 0.07971838 0.007289159 -0.033236217 0.07501447 0.28777507 0.09200467 -0.23744546 0.41495425 0.17582828 -0.011415774
M -0.24387494 0.13988267 -0.18435788 -0.1544061 -0.227422 0.07054842 0.20392123 -0.3350426 -0.09688781 0.35978982 0.21110559 0.03460459 0.25759223 0.6145529 0.017002214 0.08755854 -0.1532346 0.2700421 0.2755238 -0.06082169 0.23718521 0.25049782 -0.10085899 -0.51865155 -0.191741 -0.047440477 0.02082996 -0.08662794 0.004891999 -0.029829996 0.07210712 0.6070377 0.12885946 -0.22798477 -0.016820345 0.2585318 -0.30535814 -0.06209447 -0.2552939 0.06726047 0.21747303 -0.21749994 0.021377636 0.1672875 0.12245741 -0.008242836 0.25289118 0.034611173 0.0039691324 -0.1286059 -0.24686685 0.58182144 -0.030270422 0.2894444 -0.05516008 -0.13850002 -0.28589082 -0.17964052 0.11999465 -0.021587009 -0.36885926 -0.023523498 0.13713107 -0.39970928 -0.33402583 0.28566667 0.011154429 -0.3405591 -0.20018427 -0.030654656 -0.34045878 0.06667458 0.18879347 -0.06305229 -0.25990275 0.436829 0.20339885 -0.40405387 0.010082054 0.38277647 -0.32154152 -0.08907518 0.06662274 0.12795909 -0.21547619 -0.20398892 0.035451543 -0.18439704 -0.4186932 -0.4648432 0.0025389544 0.053474832 0.09028942 -0.14451785 -0.3477937 -0.05160376 -0.19954596 0.22832103 0.09844769 0.23834924
I -0.20395908 0.13979825 -0.44213215 -0.1266474 -0.23185885 -0.11566725 0.11671488 -0.25902247 -0.18397711 0.08796497 0.0978305 0.14338256 0.23675863 0.41069487 0.08760903 0.02402938 0.07319703 0.2342962 0.12413897 0.17340623 -0.05812789 -0.052699286 -0.003569865 -0.5751767 -0.14253141 0.00029079523 0.10804027 -0.36573657 -0.22542892 0.16026516 0.11736815 0.62566835 0.43839288 0.083071776 -0.020082846 0.10382237 -0.4980887 0.009842021 -0.1361123 0.012369186 0.30348137 -0.094965056 -0.10340773 0.25744194 0.13233045 -0.2386928 0.2139843 -0.14586417 0.05888482 -0.20123053 -0.259794 0.5718308 -0.07034438 0.40709665 -0.0045551397 0.13465847 -0.2314921 -0.013410612 0.103331596 -0.008743968 -0.26753566 -0.08052656 0.15273634 -0.31509897 -0.2940931 0.26766458 -0.07605093 -0.39402342 -0.20268358 -0.33184308 -0.3309792 -0.095111504 0.0054089446 -0.031554297 -0.27816394 0.3388049 -0.014089507 -0.372801 0.19454572 0.27623817 -0.43944624 -0.20184807 0.16138187 -0.008929239 -0.022714123 -0.053499315 0.10014507 -0.2010627 -0.3513265 -0.01048716 -0.04740878 0.09713451 0.52409905 0.07906596 0.026883457 0.074472666 -0.18985163 0.20393032 0.24089573 -0.00029871857
w -0.6525693 0.33922175 -0.86194384 0.013583334 -0.721844 -0.36150151 0.15630849 -0.25981823 -0.54879487 -0.36424667 0.44363466 0.67571014 0.85155886 -0.19168137 -0.43725887 -0.0019829022 0.5319642 -0.24562483 0.25226822 -0.027062722 0.0336848 0.29264742 0.25829616 -0.79901356 0.185787 -0.08769858 0.15529436 -0.45350826 -0.049471233 0.022642426 0.027744304 0.18292412 0.49619535 -0.023744952 -0.060300622 0.21844421 -0.020437496 0.5826848 0.025764469 0.17678402 0.070653826 0.11682278 0.20502393 -0.53089637 0.24816413 -0.41000935 -0.24772274 -0.11108668 -0.3132685 0.2505903 -0.51384616 -0.30244318 -0.26460296 0.80786943 -0.16690783 -0.28064242 -0.2331547 -0.050249055 -0.22313066 -0.11236297 0.6530143 -0.6704314 -0.2483123 -0.13148017 -0.17271084 0.13053994 -0.2559362 -0.2626419 -0.06718695 -0.5629092 -0.6199632 0.5356593 -0.018453166 0.008775083 -0.55849093 0.5261937 -0.66217965 -0.23576513 0.24518943 0.45020702 -0.3171342 0.10157351 0.23647927 -0.75293785 -0.6929724 -0.23373191 0.45528403 -0.26666644 -0.44928378 0.19820568 0.051930528 0.09620104 0.2294306 0.117810406 -0.12920666 -0.21959326 0.040576078 0.59698415 0.40718243 0.22951083
’ 0.105585136 -0.0042804605 0.31715596 -0.33019254 -0.2157649 0.17934239 -0.15848134 -0.138646 -0.3661092 -0.026340812 0.39765766 0.25297385 -0.091623604 0.23405027 0.059420265 0.2395792 -0.19150597 0.13186772 0.33119655 -0.23951872 0.16221838 0.1253187 -0.16583271 -0.2634003 -0.017051501 0.02728841 -0.113127925 -0.1053157 -0.2790131 0.07227503 -0.28951228 0.06951817 0.020040562 -0.4331515 0.1537544 0.34011456 0.100475624 0.021515004 0.112988904 -0.104996264 0.1826437 0.21827841 -0.02389837 -0.03379366 -0.12723777 -0.07880934 0.38289428 -0.00037206098 0.07500751 0.1773812 -0.32825705 0.47404024 0.023981757 0.21258542 -0.018890241 0.18479128 -0.044858504 -0.49170154 0.3692247 -0.04341266 0.071989276 -0.15993124 -0.07169846 -0.12128122 0.028426427 0.13232195 0.089327514 -0.04718768 -0.16450435 -0.1257852 -0.16086146 0.22058809 0.1860603 -0.26527748 -0.38120088 0.05338775 -0.12441439 -0.4775118 -0.1481451 0.14070131 -0.27619237 0.035755325 0.2699696 0.15623598 -0.3866337 -0.06468485 0.249368 -0.27128533 -0.5075007 -0.08024503 -0.13124043 -0.24143174 0.32005426 0.042144693 -0.37241408 0.028763177 0.2996645 0.31106827 -0.07287979 0.27313563
