799 100
@ 0.031099098 -0.039073937 -0.033248078 0.010602819 -0.006673932 -0.025213003 0.091748424 0.031673353 0.04514515 0.021460615 0.06410757 0.05876738 0.0016632415 0.028846074 0.037889875 0.08653745 0.04324125 -0.040139757 0.10463273 -0.057212222 0.02170087 -0.053033203 -0.08767794 0.031013325 -0.011363813 -0.04133629 0.063519366 0.03917968 0.021287335 -0.13135657 0.0786209 -0.042594798 0.05513286 -0.050007146 0.0983011 0.0038205609 -0.12572801 -0.053647045 -0.094640315 0.06683944 0.012948852 0.046080425 -0.017997215 0.016994532 -0.06587335 0.039746344 0.004303504 0.009590293 0.0018347614 -0.10776886 -0.13579814 0.10397311 -0.19031012 -0.062576205 -0.0132410675 -0.008315723 0.0077139335 0.063587494 0.10448176 -0.04596876 -0.074750006 0.04725004 -0.035977922 -0.09170614 -0.026326668 -0.09665515 -0.016859964 -0.012712565 0.083705686 -0.10013547 0.07031845 -0.0048091896 -0.0037153922 -0.09114244 0.08162526 -0.009489297 0.016124563 0.024797915 0.0035890546 -0.071406186 0.025176816 -0.09434023 -0.030242285 -0.013113445 -0.06893946 0.103401795 0.08410527 0.029503781 -0.05493249 0.07483275 -0.058317013 -0.13149936 -0.025927924 -0.12299161 0.090951204 0.029994363 -0.053452916 -0.01321346 0.003028642 0.0140044065
  -0.011904759 0.000748327 0.007646121 0.04151146 -0.020169571 0.0007878151 0.09486179 0.03566543 0.052723322 -0.014360642 0.068528146 0.025725948 -0.019064425 0.044018075 0.020051517 0.08611008 -0.010258663 -0.06705209 0.13830687 -0.052509166 -0.02192305 -0.050126094 -0.10434321 0.037872795 -0.044265445 -0.07191352 0.057931714 0.050973646 -0.043928742 -0.14781275 0.0032869764 -0.0031432975 0.08732477 -0.0030310543 0.03383983 -0.007894895 -0.08185281 -0.058590814 -0.076453805 0.058537304 -0.0066714813 0.035858475 -0.020888716 0.036489945 -0.036549114 0.045455817 -0.027649505 0.05100105 -0.044908583 -0.15091144 -0.14483379 0.08140122 -0.15078793 -0.012844721 -0.03454098 -0.026453877 0.00808515 0.07747337 0.12666036 -0.0749776 -0.04452417 -0.05758487 -0.0030085782 -0.11069357 -0.032171573 -0.103913225 0.035213698 -0.02465962 0.1478119 -0.05145601 0.06782737 -0.013759565 0.01802904 -0.12477877 0.0164726 -0.0013978067 -0.042903665 0.004231207 0.029517587 -0.0072432943 -0.038130153 -0.08664783 -0.032792702 -0.02652584 -0.0871414 0.082862355 0.0769082 0.0538676 -0.048755053 0.0025851764 -0.026708964 -0.08453402 -0.034040086 -0.117215335 0.09197382 0.0506312 -0.0101172775 -0.01093649 0.009866427 0.008849158
ㅇ 0.008969204 0.011277884 0.0014666189 0.041834757 -0.055457905 0.019799102 0.07210969 0.013846943 -0.007657841 -0.04285178 -0.015232384 -0.08735478 -0.04175049 -0.038915295 -0.02258014 0.043469436 -0.027792541 -0.039825223 0.17760745 -0.040785015 -0.06211943 -0.03228814 -0.079140455 -0.0017076517 -0.008939188 -0.08522113 0.11983045 0.024709985 0.035052996 -0.06574643 0.010850662 0.02804547 0.016295936 -0.06814143 0.081355006 -0.040105518 -0.044713985 -0.007862547 -0.05312398 0.057615347 -0.020284068 0.028298207 -0.01459724 0.029952848 0.02368759 0.03427141 -0.037418377 0.077161714 -0.044656917 -0.09555506 -0.12604597 0.20240569 -0.08123138 -0.044390388 -0.05669409 -0.023429584 0.023611253 0.011534516 0.17009185 -0.11206235 -0.058504187 -0.010706135 0.013612138 -0.055267595 -0.058511257 -0.060763143 0.04125795 0.060927432 0.084847465 -0.04717377 0.056172714 -0.039533157 0.021759046 -0.12194586 0.07069323 0.0030545602 -0.02259462 0.078157626 0.0068188086 -0.075214505 -0.10599091 -0.11333163 -0.014589732 -0.03979248 -0.10042768 0.0918284 0.14945033 -0.03483063 0.00033793552 0.020213958 -0.023740716 -0.13803051 -0.022716302 -0.010469389 0.12456696 0.110374786 -0.004657971 0.051845312 0.01712973 -0.0034594056
S 0.03297604 -0.0273165 0.00020665675 0.08026291 0.026511336 0.056441512 0.102881484 0.022445243 -0.016743166 -0.04734838 -0.04704744 -0.023415808 -0.011459341 -0.015803736 -0.023468584 0.0428942 -0.031273916 -0.0527384 0.09847909 -0.025463976 0.0027962998 -0.063948706 -0.049245402 0.018049164 -0.023400633 -0.046495736 0.10317642 0.039084308 0.010695397 -0.15235029 -0.003528752 -0.011946522 0.088033125 -0.04220682 0.0048458595 -0.031321466 -0.05818961 0.038226023 -0.04910927 0.100256406 -0.03792184 0.02074311 0.041288212 0.14442435 -0.058777127 0.082438506 -0.008872867 0.0057598148 0.001589888 -0.06784657 -0.12265885 0.0032379357 -0.1926818 -0.020528266 -0.07535138 -0.081115425 -0.029131273 -0.040684544 0.14986853 -0.14444748 -0.03813404 0.01724593 -0.015171318 -0.10160175 -0.12600613 -0.06066616 -0.05826533 -0.019119378 0.067416295 -0.089943826 0.0062318514 -0.06925584 0.120350435 -0.1126061 0.048564453 0.06787447 -0.11904083 0.12961361 0.029550547 -0.056726992 -0.061276715 -0.087968 0.032218084 0.03881433 -0.063067764 0.094091155 0.10984074 0.027827743 -0.053334676 -0.025780205 -0.0881061 -0.10065178 0.075960964 -0.09369675 0.1261374 0.087177895 0.05401523 0.03717132 -0.09833063 0.050173733
P -0.043837257 0.035636574 -0.0057567377 -0.027445566 -0.09841074 0.06661734 0.009669469 0.03480459 0.018446658 -0.0026245615 0.03873498 -0.04595934 -0.04427601 -0.033477504 0.07200999 0.024786226 -0.0075905216 -0.020785376 0.17545548 -0.035805516 0.015275926 -0.029596765 -0.12291844 0.07507388 -0.010604329 -0.06496003 0.05063527 -0.0077721006 -0.07228329 -0.09168689 0.0014686361 0.02438005 0.028789308 -0.041267745 0.036186278 0.013914242 -0.03517606 -0.054903187 -0.06932751 0.080889404 0.012573761 -0.08427659 -0.05352767 0.025715476 0.0038301353 0.07699819 -0.059388176 0.101981275 -0.009055523 -0.078021735 -0.12534861 0.055417243 -0.22909112 -0.0796401 -0.0146394735 0.060283594 -2.70186e-05 0.087547496 0.11760715 -0.036774363 -0.09008673 -0.0014262572 -0.019359436 -0.09682934 -0.12226716 -0.1087857 -0.012504451 0.06525758 0.11801527 -0.053661533 -0.0026225448 -0.10587141 0.0026155356 -0.09806542 -0.029500522 -0.120424576 -0.060660023 0.07735103 0.026245346 0.031366695 -0.057554774 -0.07518598 -0.044102058 0.036891833 -0.04243806 0.030564234 0.16925226 -2.713874e-06 -0.038127616 -0.028231023 -0.010227172 -0.11369898 -0.017715825 0.015504483 0.15553209 0.11024949 -0.021762608 0.033744123 -0.0067742374 0.08753053
> 0.044168178 -0.021409817 0.041421644 -0.013653381 -0.03574665 -0.003972534 0.077375874 0.10906728 -0.0025093406 -0.0849526 -0.044029333 0.007980521 0.045864474 0.08568967 0.032603696 0.06203581 -0.011429029 -0.08008801 0.12565778 -0.06893918 -0.046155766 -0.12364135 -0.114188224 -0.046854533 -0.03651718 -0.07594654 0.09492795 0.02417392 -0.00068172254 -0.06127908 0.04796984 0.03445959 0.03278452 0.055612005 0.051396772 -0.04429054 -0.06869385 -0.05327314 0.0006484287 0.08795352 0.022780329 0.010615536 -0.06375566 0.09386685 -0.0757377 0.0511744 -0.087025575 0.056135807 -0.0069474527 -0.12556031 -0.10428664 0.09708074 -0.13213232 -0.07587103 -0.0010619798 0.046868663 0.0406357 0.013379217 0.14989534 -0.12061541 -0.0804631 0.011114383 -0.0017589745 -0.13049817 -0.0794029 -0.16833702 0.11256043 0.023335975 0.03739043 -0.018810315 0.028332725 0.0487947 0.0696637 -0.13282482 -0.01966335 -0.0041590785 -0.0065299147 0.08070515 0.0029872884 -0.0061483164 0.07471393 -0.08094292 -0.005032837 -0.0076157595 -0.071539514 0.038417608 0.10833384 0.027041817 -0.009080987 0.0059147994 -0.07456659 -0.111762494 -0.009923716 -0.03279329 0.056183532 0.051919077 0.04077684 0.063798316 0.034764733 -0.054268286
< -0.010744455 -0.0047634877 -0.063868426 0.097710915 -0.03228093 -0.05597633 -0.04635007 0.06433093 0.043104034 -0.022750644 0.04104259 -0.019802937 -0.10627041 0.023915587 0.059683576 0.027270168 0.02807528 -0.07076639 0.12154885 -0.09366436 0.014407838 -0.009488931 -0.06828532 0.006760585 -0.041179672 -0.12703575 0.10168541 -0.026961535 -0.016316354 -0.101715766 -0.0059102364 0.039345972 0.008280089 -0.084941566 0.037238106 -0.025520021 -0.11290693 0.00764044 -0.06615746 0.08483651 -0.034339517 -0.039043784 0.03826631 0.005630224 -0.09072147 -0.017852573 -0.020603452 0.040001653 0.013957436 -0.09876116 -0.13582505 0.051492967 -0.09839622 0.0398692 -0.08522102 0.013484085 0.018286264 -0.012414799 0.18907653 -0.0801533 -0.10079323 -0.033084642 -0.072348945 -0.068783306 -0.08576788 -0.113634855 0.097434126 -0.09133917 0.14327894 -0.04194344 0.063020326 -0.077677965 0.023300275 -0.15291205 0.04773558 -0.002081532 -0.014883431 0.030204158 0.02823893 -0.12012963 0.009319194 -0.0795002 0.05380869 0.0048608338 -0.0023688918 -0.011197265 0.049994648 -0.011227128 -0.00789022 0.0031805008 -0.056374423 -0.13651043 -0.0065159993 -0.022187041 0.18131496 0.08026076 0.042714518 0.01849652 0.0552585 0.032414954
ㅏ 0.08860501 0.094669946 0.015927048 0.061560623 -0.055001527 0.022533305 -0.007878435 0.11134959 0.0589136 -0.12806325 0.008951641 -0.0345738 -0.12649375 -0.07563839 0.013928849 0.06412734 -0.016242865 -0.027897393 0.12571329 -0.05300546 -0.093157485 -0.11558385 -0.13244006 0.052136663 0.04501186 -0.06899227 -0.0070961937 -0.06923416 -0.14077292 -0.041720636 0.010885622 0.0102383355 0.14968659 -0.044793155 0.022933422 -0.004139133 -0.0098923985 -0.05445727 0.011026614 0.07831777 0.010191401 0.048334543 -0.011794514 -0.020558883 -0.05347977 0.036479603 -0.050066702 0.08715775 -0.055221733 -0.1463743 -0.07982366 0.07876471 -0.09028483 -0.037454642 -0.042120483 -0.048191477 0.003553799 0.03022695 0.09521417 -0.048213337 -0.08767329 -0.0022427125 -0.036983743 -0.05065187 -0.07115302 -0.104678184 -0.0038858866 0.026071262 0.016267637 -0.09211198 0.08459051 -0.02987083 0.015584421 -0.12849316 0.050647408 0.037567995 -0.050574504 0.08213618 0.005909674 -0.07886342 -0.060959138 -0.1858626 -0.029929543 -0.053871136 -0.00078192726 0.024314923 0.122682855 0.09685875 -0.03399936 0.043374613 -0.05223159 -0.14276822 -0.09548769 -0.097920254 0.08826532 0.16217902 0.06328571 0.060209483 -0.087482736 -0.013229329
ㄴ 0.005707399 -0.006628992 -0.010026254 0.01786911 -0.0012644957 0.010266946 -0.00086479075 0.026479138 0.092862606 -0.0020689843 -0.0039802454 -0.060492292 -0.013721754 -0.032377448 0.041768532 0.00029182155 0.021956677 -0.06739319 0.09652687 -0.022479098 -0.107361205 -0.08303412 -0.14009048 0.062188342 -0.050264813 -0.073677324 0.08280043 -0.040967166 0.040755358 -0.10993272 0.019592863 0.054792143 0.013137161 -0.07618209 0.03884544 -0.05032779 -0.058953576 -0.005658932 -0.040757492 0.09363234 0.009105484 -0.012346268 0.029626304 0.05564005 -0.055457998 0.040602576 -0.060831036 0.057912983 -0.008896338 -0.06789157 -0.12786071 0.15759206 -0.14782992 -0.021994675 -0.061205048 -0.018463051 -0.035482924 0.020201737 0.12079851 -0.027563794 -0.0093434015 0.02056462 0.04023644 0.017704502 -0.116265886 -0.11553817 0.060861535 0.021754349 0.0922495 -0.016079508 0.0040454846 -0.023921097 -0.00081636757 -0.085423134 0.06121772 0.06203679 -0.057207435 0.12804468 0.01788499 -0.064999186 -0.033763997 -0.10868955 0.016542248 -0.045913152 -0.027356425 0.110571705 0.105183944 0.025091607 -0.056826543 -0.028900368 -0.01707939 -0.08391346 0.0008142019 -0.04913574 0.11430984 0.037991166 -0.022025054 0.10114553 0.030911122 0.053862408
ㄱ -0.013634328 0.011560664 0.041731328 0.046037372 -0.024490759 0.0118747465 0.012389787 0.07094541 0.037341297 -0.033447254 0.0019109081 0.006292167 0.020668775 -0.06397213 0.005208927 0.04487603 0.010545194 -0.028069183 0.15374483 -0.039431557 -0.09725793 -0.026807286 -0.09740306 -0.037211813 -0.046448126 -0.09290884 0.103174984 0.0053297626 -0.041969422 -0.055481285 -0.014047634 0.03773737 -0.018121416 -0.0890225 0.042266726 -0.05522405 -0.04575801 -0.0030311267 -0.023723124 0.03188082 0.01637389 -0.02669925 0.013737097 0.06584748 -0.045264132 0.018658517 -0.0015089442 0.04312765 -0.020715887 -0.07290204 -0.06722568 0.105356954 -0.16636354 -0.044530597 -0.034382924 -0.04161421 0.033969298 0.09803002 0.22802465 -0.11628942 -0.08180938 -0.024422705 0.023938715 0.010024325 -0.09609465 -0.06866946 0.04184175 -0.015163161 0.01268732 -0.024122734 0.028772596 -0.09730447 0.054430395 -0.049000837 0.049710855 0.016370887 -0.085756734 0.07983379 -0.007176017 -0.06676489 5.4948032e-05 -0.081615135 -0.08294389 0.0009195957 -0.057299845 0.06574233 0.123600446 0.08661957 -0.0017614833 0.026801385 -0.018637331 -0.14256985 -0.011844077 -0.07417515 0.13421154 0.11724698 -0.007473481 0.0811369 0.08794564 -0.023532223
ㄹ 0.023724718 0.032282498 0.09475539 0.008803465 -0.008982001 0.010077589 0.032034 0.11300162 0.02607478 -0.021480195 -0.009250521 0.013428794 -0.025682066 -0.06080824 0.003144289 0.06641143 -0.017799549 -0.059291918 0.08691127 -0.096463405 -0.056686834 -0.06316147 -0.12653041 0.0077305436 -0.06149318 -0.027042706 -0.018731236 -0.01018168 -0.0115097845 -0.08130889 -0.094570786 0.018326497 0.091276616 -0.09311255 0.0681314 -0.06316856 -0.017885095 -0.07291203 0.006977922 0.11029909 -0.0015241345 -0.067353465 0.047813587 0.037633598 -0.040744167 0.06441797 -0.04951601 0.090328306 0.055808183 -0.08542023 -0.10834352 0.09744146 -0.16465825 0.008438587 -0.011745226 -0.06895637 -0.0076322537 0.022880005 0.115803905 -0.06573021 -0.04538154 -0.05662539 0.047548655 -0.013648621 -0.11664547 -0.10217954 0.069648966 -0.011985233 0.03489837 0.012847458 0.07722163 -0.036152873 0.003715177 -0.1065289 0.100968 0.01924503 -0.06315424 0.100143366 -0.007431431 -0.0658002 -0.09285917 -0.11696493 0.004402303 0.011840941 -0.023188451 0.06594981 0.13105784 0.024479134 0.043791477 0.027996462 -0.018638633 -0.14783145 -0.008572305 0.011849906 0.11698771 0.112491354 0.010472463 0.09971329 0.031856205 0.053371914
ㅣ -0.0018678182 0.08220415 0.017350707 0.09488206 -0.0919659 0.06235127 0.06574319 0.07347418 0.052452486 -0.09410185 -0.028346384 -0.044797882 -0.10131708 -0.020474205 0.06456659 0.031792536 0.0015287688 -0.042207137 0.08166533 -0.00464724 -0.09925757 -0.06327455 -0.11285311 -0.0034208044 -0.023099246 -0.008505618 0.025528515 0.007692676 -0.08012764 -0.07081512 -0.043449108 0.0074464176 0.060558237 -0.07130604 0.022635207 -0.048686743 -0.015572228 -0.0665409 0.020947909 0.13217467 0.038040947 -0.009846269 0.019953387 0.033682335 -0.049081925 -0.038168453 -0.0829035 0.073858626 0.041621875 -0.12838367 -0.05629205 0.08922626 -0.14043328 -0.014645951 -0.055312376 0.0064535234 -0.029003374 0.0039547617 0.11848694 -0.022721011 -0.04515821 -0.022884388 -0.08678325 -0.023205446 -0.0832733 -0.112970315 0.022203105 0.009320986 0.025551807 -0.04716259 0.03060437 -0.061845146 -0.040780198 -0.15417035 0.043751996 0.036999706 -0.0899287 0.060358077 0.02123697 -0.007256127 -0.03742043 -0.09833355 -0.044725493 0.0016604315 -0.037182257 0.10774527 0.08405186 0.040123712 -0.07144017 -0.0016270066 -0.07699103 -0.16881043 -0.06463667 0.0046137315 0.074690156 0.16499135 0.010902496 -0.010542529 -0.072812915 -0.065582186
ㅡ 0.00924485 0.053012654 -0.013660632 0.058621727 -0.012459975 0.08734538 0.057088964 0.048775367 -0.040992886 -0.13179485 0.04276478 0.012553934 -0.06343246 -0.036408663 0.026870059 -0.043144777 -0.03734483 -0.019050086 0.040383782 -0.081534505 -0.031023724 -0.11797716 -0.17249769 -0.012789702 -0.027447049 -0.070694834 0.06754719 -0.055232286 -0.10738121 -0.047685467 -0.050498873 -0.043965764 0.0703697 0.04154525 -0.0003277153 -0.0068451283 0.05352435 -0.043863826 -0.036505803 0.12390813 -0.020425662 -0.054054674 -0.0431086 0.0101998495 -0.054269306 0.022203855 -0.025352962 0.092603534 0.017802227 -0.07878329 -0.15497953 0.031915452 -0.10936245 0.0039633494 -0.105548196 -0.056913994 -0.040087473 -0.036110196 0.1921807 -0.024994534 -0.034859315 -0.011454391 -0.03711869 -0.06967139 -0.10394301 -0.12006922 -0.0152779035 0.013946789 0.14086261 -0.10783605 0.023401177 0.014565682 0.024264004 -0.13161547 0.112473935 0.02431875 0.013365888 0.064212665 -0.0041138576 0.0039335648 -0.073140696 -0.04251018 -0.048783332 -0.009587578 -0.08106111 0.08479489 0.11994441 0.053513695 0.04671539 0.04198866 -0.034804862 -0.15996628 -0.09470382 0.028808275 0.10688611 0.13974653 0.054176874 0.027219249 -0.029938776 -0.040280852
ㅓ 0.06529747 0.014893686 -0.043822333 -0.0010495852 -0.025833024 0.14252049 -0.031959586 0.093700565 0.09962304 -0.18766089 0.010316664 -0.07409487 -0.060469516 0.03278855 -0.033220384 0.084079534 -0.049003042 -0.05059807 0.1519464 -0.077037804 -0.13045366 0.008041729 -0.12403026 -0.028722513 0.011867568 -0.024256393 -0.010559086 -0.06100234 -0.047268588 -0.043346513 0.017729767 -0.09037932 0.052076768 -0.06961103 0.03584999 -0.061752155 -0.020815467 0.00016251625 -0.02651706 0.10439768 -0.0501482 -0.038455535 -0.06501688 0.029667202 -0.124221094 0.016423753 -0.090914145 0.086828485 0.006440658 -0.074115396 -0.06977456 0.10526636 -0.15481006 -0.07740837 -0.080822565 -0.02076819 -0.058602616 0.019374147 0.15944393 -0.0907078 -0.046798356 -0.041623455 -0.08205968 -0.067948736 -0.107496366 -0.08556471 0.06965272 0.008423801 0.042279713 -0.08094073 0.041875806 -0.063677855 -0.012138425 -0.13169053 0.09595246 0.037099145 -0.048656415 0.026894467 0.04859796 -0.039180283 -0.057513565 -0.09288478 -0.04727586 -0.05128964 -0.0044471542 0.12124964 0.13801259 0.08254569 -0.057975166 -0.014344981 0.008066881 -0.17796929 -0.0048814756 0.061595015 0.053685296 0.07326294 -0.017198538 0.058443774 -0.10022942 -0.027690748
ㅅ -0.023346893 -0.038698755 0.014223417 0.06186436 -0.013326356 0.083365306 0.047977414 0.044379 0.028079927 -0.024544977 0.0033472371 0.005334744 -0.018730225 0.019259896 -0.04106317 -0.08019187 -0.038693592 -0.023880824 0.10139426 -0.032179892 -0.18803708 -0.07954673 -0.14600065 0.0050865132 -0.057679333 0.0022044089 0.03643644 0.014751179 -0.122214824 -0.028720662 -0.059978276 0.012901256 0.044736292 -0.07986662 0.055571202 -0.045368552 -0.068298966 0.04216776 -0.005996479 0.073850386 -0.026411794 -0.08600141 -0.013905482 0.047505513 -0.045566697 0.009579129 0.012884215 0.023821628 -0.06403211 -0.0844829 -0.104565814 0.124278456 -0.1123138 -0.007353899 0.03253208 -0.058009557 0.029399365 0.0028612576 0.15645334 -0.062836915 -0.09226042 -0.03445547 -0.014659399 -0.019388117 -0.13057548 -0.12451118 0.069422945 0.024380391 0.050397888 -0.025319763 0.033192407 -0.058409378 -0.0035999091 -0.07902615 0.051919777 0.0338102 -0.060083114 0.08743252 -0.06279924 -0.06812436 -0.11387502 -0.055337124 0.001932651 0.04936095 -0.07536186 0.113865554 0.07355491 0.05397305 0.025034394 -0.019568997 -0.043613233 -0.15754098 -0.008898085 -0.039326493 0.10070453 0.112089336 -0.013443424 0.07422786 0.06932108 -0.021466399
ㅗ 0.070431605 -0.049239993 -0.005551836 0.028337242 -0.07641578 0.108539686 0.048716262 0.101470605 0.03500907 -0.042849194 0.0064479206 -0.02544008 -0.08329914 -0.06449738 -0.0135138985 -0.0320477 0.014193524 -0.051801845 0.10360041 -0.09071427 -0.08759709 -0.048080973 -0.17942108 -0.0064364653 0.0069143986 -0.048556264 -0.040822376 0.023154791 -0.10074678 -0.1137261 -0.032737177 0.006956737 0.059090216 -0.06396395 0.012492688 -0.021721637 0.015804661 -0.064808026 -0.06772433 0.11828618 -9.444309e-06 -0.03325229 -0.019154929 0.03984205 -0.058309715 0.055826537 -0.06337772 0.08854093 0.009925093 -0.12667264 -0.10609801 0.07709616 -0.091718234 0.017621113 -0.00746186 -0.011990664 -0.043789264 0.019218387 0.15701716 -0.050067842 -0.020364365 -0.028605249 -0.008550517 -0.01022975 -0.084838904 -0.0824568 0.10049376 -0.04633295 0.037693482 -0.088058405 0.049748883 -0.06920156 0.02082777 -0.07507284 -0.0061249165 0.031805146 -0.018900296 0.07984246 -0.013033083 -0.07596505 0.00452719 -0.09903391 -0.06769207 0.010834017 -0.021079399 0.09639107 0.097019255 0.061452575 -0.033200074 -0.009702992 -0.01602634 -0.11783474 -0.1127595 0.020160401 0.035000104 0.14258972 0.09649846 0.053214617 -0.023028307 -0.0020873155
ㄷ 0.036523014 -0.0479792 0.071994975 0.10052174 -0.0125447875 0.05880213 -0.0007970567 0.0784634 0.03584615 -0.084947474 -0.07660914 -0.008442754 -0.03759986 -0.07865828 -0.089766026 0.10546741 0.01909356 0.0051056147 0.16601725 -0.015542151 -0.17217225 -0.06130673 -0.0884825 0.14546898 -0.057020694 -0.070910744 -0.061117206 -0.0492348 -0.081987575 0.0366676 0.06567384 0.08703117 0.109171405 -0.05894254 0.02829194 0.026694356 -0.07979147 0.08932936 -0.032223847 0.15284982 -0.026471319 0.011254394 -0.041901514 -0.057314433 -0.03185816 -0.0012615211 0.02970669 -0.017506978 -0.07276555 -0.014910524 -0.027404893 0.18215552 -0.1333641 -0.07926866 -0.048005782 -0.09480792 -0.02830594 0.007143721 0.14572886 -0.10689411 -0.10569127 0.020640561 0.0031653207 -0.07695813 -0.062703855 -0.1780692 0.031906974 0.03541516 -0.041209836 -0.07910415 0.098122366 -0.10304097 -0.07044613 -0.13908768 0.006754326 -0.021995578 -0.054583028 -0.0270929 0.05342894 0.00061323214 -0.08648184 -0.1916236 -0.0002377578 -0.064840995 -0.0069387443 0.16201344 0.091305025 0.1017303 0.021097776 -0.06456457 -0.110728055 -0.16602206 -0.030760232 -0.10887756 0.114912406 0.11659026 0.059861973 0.0145040015 0.042400654 0.031612623
ㅈ 0.0035083168 -0.04337014 0.076160386 0.045330536 -0.061834358 0.05607722 -9.467453e-05 0.07630056 0.057821244 -0.07038228 -0.05535894 0.04552543 -0.038455695 0.005580812 -0.025920331 -0.047318056 0.0047242707 -0.031496186 0.11396919 0.052171517 -0.15273911 -0.08146551 -0.066792324 0.03045604 -0.078060225 -0.07284118 0.06985264 0.032550666 -0.059862904 -0.006489449 -0.07945815 0.02827877 0.02890926 -0.1630739 0.020709045 -0.025837006 0.013967937 0.0040005157 0.04658198 0.06406602 -0.0020415224 -0.053661443 -0.09107864 0.026217652 -0.023862304 -0.041743405 -0.01572743 -0.009388521 -0.023702962 -0.13835894 -0.15563029 0.13718331 -0.13730188 0.07159875 -0.014449288 -0.038931504 0.017564002 -0.029389653 0.12756515 -0.081146 -0.11281242 -0.10691291 0.020627411 -0.06497095 -0.15689659 -0.07962941 0.051304363 0.023858791 0.09563245 -0.0705494 -0.0014501425 -0.15151711 0.042184882 -0.07158372 0.07100037 0.035936143 -0.029790662 0.043724388 0.05050472 -0.05646034 -0.04110285 -0.06929942 -0.020140555 0.05098583 -0.077762514 0.014866174 0.10223086 0.05602313 -0.0041194833 0.003692804 -0.079949796 -0.12606569 -0.0047965837 -0.0027684728 0.11378145 0.13415757 -0.03866472 0.09646808 -0.036149476 -0.0016418144
ㅎ -0.028097982 0.03401395 0.013969934 0.029574513 -0.044490512 0.082398534 0.047274265 0.04699672 0.07270535 -0.021358151 -0.021503842 -0.045855694 -0.007138885 -0.16937831 -0.061659493 0.08267747 0.06700319 -0.10310225 0.12114039 -0.055353608 -0.14467144 0.031076325 -0.07207078 0.02786688 0.012884116 -0.06454705 0.03252492 -0.0036942824 -0.046244293 0.047865108 -5.703047e-05 0.15493868 -0.0074599544 -0.041940674 0.023550488 -0.05395504 -0.0076439083 0.06776633 0.03386035 0.07719547 0.0034786568 -0.053408958 -0.077691644 0.02564373 0.061114445 -0.024466796 0.023500303 0.0718422 0.027774353 -0.07296817 -0.055245046 0.1551894 -0.13716346 -0.025399659 -0.01207333 -0.081455186 0.012917096 0.06267962 0.28722566 -0.20932491 -0.07183869 0.014585835 0.05972546 -0.062853426 -0.07702133 -0.12687327 0.02613753 -0.08744742 0.05027373 -0.047307532 0.015682705 -0.095124036 -0.00070069544 -0.058905162 0.0431972 -0.036872115 -0.051294807 0.07446405 0.02537867 -0.06237237 0.010122699 -0.10543389 -0.047027588 0.002135728 -0.057969045 0.1328125 0.15480036 0.024775334 -0.042896874 0.063043915 -0.04891053 -0.08852777 -0.111427724 -0.037609484 0.05429561 0.16027156 0.041200943 0.0009267945 0.011889091 -0.04327284
ㅁ -0.019309806 -0.053714536 0.05347092 0.0055752173 -0.0046892655 0.08261785 0.08439508 -0.062039424 0.10333294 -0.028319854 -0.07424311 0.0061252 -0.059849348 0.00560783 0.023651931 0.04553789 0.055223007 -0.022509135 0.11619578 -0.051030304 -0.13531035 -0.14694388 -0.138186 0.029804045 -0.09115126 -0.0932351 -0.012490638 -0.06733706 -0.026504833 -0.08823997 0.0016220231 0.053229887 0.02664302 -0.042077236 0.028134745 -0.04506581 -0.040923692 -0.08394636 0.017894167 0.10704734 0.05069782 -0.04953762 -0.023578465 0.11020606 -0.05434412 0.004606065 -0.006483119 0.047239505 -0.046050895 -0.06327316 -0.11160705 0.101874456 -0.06908752 0.09082395 -0.056612827 -0.03617151 -0.023081508 0.023538183 0.12996458 0.020209668 -0.022670588 -0.027181026 0.061122112 -0.040418606 -0.09770589 -0.08974336 0.018019862 0.03638475 0.11151932 -0.09945976 0.05256262 -0.12542048 0.011684503 -0.07816428 0.045950785 0.06849879 -0.106829494 0.12318781 0.064173035 -0.07869679 -0.04552208 -0.09691634 0.013086577 0.03300655 -0.051838923 0.04800439 0.16295075 0.05339686 0.010676498 0.04301241 -0.019699354 -0.11202261 -0.03202021 0.0015416451 0.12233326 0.11409599 0.038571637 0.09542514 0.004375124 -0.037625745
ㅜ -0.038312618 0.026398094 0.07918215 0.0542913 -0.072730824 0.06894141 -0.022532303 0.08902837 0.085460216 -0.1342924 -0.026368482 -0.080332816 -0.041143365 -0.026241675 -0.0028307964 -0.0647976 -0.010190829 -0.08809939 0.09231866 -0.06652206 -0.112046026 -0.09346551 -0.105168685 0.029346537 -0.014436474 -0.06899568 0.048468657 0.0325294 -0.074035674 -0.04945956 -0.024747752 -0.009843506 0.005103834 -0.10910562 0.026852753 -0.09489584 -0.004147955 -0.04957092 -0.08100155 0.0798741 -0.026020147 -0.030630857 -0.0017604167 -0.026388744 -0.08398784 0.06348436 -0.10407247 0.06759481 -0.043219537 -0.14994371 -0.101609945 0.111623034 -0.116751306 -0.03619542 -0.072749406 -0.1147893 -0.07076256 0.021958312 0.23333123 -0.015479483 -0.01595984 -0.038580917 -0.024273157 -0.050882276 -0.14727037 0.0027430565 0.03037478 -0.022555595 0.06300622 -0.09519141 0.010769142 -0.10331324 -0.014523902 -0.12369746 0.06322528 0.027842073 -0.03502038 0.09120415 0.0020957235 -0.09975539 0.019590085 -0.042900063 -0.023022007 -0.013299823 -0.015889097 0.022497524 0.11358469 0.12351176 -0.10013639 0.026236681 -0.08512098 -0.0680041 0.00075991685 -0.018130489 0.029626302 0.049578097 -0.035627212 0.008039607 -0.012410537 -0.013275571
ㅂ -0.08073717 0.0026392164 -0.00186705 0.015074493 -0.030976932 0.10218769 0.06271218 0.0127151515 0.01933884 -0.07467431 -0.030414056 0.018733012 -0.028885964 0.019218538 0.06591947 0.016035696 0.08224549 -0.005698176 0.17449845 -0.06119068 -0.17225601 -0.057073638 -0.035757087 -0.026073262 0.0009807879 -0.024920562 0.025137251 0.00610256 -0.065628216 -0.016876321 0.014928461 -0.0069914246 -0.0058212737 -0.07092907 0.047214285 -0.005506271 -0.013118192 -0.006697892 0.033003774 0.085604206 -0.014769711 -0.08776091 -0.056045122 0.0964589 -0.052155826 -0.005365731 0.00597689 0.03206249 0.0015358308 -0.12074709 -0.11865665 0.048937097 -0.057340793 0.0030059977 -0.01844301 -0.1277465 -0.022887869 -0.022857117 0.15854402 -0.09491427 -0.04400851 -0.087589145 0.06614139 0.003093966 -0.09001166 -0.056973986 0.09596476 0.025489401 0.04517288 -0.019205216 0.00497963 -0.031741265 -0.008792672 -0.07920037 0.0108211655 -0.00039939914 -0.109042175 0.049584895 -0.04680793 -0.07567805 -0.032531653 -0.14915906 -0.036709994 0.032692607 -0.049976937 0.1255899 0.14665742 0.09784942 -0.007794261 0.071880445 -0.06063403 -0.10253653 0.029957937 -0.03626936 0.09409828 0.21548843 -0.019530933 0.105618164 0.032453924 0.006425556
ㅔ -0.09839882 0.05327108 0.0353584 -0.0089104315 -0.007948038 0.045183737 0.06395872 0.03879075 -0.006797229 -0.08944663 0.009938409 0.035314362 -0.08548501 -0.04086892 0.04556709 0.024891756 -0.015048429 -0.07965798 0.01372716 -0.034750614 -0.014692066 -0.0027184407 -0.17049247 0.014195914 -0.039879937 -0.09381163 0.023064278 0.018036552 -0.014117831 -0.10561384 -0.02131125 -0.00018548919 0.022844713 -0.1206507 0.01002722 -0.09435054 -0.021879094 -0.052667335 -0.029381823 0.15217413 0.02909102 -0.0621748 -0.041210018 0.09735441 -0.11933142 -0.033917677 -0.09849531 0.074507475 0.03457014 -0.14199486 -0.09763731 0.04477941 -0.1198714 -0.002171607 -0.00966764 -0.05962446 0.018099386 -0.032103423 0.14470147 0.01550639 -0.008468537 0.03589216 -0.100717865 -0.016452115 -0.13935304 -0.051624537 0.07146631 -0.0024334216 0.06496793 -0.05345028 -0.024956899 -0.0635886 0.006761002 -0.095352046 0.043000408 0.044935513 -0.02005606 0.10758348 -0.045414712 -0.05720228 -0.030927189 -0.014576273 0.041625362 -0.05259403 -0.046558328 0.11460656 0.096821375 0.072530486 -0.0049913526 -0.02556058 -0.08545416 -0.14218101 -0.033393204 0.03074342 0.054955166 0.09378506 0.08749315 0.10793643 0.026449969 -0.008845454
ㅕ 0.0030859092 -0.02059973 0.067971125 0.039285984 -0.04748837 0.057005987 -0.031818967 0.043523397 0.042459402 -0.08000352 -0.07568166 -0.0019253744 -0.052952554 -0.02174049 -0.025410973 -0.15855826 0.11802391 -0.024942342 0.051668666 0.0064371247 -0.042599186 -0.16567396 -0.15937008 -0.010747966 -0.029257294 -0.11386201 0.03911365 0.034681708 -0.081179254 -0.059066236 -0.060228843 0.037156917 0.02140558 -0.02927288 -0.043164168 -0.104771376 0.04800025 0.080982655 -0.018279744 0.10977286 0.044353943 -0.05942358 -0.054654904 -0.0072073825 -0.045562834 0.008549047 -0.17297629 0.05482958 -0.035044875 -0.14397147 -0.19605725 0.08642195 -0.17721115 -0.031480044 -0.05630188 0.013648319 -0.020376284 0.061574057 0.18329392 0.05162088 0.009155627 0.022269148 0.008761998 0.040257413 -0.104182065 -0.12421749 0.071310066 -0.10137227 0.004931041 -0.021976065 -0.094965376 -0.06519613 -0.01593189 -0.06987404 0.008985019 0.025434388 -0.16379133 0.06260809 0.009057537 -0.18784766 -0.0072015473 -0.06500525 -0.11235149 0.020822033 -0.006132032 0.07037692 0.06401892 0.03221914 -0.016333181 0.043838456 -0.11667794 -0.0839354 -0.02181977 -0.09528663 0.02573657 -0.0045541706 0.0128217675 0.029040013 0.007718899 0.05462304
ㅐ -0.057882056 -0.014303077 -0.0063003907 -0.0042964634 -0.008989102 0.1138684 -0.010596667 0.122531444 0.036993064 -0.06360851 -0.017418684 0.013011021 -0.08992791 -0.032286905 0.03325565 -0.027295161 0.009046713 0.038381867 0.047377042 -0.15108809 -0.0076438077 -0.07019164 -0.20675169 -0.013498682 0.023512926 -0.040027123 0.030648947 -0.008652644 0.013546683 -0.10731815 0.008573028 0.08214933 0.062599294 -0.07789522 0.024937741 -0.06085666 0.045466583 -0.050109815 -0.043444704 0.07948652 0.010354207 -0.049770996 -0.040379 0.071579054 -0.12639768 0.06218238 -0.078299165 -0.0011952979 -0.034208048 -0.2003446 -0.12574735 0.08480376 -0.10980904 -0.009420815 -0.027442707 -0.078563824 -0.033419564 0.07999385 0.19776966 0.021981306 -0.007371092 0.009761855 0.035738572 0.06556926 -0.051220898 -0.0926223 0.05721221 -0.08668123 0.044583034 -0.08464105 -0.06950752 -0.041771445 0.03718433 -0.03975105 0.035939574 0.0050636274 -0.015989069 0.061396487 -0.053915657 -0.16800585 -0.011007328 -0.067406476 0.028796703 -0.02349196 -0.049285974 0.085567005 0.14517666 0.13071643 0.005992095 -0.009101495 0.0020395694 -0.08253822 0.0011378145 0.010296912 0.022177149 0.13501462 0.067307055 0.11651223 -0.06189676 0.029753892
ㅊ -0.060038526 -0.009801351 0.064052895 -0.007407924 -0.060902096 0.1297656 0.0034383875 0.08333529 -0.0038947007 -0.043784656 -0.052545123 0.05006653 0.021469612 0.036962222 -0.057820767 -0.08096272 -0.068451524 -0.08802377 0.109683566 -0.053054105 -0.1372379 -0.08509034 -0.03889374 0.01845657 -0.016145006 -0.065235004 0.08594903 0.08283959 -0.03330955 0.038080543 -0.05840826 0.06675949 -0.033556998 -0.19641306 0.040928163 -0.12264663 -0.043352798 -0.009521252 -0.059513003 0.09747277 0.004680859 -0.14451537 -0.028991561 0.11440312 -0.06855529 -0.034418948 -0.019660002 0.006850633 -0.044579506 -0.12250283 -0.06344974 0.13584334 -0.1350087 -0.0008577942 -0.07000002 -0.08124518 -0.034218013 0.0045571174 0.22637153 -0.040997826 -0.10819456 -0.027746318 0.011081804 0.010363898 -0.10744133 -0.071625486 0.11142653 -0.07508667 -0.004700876 -0.053930927 -0.015339016 -0.05221844 -0.0009740833 -0.040953435 -0.036708638 -0.008989378 0.022760611 0.049167708 -0.06794005 -0.05651114 -0.10164113 -0.13268037 -0.025443202 0.02223857 0.0062496457 0.09223878 0.058232307 0.05077082 0.06706626 0.00019654632 -0.09528731 -0.14949979 0.007461674 -0.04690783 0.035261463 0.12982318 -0.018206632 0.046534874 0.038094804 0.063739635
ㅆ 0.1653593 0.04149027 -0.051493116 -0.056489903 0.017985977 0.14178678 0.025828732 0.07662274 0.0822564 0.030146545 0.030098971 -0.047742493 -0.12529956 -0.046576474 -0.022019818 0.18880577 0.038034048 -0.0471602 0.17197298 -0.24918681 -0.2927553 -0.068509325 -0.19866036 0.048684824 -0.0043160664 0.067320935 -0.03424781 -0.09267275 -0.1902224 0.08909381 -0.019964395 0.14676625 0.1762391 -0.05907001 -0.06513524 0.081006974 -0.05885644 0.02477534 -0.11738917 -0.05935651 0.0005982199 0.001536319 -0.12972252 0.051923763 -0.06602444 -0.03739878 0.01639543 -0.03179598 -0.019481517 -0.17791952 -0.094914645 0.1238417 -0.13074268 0.054443445 -0.07023691 -0.08159171 0.08463919 -0.07961688 0.017611999 0.05526143 -0.05912991 0.11168038 0.059541006 -0.101929866 -0.19816087 -0.08827941 0.08407129 0.0629682 0.0012052935 0.013612009 -0.009347146 -0.093778715 0.031195398 -0.145054 0.13180086 -0.013046231 0.047790196 0.10040992 -0.07081804 0.07355046 -0.03419754 -0.21053317 0.06602486 -0.06465319 0.019708963 0.062508196 -0.011472153 0.1695595 -0.08448748 0.08489766 0.021750746 -0.15672882 0.07313004 -0.19935398 0.24351004 0.119462416 0.043077435 -0.015418765 -0.19472057 -0.020599062
. 0.14312594 -0.010982856 0.14017072 0.29704154 0.1708771 0.13217953 0.1623245 0.25237265 -0.005477975 0.06441461 0.14940375 -0.044054966 -0.18088631 -0.011178149 -0.033502422 0.053153783 -0.20589451 -0.0014810208 0.058573443 0.010666186 -0.19821434 -0.11790676 -0.22043765 -0.011439284 -0.10137128 -0.04922094 -0.16593644 -0.056587216 -0.22552364 0.015856327 0.13139015 -0.17785537 -0.06367321 0.094911955 0.19770072 -0.027125139 0.23712207 0.3022669 0.016663417 -0.23016432 -0.122114986 -0.14786786 -0.18707252 0.16728023 0.12565123 -0.08688701 0.07008078 0.047704063 0.15250647 -0.13644567 -0.18167906 0.08283418 -0.110813744 0.014644313 -0.17311025 0.20623545 -0.030431353 -0.12709543 -0.21393812 0.07927582 -0.050276116 0.2318394 0.04039205 0.20321503 0.03156175 -0.20903094 0.34516683 0.04081314 -0.02051397 -0.22714798 -0.1334919 -0.21931025 0.07933352 -0.19086178 0.040788203 0.0390361 -0.13450962 0.11788254 0.036409672 -0.08780643 0.21201815 -0.1561898 0.23475309 -0.033861626 -0.13324133 0.28772736 0.27257127 0.16695414 -0.18513829 0.14505377 0.030789062 -0.21299957 -0.10260513 0.029343812 0.17340167 0.27097428 0.14062028 -0.08549622 -0.04537573 0.13092145
ㅌ -0.03150247 0.017769223 0.07740661 0.043465275 -0.060569562 0.099462576 -0.004284789 0.011208622 -0.029692896 -0.07210092 -0.20921767 0.096597604 -0.00030434062 -0.07467886 -0.021809086 -0.15049934 0.0040385122 -0.093889505 0.047739632 -0.10452212 -0.097795494 0.03741306 -0.11930269 0.054126177 -0.117916815 0.0336622 0.0008046343 -0.024751794 -0.057373777 -0.09747256 -0.07340535 -0.0037029795 0.023284335 -0.079349704 0.09212141 -0.03950477 -0.074072674 0.034596264 -0.0072355177 0.06385571 0.046835672 -0.071106926 0.0049668513 0.0038201218 -0.078902304 0.028507583 -0.06982506 0.12187889 0.122146 -0.03784167 -0.21424483 0.08819173 -0.085474454 0.10143058 0.016402416 -0.094111316 -0.021583159 -0.018999234 0.18363824 -0.04542399 -0.027241262 -0.053442232 0.012655666 -0.016452229 -0.062297665 -0.17860857 0.11867999 0.029971529 0.04226134 -0.052835327 -0.037046902 -0.007678164 -0.08320075 -0.055396087 0.034628633 0.06948632 -0.07651626 0.08317299 -0.077325806 -0.039506756 -0.06958081 -0.084893875 0.05479883 0.03503785 -0.077423684 0.15394638 0.08569195 0.08781088 0.04770849 -0.004864439 -0.111522056 -0.11218481 -0.015069951 0.035279486 0.011888031 0.13543805 -0.11934336 0.10121949 0.00050180475 0.06495816
ㅢ -0.040663056 0.021870155 -0.043844804 -0.0061224373 -0.10055119 0.1085552 -0.16185896 0.13842931 -0.009444108 -0.02662351 -0.041342117 -0.016156893 -0.019163989 -0.13100755 -0.021261536 0.053245597 -0.069400966 -0.06687576 0.015499281 -0.022538744 -0.034553304 0.0049113687 -0.041931435 0.0042478517 -0.09848218 -0.08384144 0.21939468 0.09415978 -0.026944488 -0.11454387 -0.07390411 0.022629555 -0.02925223 -0.010432831 0.064802274 -0.16246864 0.010377201 -0.0104962345 -0.0013722489 0.19968018 -0.029669233 -0.061920494 0.00624906 0.124356225 -0.034239482 -0.066706344 -0.13202581 0.052419137 0.016232023 -0.10395726 -0.04492191 -0.008445383 -0.15262857 0.019478513 -0.04430302 0.044504136 -0.0811869 0.057782795 0.16781352 -0.04919239 0.024021123 -0.084820725 0.02081576 -0.017111324 -0.2062053 -0.13264331 0.05855416 -0.047188163 0.105712295 0.06460902 0.025230523 -0.016753936 0.09385248 0.083210245 0.10939316 0.04829695 0.060324833 -0.00047290372 -0.054157503 0.0075839306 0.00521937 0.0029208024 -0.012687279 0.014589805 -0.045265023 0.081720844 0.12576205 0.09065402 -0.0033988473 0.061906964 -0.06791516 -0.012583432 -0.01775049 -0.14465223 0.11445459 0.14997777 -0.059095033 0.13588834 0.11138645 0.025732044
ㅘ -0.046027713 -0.054806635 0.011979317 0.0794556 -0.13779461 0.06770636 0.04621847 0.04864026 0.031930663 -0.060882747 -0.002808482 0.0027083869 -0.01935235 -0.12495202 -0.008934067 -0.105419494 -0.08018932 0.0033763438 -0.014742752 -0.050640825 -0.0775005 -0.0027570194 -0.010925051 0.010691041 -0.016976023 -0.14164048 0.110586196 0.03810793 -0.06462573 -0.027107041 0.051968582 0.10915871 0.033893522 -0.08699363 -0.06339328 -0.07691644 -0.045820054 0.031344697 0.069094345 0.11758783 0.04485036 -0.053098954 -0.006228772 0.03886554 -0.063322075 0.07754641 -0.2021374 0.124788165 -0.07995868 -0.14619876 -0.098743625 0.080152385 -0.09560469 -0.012613304 -0.0043205977 -0.062263515 -0.018790893 0.04336908 0.21973327 -0.005620582 -0.06236106 -0.099143736 -0.009740742 -0.024957653 -0.16987856 -0.10909227 0.06601769 -0.067165904 0.052550234 -0.03550018 -0.0654863 0.022353986 0.13672565 0.0173283 -0.0009729946 0.0416182 -0.060756754 0.12237884 -0.037148602 -0.118050694 -0.0406321 -0.017685411 -0.058888815 0.06509091 -0.07655225 -0.07209103 0.15462951 0.03555087 -0.054781534 0.09353513 -0.11003006 -0.029569285 -0.007140055 -0.15065357 0.07120592 0.2651654 -0.15272875 0.090988636 0.09939609 -0.1005821
ㅍ -0.0039290274 -0.0754338 0.11127633 -0.06405356 -0.03396679 0.16030629 0.101667464 0.10671791 -0.031377934 -0.0021138221 -0.18662259 -0.003302045 0.00305768 -0.1416333 -0.1663543 -0.0991484 0.033382 0.010514533 0.080976166 -0.10500079 -0.080354586 -0.09305917 -0.100499965 -0.011675593 -0.086087845 0.01162055 0.06610638 -0.17569345 -0.04556873 -0.11589606 0.022510134 -0.054405972 0.036629714 -0.08571816 0.07429754 -0.07457151 -0.0444839 -0.06402614 -0.06371719 0.050828107 0.08340153 -0.10986912 0.057197906 0.09293372 -0.057126973 0.021191644 0.013787903 0.14783482 0.06406139 -0.08973545 -0.04770211 0.03283755 -0.048993174 0.12057701 0.015526288 -0.10002221 0.048001893 0.08518476 0.17375179 -0.002059036 -0.056079816 -0.055966243 0.07369412 -0.035600163 -0.037088327 -0.13472205 0.09182427 -0.06294331 0.054935772 -0.07005762 -0.046435386 -0.064613745 -0.08391669 -0.16071053 0.068158984 0.016076349 -0.11494902 0.035028763 -0.069158554 -0.13895097 -0.034061395 -0.08439123 0.012357323 0.12984374 -0.026394702 0.071790576 0.14681417 0.15500256 0.07179002 -0.002177674 -0.023929346 -0.078704074 -0.023217842 -0.025063436 0.027583713 0.17819837 -0.050575845 0.04661705 0.103588745 -0.022848062
ㅚ 0.049204208 -0.008874222 0.05672275 0.007432936 0.008507401 0.1541619 0.09897684 0.17076674 0.0361396 -0.11569298 0.039994475 -0.11017933 -0.056980856 -0.12713799 -0.05982045 0.056726694 -0.028734218 0.11629179 -0.019908745 0.09504861 -0.15808879 -0.01975254 -0.11459867 -0.04600153 0.0889398 -0.10217089 0.067820616 -0.10807049 -0.08465734 -0.083276 0.13203909 0.093629554 0.07417139 -0.24698856 -0.011884853 -0.04092332 -0.044839736 0.018761061 0.02512534 -0.033369586 0.046056673 -0.039250165 -0.06612015 0.06668511 -0.14172678 0.07823568 -0.013634501 0.0108049605 -0.18479347 -0.23422968 -0.12586753 0.11666391 -0.10794743 -0.08361453 0.026201995 -0.053216767 -0.025984513 0.043981303 0.17983466 -0.007954041 -0.13029324 -0.021930385 -0.04581113 -0.010871693 -0.10981719 -0.0015493392 0.062367838 -0.0011173646 0.107815675 0.015709225 -0.015486853 -0.14442623 0.06331881 -0.013859779 0.1059262 -0.038943484 -0.14635073 -0.061364774 -0.14807737 -0.10933192 0.095890984 -0.19027892 -0.029452916 -0.056908846 -0.06344814 0.07886481 0.064572334 -0.06291136 -0.05115899 0.1172373 0.04736306 -0.08105646 -0.030226355 -0.02437231 -0.04657371 0.05927967 0.035734206 0.1431823 0.07270846 0.05554621
, -0.022921085 -0.0109673785 0.011860029 0.10938612 -0.022112798 0.037814725 0.00074221776 -0.010619055 -0.11536305 0.010352737 -0.032899216 0.07754767 0.23354322 -0.021170398 -0.0033099125 -0.029930286 0.019286398 -0.17148253 0.01915726 -0.073335335 0.027517246 0.011116868 -0.1831246 -0.04819752 -0.015254695 -0.118072666 0.16503416 0.082589425 -0.015872903 -0.11934885 0.042053066 0.108581014 -0.08342855 -0.08389555 0.12817165 -0.061514914 0.037468493 -0.118714765 -0.035394497 0.0495067 -0.05692692 -0.046962805 0.023963954 0.06205312 -0.12004195 -0.009038677 -0.13028473 0.027514782 -0.012008436 -0.08628918 -0.08888558 -0.10445569 -0.17867765 -0.08682577 -0.023064129 0.07387475 -0.115990706 0.08227858 0.011850832 0.053369254 -0.011403533 -0.04594477 -0.012598532 -0.033425957 -0.009476937 -0.09125328 -0.08477255 -0.02274887 0.07458118 -0.029256064 0.00627406 -0.05782903 0.10373645 -0.1263842 0.092026055 -0.025599943 -0.01575328 0.03560095 0.088265754 -0.0965866 0.03852344 0.025492618 0.06353281 0.07199528 -0.09864562 0.17133285 0.09731354 0.010299413 -0.12631619 0.1398841 -0.1405684 -0.17177084 0.000121515244 0.038495664 0.026940938 0.08110171 -0.0061985287 0.07660175 0.13257585 0.017100785
ㅛ 0.13296025 -0.0060299244 0.016004957 0.16470782 -0.16822667 0.11247893 -0.11129914 0.11160916 0.016581904 0.08938327 -0.15169212 0.06102507 -0.03482969 -0.037007928 0.057868198 0.045359876 -0.050128672 0.12116413 0.052299414 -0.03838549 -0.02897532 0.011348266 -0.12002626 -0.037703235 -0.0022091013 -0.16329952 -0.13422921 0.14337927 -0.12748793 -0.13310105 -0.0037756427 0.07926724 0.043013312 0.006321934 0.13450682 -0.023091024 0.006706151 0.02360391 0.046923228 0.05863334 0.10818248 -0.035373963 -0.13808359 0.074748985 -0.112892106 -0.085067764 -0.10838641 0.038687743 -0.090639025 -0.11513557 -0.13086142 0.17617057 -0.04770068 -0.049273666 -0.00633418 -0.051701784 -0.07371924 0.0157372 0.299721 0.051891193 0.020559188 0.051476173 0.023911368 -0.04236103 -0.10196451 -0.027708415 -0.012264789 0.00047260913 0.07046962 0.11243864 -0.051178984 -0.01162757 0.0010794151 -0.016240316 0.025763175 0.0047595273 -0.08453453 0.06971315 -0.05616993 -0.21039039 -0.084279485 -0.024872884 -0.11274345 0.08994726 0.072159365 0.14661554 0.14878933 0.031359658 0.08924397 0.13023588 -0.037025884 -0.101366505 0.0030225904 -0.11730297 0.042477302 0.13463165 0.021002645 0.0029217806 0.14050007 -0.06637645
ㅝ -0.19984348 -0.21316859 0.0828569 -0.11162337 -0.06851459 0.00911065 0.034647584 0.10323528 0.07655125 -0.16942045 -0.02905292 -0.013856633 -0.1431684 0.03601669 -0.080223046 0.030983616 0.18207996 0.004882706 -0.052109692 0.062230505 -0.0048844265 -0.16467713 -0.018484784 -0.081964016 0.11469101 -0.08457365 0.10591348 0.11190775 0.041477334 0.045561023 0.05148626 0.020978022 -0.05164701 -0.06871297 -0.042600058 -0.0997233 -0.009988207 0.076422125 -0.071184866 0.14050916 -0.0099627795 -0.24229208 -0.09081866 0.022195427 -0.032600585 0.015751494 -0.122564025 0.07156429 0.06869603 -0.14362788 -0.22473025 0.10921422 -0.064342454 0.060253236 -0.027598754 -0.015047078 -0.09546226 0.06006674 0.14427413 -0.028532444 0.11498833 0.02454889 -0.0012382362 0.011144837 -0.0435899 -0.081060655 0.12400278 -0.038745172 0.027739832 -0.038477924 -0.24664855 -0.16738605 -0.024671013 -0.045707118 0.03131231 -0.041489303 -0.09147462 -0.02899351 -0.096063115 -0.124627404 -0.004155874 -0.081121475 -0.03130953 0.14279307 -0.09987303 0.1504702 0.09306879 -0.06259319 -0.002631296 0.0007182761 -0.18456331 -0.093977414 0.056134485 -0.10729432 0.014031851 0.006533877 -0.09913872 -0.062065102 0.0014446153 0.088287376
1 -0.123621196 -0.10902183 -0.019735878 0.036086217 0.028354146 0.033075865 0.11349579 0.14321509 -0.0343725 -0.11079511 -0.00092363823 0.073339164 0.092439644 0.018679444 -0.061826944 -0.057319164 0.20200863 0.063888244 0.12886763 -0.10071519 -0.1512406 -0.17765449 0.11866448 0.024818059 0.01652403 -0.103324175 0.04631399 0.1064906 -0.064190194 -0.049686715 0.045658715 0.047776226 -0.01392689 -0.14007214 -0.16760701 -0.16618465 0.048733406 -0.011381176 0.062267408 0.1942482 -0.06461218 -0.25297555 -0.102922715 0.11077997 -0.059558675 -0.1413347 -0.093621165 0.1036727 0.10362155 -0.1278547 -0.20247844 0.124682985 0.066065334 0.22779897 0.019301997 -0.031699117 -0.137432 0.08282954 -0.027504558 0.15527926 0.048844557 0.078126274 0.055790536 0.11520625 0.15755592 -0.050474633 -0.0034171017 -0.036566615 -0.0077893995 0.042100504 -0.0892926 -0.05009677 -0.12011093 -0.12001927 0.03588106 -0.10914932 -0.06579942 -0.13441113 -0.036819424 -0.11037222 0.1451147 -0.024591306 0.0023728006 0.09625112 0.019419836 0.24389917 0.04747485 -0.033777967 -0.07075919 0.17256412 -0.0800859 -0.14302887 -0.005071039 0.008145063 -0.10849296 -0.02249584 -0.13814582 0.09700074 -0.039156046 0.32711858
ㅋ 0.02771593 0.12019962 0.061856627 -0.0036492778 0.055452753 0.06897039 0.03574607 0.0047224932 -0.051694047 -0.010748329 -0.16343349 0.089056805 -0.005487607 -0.09162302 -0.038613427 -0.090126544 -0.08228475 -0.11524337 0.03396843 -0.08455682 -0.15229994 -0.13233137 -0.18331753 -0.0803956 -0.1558028 0.056365438 0.05330394 -0.10789295 -0.18586843 -0.13522814 -0.16060835 -0.040312473 0.024928011 -0.04174834 0.090847865 -0.14705181 -0.051567707 0.0015433689 -0.02867977 0.04270558 0.034065045 -0.12709945 0.06551714 0.076054536 -0.011693871 -0.0024384507 0.007641145 0.15218095 0.088309005 -0.05526046 -0.22740273 0.04414761 0.12142133 0.13663177 0.08623023 -0.17310211 -0.070617005 0.03216384 0.2391324 -0.003042186 -0.0055756564 -0.051000766 0.07934639 -0.11183568 -0.10642103 -0.15781437 0.04767948 0.13169183 0.06709023 -0.05890024 0.019535592 -0.014956615 -0.15723695 -0.14244477 -4.4405286e-05 0.08700851 -0.02054454 0.10672382 -0.16241619 -0.10041364 -0.17020158 -0.028248595 0.03678929 0.16812313 0.06480205 0.19348639 0.17166917 0.058409072 0.051973067 -0.012483699 -0.12515336 -0.085468486 -0.05893451 0.072256595 -0.05738472 0.020810582 -0.010241288 0.14828959 0.11096699 0.17666368
0 -0.0687236 -0.15335965 -0.00037322752 -0.04181201 -0.1019131 -0.036269665 0.21395946 0.104170695 -0.10183997 -0.022557884 -0.13653418 0.0058167 0.20826487 -0.041087247 -0.1675235 -0.17136683 0.2750039 -0.040413503 0.07287869 -0.16483356 -0.11356886 -0.19923697 0.06965216 0.03582981 0.0744774 -0.18522644 0.0702813 -0.027358564 -0.1126878 0.05444632 0.043901555 0.1268427 0.0137484595 0.00944552 -0.23805702 -0.2143474 -0.009458561 -0.0034631048 0.071064845 0.16907012 -0.045021303 -0.19826306 -0.08049779 0.08373452 -0.025916344 -0.17376006 -0.12505355 0.093057714 0.15981199 -0.14952599 -0.07390101 0.16570711 0.1411597 0.23611134 -0.008283755 0.1878477 -0.22434099 0.053225163 0.002147928 0.20149554 0.096156046 0.055527028 0.09014071 0.19010827 0.15237796 0.046745904 -0.029406253 -0.07160774 0.16600913 -0.062444247 -0.20293319 -0.102418505 -0.029594379 -0.14485021 0.13248362 -0.19454587 -0.21830778 -0.12093585 -0.006863664 -0.09793307 0.18102738 0.05931768 0.095848665 -0.024653312 -0.007984875 0.34721735 -0.029992871 -0.17546742 -0.15264837 0.19751567 -0.06980527 -0.15008281 0.16397086 -0.024692204 -0.09213416 0.0004939047 -0.122061595 0.12242848 -0.15068085 0.29669127
2 -0.13702558 -0.11069689 -0.01662114 -0.0061641554 -0.084883675 0.04825962 0.058830738 0.109820694 -0.06392084 -0.064527795 -0.1522061 0.098525 0.053600594 -0.021163244 -0.056081213 -0.1159994 0.266289 0.0641884 0.19612697 -0.058662187 -0.093121864 -0.17636937 0.1436169 0.027754063 0.045675278 -0.14370784 0.026629036 0.04760955 -0.08837566 -0.08914841 0.060076483 0.03206294 -0.038120512 -0.07747916 -0.095938735 -0.15728815 0.059754293 -0.018213067 0.0688442 0.17043014 -0.062030457 -0.15567388 -0.15292299 0.09628378 -0.050463594 -0.03269148 -0.1114527 0.06678314 0.13457566 -0.2000763 -0.040321756 0.1783015 0.16771382 0.13182545 0.056657325 -0.06776242 -0.13916184 0.06400114 -0.04839478 0.12507352 0.11288989 0.08649469 0.025669757 0.14360817 0.1495651 -0.039438967 0.0017451221 0.010307782 0.085735984 -0.00786275 -0.18522307 -0.17642248 -0.09511419 -0.059691183 0.086554 -0.12928294 -0.064467505 0.0038734917 -0.028822439 -0.1384798 0.12929672 0.04942756 0.017363735 0.03579264 0.09680974 0.35353068 0.011496425 -0.013766072 -0.018403014 0.06258755 -0.06809409 -0.14574906 0.02851735 -0.0441174 -0.004153389 -0.031104255 -0.060653098 0.17902061 -0.024701852 0.37543514
ㅠ -0.029008992 -0.08181455 -0.023554834 0.10501051 -0.14543991 0.15580547 -0.002431488 0.22585851 -0.060622536 -0.0012083056 -0.03749199 -0.056343623 -0.032471374 -0.1724884 -0.092193745 -0.08085958 -0.020695578 0.014566517 0.08843866 -0.016089123 -0.11208793 -0.1000899 -0.08667381 -0.08527223 0.035471596 0.022906695 0.07646369 0.077577755 -0.03722818 -0.08781879 0.062985495 0.058167942 0.004165249 -0.07542076 0.045328204 -0.067699164 0.019735867 -0.07884308 -0.100359336 0.18238309 0.10196879 -0.08295457 0.05172938 0.011707282 -0.14470178 -0.097186916 -0.08079196 0.03742405 0.0936296 -0.09290037 -0.17962092 0.08310967 -0.06224427 0.009904396 0.008062888 -0.104978494 -0.011939235 0.0400953 0.18083172 0.061930183 0.005837314 -0.076271296 0.030506931 -0.10306974 -0.007312528 -0.10162338 0.055681694 0.022828719 -0.050700717 0.057733428 -0.140766 -0.09937261 -0.036846098 -0.030921316 0.020093827 -0.020840485 -0.053131357 -0.06350161 -0.046653293 -0.17417993 -0.11748653 0.006763343 -0.050186515 0.23942925 -0.07241522 0.0969628 0.16111211 0.063945144 -0.021252882 0.113895595 -0.10194926 -0.053421333 0.085408226 -0.09280316 0.0029855752 0.10287286 -0.1421618 0.0059771156 0.14406124 -0.08828655
ㅟ -0.061958402 -0.09262969 -0.0415921 0.025929026 -0.038305484 0.013379107 -0.04560718 0.10105944 -0.017914314 -0.045107927 -0.041921683 -0.05854145 -0.09575595 -0.044175666 0.020453803 0.029785432 0.0071150973 0.07208624 -0.07012179 -0.044939492 -0.17129126 -0.016794015 -0.02527972 -0.021659492 -0.089222476 0.050020568 -0.03479072 0.12353957 -0.061728723 -0.086711146 0.08389271 0.02305054 -0.011547674 -0.1804044 -0.047326766 -0.20041203 0.09267589 0.08738658 -0.013003999 0.2360292 -0.018176291 -0.10885452 -0.05590877 0.043533124 -0.15317436 0.09152766 -0.1911567 0.098474644 -0.08861876 -0.22956125 -0.2218319 0.12061692 -0.15175362 0.07143823 -0.0061922814 -0.063376434 -0.045051612 0.026538996 0.15770197 0.07598373 0.026948608 -0.06952073 0.021721484 -0.021581527 -0.07010516 -0.16907097 0.1297432 0.0335833 -0.038193736 -0.03354674 0.11361534 -0.12547436 -0.00020827446 -0.08837082 0.0592709 0.0352916 0.015327057 0.08170437 -0.023277486 0.029116914 0.048623748 -0.027945688 0.0012700786 -0.12733287 -0.013260696 0.051467333 0.09772776 0.05912056 0.055424623 -0.0052646045 0.00053491705 -0.03276738 0.041769315 0.06584761 0.11031473 0.11580816 0.06209193 0.04916188 -0.054782894 0.17489605
ㅑ -0.05356365 -0.066131085 -0.06617576 -0.034075446 -0.05293276 0.10643944 0.07977954 0.14464463 0.058507543 -0.054414216 -0.068045504 0.04441772 -0.1455278 -0.048729945 -0.039198972 0.012467898 0.0061441064 0.082262255 0.01040122 -0.049659017 -0.07747285 -0.06673663 -0.07426652 -0.06969795 0.0129448455 -0.015309333 0.06765555 0.033724435 -0.19847935 -0.03346002 -0.021162484 0.045990888 0.13943096 -0.0126050785 -0.050395977 0.019530814 -0.052011587 0.0406934 0.13496561 0.062860616 -0.0049726586 -0.050614055 0.01671218 -0.026121147 -0.059999194 0.009246105 -0.055973433 -0.01392524 -0.06392234 -0.17597143 -0.0607869 0.114066556 -0.112403 0.037370007 0.09646476 0.036488578 0.015501344 0.1285493 0.18510161 0.08798704 0.09027845 -0.09801091 -0.0003543264 -0.025041588 -0.14786622 -0.20358957 0.09609144 -0.00632452 -0.02629173 0.023438264 0.005527766 -0.08124046 0.0046847807 -0.06778985 0.03466904 0.05123522 -0.119617924 0.0950292 -0.0113059 -0.12682596 0.037845287 0.021554956 -0.042783465 0.043856777 -0.035252757 0.04159037 0.11311273 0.060942113 -0.02144188 0.06707798 -0.04272028 -0.13773921 0.02380475 -0.16647628 0.114150375 0.08774237 -0.018308928 -0.004982465 0.096843235 0.011379227
ㄲ -0.01066841 0.076399446 -0.046463143 0.037629277 -0.011405057 0.000793474 -0.0059934016 0.052248254 0.001626699 -0.09831001 0.0023334986 0.017683858 0.025889177 0.091240056 0.08245406 -0.17099121 0.042924806 -0.14821635 0.25699258 -0.012048955 -0.16765511 -0.13831532 -0.19282886 -0.0140959015 -0.03637673 0.04092834 0.12264588 -0.052800037 -0.044041444 -0.095384106 -0.060181417 -0.010510536 0.08931958 -0.026725536 -0.052194834 0.0029038882 -0.033999722 -0.05808748 0.10456777 0.21918094 -0.086232096 -0.17554824 -0.09892903 0.018278262 -0.14042878 0.12077366 -0.017687725 0.054237667 0.014223324 -0.0028014784 -0.0008706702 0.105756894 -0.05615262 0.106825344 0.037722055 -0.15867798 0.057085577 -0.1259854 0.006802098 -0.059105687 -0.036886334 -0.058350712 0.12941416 -0.10098031 -0.06697343 -0.13426176 0.0074719195 -0.006000138 0.032069724 -0.0067917947 -0.042355254 -0.051588632 -0.044333383 -0.11535985 0.024801329 -0.008397173 -0.13232113 0.1956195 0.05105244 -0.06567678 0.050483394 0.008744105 0.093674086 -0.08228776 0.028165102 0.19935589 0.11959794 0.022827068 -0.108756684 0.00088339485 0.074770406 -0.26453915 -0.13780423 0.038134128 0.18450847 0.14528926 -0.051877227 -0.0074526193 -0.10359916 0.16507864
ㄸ -0.01044364 -0.036605503 0.06265777 0.049942605 0.0009509081 0.180869 0.06647863 0.00047130743 -0.08893014 -0.20035875 -0.022947967 0.009050196 -0.08661197 -0.0758118 0.073114745 -0.04936809 0.11393437 -0.12231515 -0.0045656185 -0.15083325 -0.0901291 -0.07943846 -0.14309411 0.15613429 -0.11712567 -0.068922065 0.046931077 -0.051034722 -0.063014105 -0.023068836 -0.16331266 -0.037592612 0.1001519 -0.06417683 0.07572687 -0.018816179 -0.087564 0.02709201 -0.12418737 0.12868106 -0.084117584 -0.14906836 -0.040477104 0.06291416 -0.052824553 0.021229962 0.08522293 0.112333134 -0.12860446 0.0025787284 -0.009224836 0.081539206 -0.11801437 -0.12796676 0.09569708 -0.076950744 0.16084324 -0.06178885 -0.007593953 -0.11511529 -0.13140425 -0.104314126 0.15090266 -0.17267433 -0.08063147 -0.27339593 0.03862009 -0.13181984 0.049407803 0.069449976 0.2400492 -0.054296337 0.028855728 -0.17000467 0.052890357 -0.076211 -0.07170768 0.0571409 -0.026409956 0.073413275 -0.053842377 -0.14933307 0.00041294837 -0.11553748 -0.06932012 0.14347944 0.064708 -0.049834143 -0.0065659448 0.10862127 -0.07381755 -0.13361967 -0.08529113 0.0042027785 0.18301812 0.0264491 0.043602202 0.02305923 0.011732446 0.014314326
ㅖ -0.05389399 -0.0029444622 -0.015159727 0.047640145 -0.029028375 0.13478425 0.03526194 0.06537517 0.032309365 -0.08947989 0.05426865 0.092042126 -0.023871833 -0.1650833 -0.09210022 0.1121708 -0.0785784 -0.03919876 0.08099327 -0.031533524 -0.06825475 0.13506445 -0.03577936 0.019559093 -0.11381829 -0.15335551 0.057458535 0.13469961 -0.013534235 -0.09860086 0.06477303 0.11236781 -0.044284433 -0.13229488 -0.07902849 -0.09124566 -0.05666588 0.0783709 -0.040740885 0.102989845 -0.043528892 -0.0337584 -0.040529206 -0.0042676725 -0.05949172 -0.056627512 -0.22977662 -0.052269258 -0.05034507 -0.122630596 -0.12897748 0.20448819 -0.06520751 -0.009354657 -0.117289454 -0.09639262 -0.12336244 0.08778621 0.33644247 0.038693935 0.028871026 0.04612837 0.037156418 -0.12431483 -0.19279854 -0.069335 0.102351874 -0.026308557 -0.018984936 -0.059062023 -0.093367636 -0.1914748 0.044102922 -0.053662315 -0.05803057 -0.021700121 0.012876909 0.06936466 -0.024628125 -0.072793074 0.032287356 -0.040712163 -0.06757182 0.10681285 0.03789823 -0.010195562 0.07821205 0.071088314 0.021988574 0.0208928 -0.06883915 -0.032750994 -0.03980822 -0.035904776 -0.071261786 0.07950635 -0.037446074 0.0832489 0.0594804 -0.010574386
( -0.17244223 -0.09270871 -0.17182128 0.03181199 -0.034638237 0.030568797 -0.14788625 -0.25988698 -0.10313356 0.08513602 -0.02641458 0.1822689 0.10553609 -0.18338327 -0.10562764 0.06177269 -0.08513731 -0.1851887 0.22355412 0.117364384 0.051593505 -0.057890937 0.01699055 0.034525894 0.18731555 -0.079616055 -0.052860413 0.059733834 -0.034054313 -0.12519157 0.15928476 0.092196636 0.049805228 0.07056974 0.10939234 -0.0468184 0.08933136 -0.1844128 0.06468393 -0.17014469 0.029629277 -0.024621125 0.15391529 0.06831381 -0.19243194 0.01822438 -0.26248252 0.15097976 -0.034291014 0.01993289 -0.0070405956 0.037358508 -0.024219142 0.22627777 0.11483853 0.060960237 -0.006225855 0.053119984 0.16793637 0.11586791 -0.14816193 0.07194325 -0.4025445 -0.078238085 -0.12073738 -0.02064673 0.14246957 0.06741667 0.05576971 0.017009337 -0.15392102 0.21109423 -0.004791733 -0.14944348 0.07526512 -0.20190601 0.13101946 0.06570129 -0.0659302 -0.058611065 0.15593918 0.14472301 0.0635217 0.2640681 -0.082127035 0.30279115 0.09356078 -0.18097314 -0.03765902 0.18320914 -0.38985026 -0.119872555 0.20200737 -0.13941875 -0.09544405 -0.04800336 -0.07247658 0.08593955 0.12588233 0.15062325
) 0.07602783 -0.19749212 -0.19492495 -0.07027168 0.009113681 -0.1312744 -0.0047645005 -0.22725762 0.08155414 0.047220763 -0.044606432 -0.029973235 0.09630522 -0.13589168 -0.05121348 0.12903649 -0.032354537 -0.0228448 0.20694011 0.030526929 -0.051788438 -0.03095549 -0.0005712388 0.0019516416 0.14233452 -0.03629153 0.18393518 0.30323952 -0.21738374 -0.076647624 0.26987335 0.06616771 0.23238465 0.1341032 0.15885177 -0.19744731 -0.071086496 -0.1102527 0.01879067 -0.09660151 -0.0980769 -0.062300377 0.063696824 0.20020168 -0.20066641 0.011273582 -0.14859328 -0.15264906 0.22300324 -0.24060982 -0.12198447 0.024647659 0.0020471541 -0.0022794753 0.29975885 0.08689491 -0.06940686 -0.03632792 0.12062712 0.1880918 -0.15820834 0.06402841 -0.030319348 0.056466732 -0.00042988756 -0.055984475 -0.12237936 0.02624028 0.01872386 0.010231496 -0.16681018 -0.041257467 -0.18220629 -0.19012241 0.15986204 -0.121262 -0.011345634 0.061947916 -0.021799134 -0.17059186 0.08498715 0.10385295 0.08750959 0.09462294 -0.047679037 0.11694571 -0.029130451 -0.0190445 -0.061930872 0.06570083 -0.32301602 0.031260114 -0.22463755 0.0895859 -0.20456813 -0.043805968 -0.16540173 0.0032931282 0.11477155 -0.022392413
3 -0.090952665 -0.12029935 -0.057551943 0.041897945 -0.03237482 0.11453719 0.06447242 0.14785004 -0.042894214 -0.055956207 -0.14819016 0.035452962 0.08441514 0.0027636986 0.013101084 -0.10342505 0.24551713 0.04083005 0.2568403 -0.14735213 -0.1456237 -0.16648303 0.1170291 0.09952063 0.11540001 -0.20342878 -0.014266971 0.16518737 -0.060988713 -0.05447062 0.019219834 0.030835822 0.0024692556 -0.22304904 -0.096646786 -0.16402875 0.0061483383 -0.03819581 0.068539254 0.1379559 -0.040885855 -0.11088266 -0.1525328 0.020680832 -0.06982546 -0.12187286 -0.119029075 0.116187476 0.11536539 -0.1315128 -0.089328066 0.22716975 0.08086996 0.15809883 0.086299196 -0.013212185 -0.1331659 0.032189794 0.0381478 0.07757327 0.117813446 0.023359852 -0.08668411 0.097180456 0.20018315 -0.014170468 -0.01867951 -0.031053767 0.010565126 0.04024339 -0.07242413 -0.06070499 -0.06868117 -0.027422708 0.090850525 -0.17840329 -0.060899243 0.028269012 -0.00989254 -0.108334176 0.111359656 0.011674501 0.05295366 0.045336947 0.059147175 0.2488131 0.018413253 0.0734383 -0.025453076 0.15289408 -0.11105938 -0.06805801 0.040077955 0.016981928 -0.09200646 -0.062057525 -0.13428311 0.13822204 -0.072485164 0.32761526
' -0.2452097 0.16192074 -0.053141728 -0.010579327 -0.058028333 0.023583395 0.049773756 0.00051258877 -0.16003792 0.074016996 -0.2887632 -0.066911 0.03892847 0.009538893 -0.08640537 0.0016171235 -0.07567157 -0.06391092 -0.008427951 0.07923455 0.1029776 0.009492803 -0.09953434 -0.067097485 0.10962636 0.20458964 -0.007436513 -0.014630381 -0.19521742 -0.09316702 -0.012640607 0.023299478 0.1726814 -0.072931156 0.059496865 -0.095216654 -0.067168586 -0.20524293 0.14808452 0.02333063 0.21149585 -0.03837158 -0.11924611 0.07249638 -0.10699941 0.11562251 -0.06007836 0.017593544 0.12980866 0.043673538 -0.0753184 -0.020398216 0.042532515 -0.15830225 -0.19869371 -0.09482556 -0.018511165 0.012403805 0.3320178 -0.016702143 -0.11833705 -0.04166392 0.12330833 -0.018635875 -0.07920748 -0.14689206 0.1384228 -0.18925767 0.28189516 -0.03280022 -0.07725436 -0.15020002 0.08277356 -0.111457385 0.1957635 -0.06956487 -0.0023762228 0.23137045 0.087920226 -0.20393 -0.0837158 0.033458177 0.022590771 0.054411218 0.15082692 0.11218455 0.083619215 0.11141853 -0.10377957 0.032024637 -0.15084326 -0.18450911 -0.0024791425 -0.040502798 -0.118729584 0.0005163643 -0.06937086 0.12977026 0.22210439 0.07244321
5 0.0053684344 -0.05672513 0.022972992 0.10758755 -0.050523397 0.13068381 0.15442972 0.1496322 -0.040257998 -0.08063026 -0.1569371 0.082372025 0.12810224 -0.040423717 -0.080845185 -0.13495436 0.15971121 0.016204618 0.1792031 -0.1400721 -0.03185148 -0.14410439 0.09516641 0.09769731 0.0665434 -0.11781125 0.010521216 0.07430064 -0.057923257 -0.014425892 0.006281643 0.057237543 0.06554223 -0.11212808 -0.15102394 -0.16818811 -0.087121814 -0.039531454 -0.037477102 0.12827505 -0.089578934 -0.13981017 -0.09345526 0.10504707 -0.025538804 -0.21007001 -0.15426344 0.069830894 0.008963393 -0.14321643 -0.12831587 0.20177585 0.026022617 0.19695564 0.12139607 -0.02974403 -0.12391694 0.10177527 -0.072508164 0.15875775 0.11071462 0.0058858455 0.005662547 0.05560702 0.20777649 0.060861498 0.09195403 0.021028133 0.044318825 0.027368778 -0.1010716 -0.09351167 -0.024809351 -0.21678776 0.22290494 -0.17528081 -0.0247151 -0.122359954 0.045900073 -0.11764417 0.1204621 0.031251274 -0.006236429 0.08483822 0.054315332 0.26924205 0.01813896 -0.07248038 -0.046247274 0.14018005 -0.11071135 -0.0877871 0.08057952 -0.017622257 -0.07682764 -0.06741759 -0.10273294 -0.012561866 -0.05777199 0.289832
4 -0.061637886 -0.16659127 -0.08612867 0.04584865 0.044390574 0.19465072 0.08969614 0.19873731 -0.030427005 -0.14218043 -0.13208659 -0.020752199 0.16069555 -0.035654042 -0.080464154 -0.14690591 0.21306302 -0.0112978015 0.18114857 -0.13716915 -0.08785786 -0.09555124 0.10310921 0.11553573 0.083235875 -0.08965577 -0.003731029 0.04466699 -0.08472492 -0.04372483 0.029228264 0.03437618 -0.0031673568 -0.103694364 -0.14881098 -0.12161954 -0.045621976 -0.06915218 -0.00996847 0.08416913 -0.07485314 -0.07649617 -0.020691607 0.055964738 -0.13068348 -0.041604944 -0.07971224 0.10243069 0.10281661 -0.12394458 -0.19217506 0.229621 0.086913444 0.17281026 0.09831387 -0.049638 -0.15612063 0.09899031 -0.045429543 0.14883532 0.09586824 0.08033477 -0.020672545 0.127512 0.19443811 0.023894522 0.04737871 0.04397727 0.049809165 0.013680439 -0.1023209 -0.099683285 -0.11659802 -0.12614381 0.15947348 -0.14980397 -0.045974694 -0.12629436 -0.06767839 -0.074891865 0.13577345 -0.0063140164 -0.018999944 0.07509803 0.04988326 0.2968319 -0.0010601317 0.013296536 -0.07854004 0.10330812 -0.08788262 -0.097659335 0.055678748 0.02944879 -0.0638765 -0.0071727773 -0.08764032 0.12198903 0.027647018 0.23505273
" 0.1141388 0.007843107 0.18344837 0.085906014 -0.10752618 0.054264937 0.13823238 0.034865983 0.09931118 0.16703764 0.11503094 -0.28776175 -0.031656764 -0.18842079 0.016088542 0.05845295 -0.01992215 -0.07129686 0.18376167 -0.07421267 -0.08857426 -0.1416032 -0.10952348 0.030588258 0.037817124 -0.1639916 0.038737625 -0.29500002 -0.13969943 0.107992455 -0.13847452 0.16783834 0.041848153 0.113899335 -0.010387432 0.003883957 0.04916415 0.19149217 0.102655776 -0.1597061 0.02834532 0.07020767 -0.065796375 0.15928681 -0.13415043 0.01919008 -0.057711113 0.21944703 -0.049736056 -0.053198624 -0.05520517 0.12159893 0.015792377 -0.009540274 -0.08818566 0.008328058 -0.10594373 0.07677484 0.06954687 0.058527794 -0.09676422 -0.041385084 0.117118664 -0.08396339 -0.071804464 -0.12531576 -0.039253116 -0.06257313 -0.12800351 -0.22138041 -0.103524186 -0.076316044 -0.02131763 -0.23612699 0.113392584 0.076031774 -0.08980524 0.16689436 0.071782134 -0.15659395 -0.052845415 -0.04438455 -0.020493118 -0.15294178 0.029632308 0.18970226 0.21112853 0.08970019 -0.018446593 0.13015166 -0.10974854 -0.15701342 0.02166162 -0.13561806 0.09341632 0.17887414 0.19105326 0.045990247 -0.06329766 -0.02880251
6 -0.097130105 -0.07257573 0.02315682 0.039280698 -0.113045424 0.07689077 0.14361961 0.09858717 0.004807925 -0.09189134 -0.07082833 0.046746045 0.17750505 -0.06864111 -0.08505629 -0.113982886 0.116609275 0.08944019 0.15431608 -0.17098793 0.008349234 -0.1729475 0.14868605 0.053661894 0.08230893 -0.11424374 0.007016626 0.1139982 -0.08533026 -0.04465552 0.08998963 0.15153857 0.058504626 -0.24423595 -0.1436097 -0.14188576 -0.023255108 0.046935022 -0.013486718 0.11183058 -0.08811281 -0.19189559 -0.07135557 0.029416302 -0.06186454 -0.09072339 -0.10775843 0.11158121 0.08198273 -0.079583324 -0.18334176 0.19043604 0.07518484 0.1841755 0.14410773 -0.020724334 -0.114411205 0.023364441 -0.02394184 0.19937773 0.10187404 0.05816358 -0.020430086 0.092717744 0.20938383 -0.0027591684 0.06130972 0.0050070295 -0.009343598 -0.0610155 -0.09530088 -0.04774741 -0.035431046 -0.16630048 0.18377057 -0.09967015 -0.08187401 -0.13363278 0.017747156 -0.120379895 0.14481013 0.11195273 -0.10178418 0.07632631 8.2675135e-05 0.352162 0.012947599 -0.07318652 -0.03730775 0.19870117 -0.084465064 -0.13609459 0.051393297 -0.0015233917 -0.09069824 -0.011778471 -0.12315539 0.06913605 -0.015355138 0.24024564
ㄶ 0.2062141 0.09529038 0.069586396 -0.061990894 -0.12148154 -0.049109116 -0.08776502 0.06049166 0.17684513 -0.060294114 0.09129119 -0.14940405 -0.07208179 0.029432034 0.07673924 0.15111473 -0.017093617 -0.2901364 -0.08909121 -0.09063238 -0.24672244 -0.20005523 -0.17901632 -0.16878724 -0.068708204 -0.11217993 -0.002872806 -0.1287349 -0.1833615 0.064975664 -0.052239954 0.049842924 0.05894904 0.06167005 0.053580552 -0.016263116 -0.11101875 0.023904301 -0.20821816 0.19280513 -0.0049917307 -0.13643298 -0.098407745 -0.05527246 -0.090944394 0.056142095 0.06954396 0.06932789 -0.1395674 0.01080172 0.26994428 0.19859788 -0.05569031 0.08929767 -0.09922871 -0.03764138 0.05817908 -0.059681483 0.014871927 -0.03547835 0.030290049 0.013482476 0.10024254 -0.10646952 -0.16489848 -0.09115648 -0.008900616 0.05923049 0.039192967 -0.03882194 0.0077793417 -0.25179633 0.01740428 -0.078035176 0.050059542 0.10932246 -0.083307475 0.17902637 0.052060798 -0.051261887 -0.14813685 -0.10483215 0.12145923 -0.10556175 -0.009803188 0.3284837 0.20697764 0.11944656 -0.16862959 0.01595851 0.14681047 -0.26517424 -0.14415096 -0.20495814 0.38021064 0.12015864 -0.13887367 -0.14942645 -0.27937025 -0.0829209
7 -0.022766642 -0.08967617 -0.03848825 0.056073442 -0.010693979 0.08582464 0.111760624 0.101755895 0.010944384 -0.13086218 -0.040948033 0.117603615 0.17587867 -0.026193121 -0.045877103 -0.067424744 0.1647533 -0.05002908 0.12412937 -0.20093077 -0.059684962 -0.15625393 0.08444392 0.064690284 0.118564546 -0.18122785 0.034031026 0.03362132 -0.08449625 -0.07848097 0.105639026 0.13380083 0.056978803 -0.28259447 -0.093708694 -0.16502763 0.030427564 0.0034168412 0.019103937 0.11561046 -0.09992069 -0.1475591 -0.04379897 -0.0074766157 -0.040081132 -0.17249756 -0.16644149 0.011886258 0.06736713 -0.15222472 -0.09083462 0.14965124 0.108001046 0.16967002 0.09457874 -0.050228205 -0.17130706 0.035424028 -0.037106387 0.20591405 0.08691801 0.061252937 -0.022347337 0.22996247 0.1768822 -0.047821183 0.040479794 0.03149721 0.07141698 0.0041193753 -0.13644473 -0.048199546 -0.047124032 -0.19182141 0.13324864 -0.15894882 -0.026806008 -0.13511479 -0.0037068012 -0.08640689 0.16922297 0.02076631 0.016180106 0.067827284 -0.003036249 0.3205376 -0.04294082 -0.03861668 -0.098356955 0.06078878 -0.12674394 -0.14238961 0.06789663 0.03034056 -0.18526372 -0.054250933 -0.14525175 0.14544843 -0.04120274 0.32740855
8 -0.016500799 -0.07838577 -0.044378135 0.10516703 0.012601222 0.10877587 0.076812744 0.04159402 -0.06611496 -0.15509918 -0.08178015 0.06416882 0.19439116 -0.033510767 -0.109556526 -0.1413286 0.20779659 0.079109445 0.08554538 -0.15494353 -0.07479706 -0.19862701 0.08332619 0.12269117 0.086258896 -0.15114906 -0.04337531 -0.031455748 -0.102476686 0.029162157 0.07824656 0.13384655 0.044143144 -0.11928238 -0.23085588 -0.1836922 0.03780623 -0.06639139 0.0068620797 0.19080189 -0.05960275 -0.22408418 -0.075136274 0.055227336 -0.029532362 -0.13004136 -0.08391196 0.077144645 0.103852585 -0.16207094 -0.18123987 0.24168417 0.04216368 0.24809672 0.0695952 -0.035050374 -0.16141135 0.06573497 -0.008011135 0.18713579 0.10290876 0.14996937 -0.0368855 0.21205921 0.15355547 0.0022334047 -0.07430352 -0.016034316 0.11948325 0.0033575662 -0.112376496 -0.032876763 -0.09714661 -0.1751145 0.2684497 -0.19113976 -0.035312615 -0.10393661 -0.07487088 -0.09518345 0.19691797 0.014346424 0.017440546 0.15122987 0.043799266 0.29103366 -0.08713963 -0.015082018 0.055171784 0.119876534 -0.057966657 -0.04362828 0.051065516 0.004893202 -0.03322301 -0.059868954 -0.095901385 0.13932791 0.015175114 0.2619375
9 -0.21284908 -0.1150504 0.06256313 0.034933623 0.041415423 0.14146051 0.15472068 0.11369181 0.08833619 -0.09252041 -0.01951117 0.02345086 0.18394388 -0.13105996 -0.044460833 -0.05142216 0.20994861 0.015159626 0.16319162 -0.18020287 -0.047397684 -0.19391742 0.16958117 0.12905166 0.11114438 -0.110243276 0.1132743 0.05392741 0.008029076 0.050270393 0.06788088 0.3174799 0.102947414 -0.120970055 -0.16336972 -0.20840454 0.11405783 0.07018681 -0.03513234 0.15527219 -0.043668617 -0.14503902 -0.10115835 0.1841826 -0.1220483 -0.039353296 -0.09802143 0.11084116 0.16014066 -0.09922296 -0.13376772 0.21266012 0.15912975 0.21903954 0.04540589 0.0107387975 -0.15928452 0.108201854 -0.07268741 0.19008516 0.019944979 0.18402117 -0.0074590435 0.2365503 0.19383366 0.099110395 -0.0015099533 0.10301011 -0.0038545155 0.059573617 -0.17784731 -0.014277563 -0.046526242 -0.21077603 0.21863675 -0.20269541 0.03266979 -0.1421297 0.004363513 -0.10106 0.21625814 0.0820285 -0.082632296 0.13414434 -0.014932074 0.2870007 0.014275696 -0.01912525 -0.12901458 0.06548026 -0.13494179 -0.20807682 0.0663688 0.01843673 -0.007552623 -0.028939703 -0.14846946 0.073338926 -0.07410641 0.13068476
ㅄ 0.031516474 0.1208106 -0.006952876 -0.0485779 -0.12862109 0.03908733 0.112579904 0.13102022 0.028376546 -0.10087369 0.0137120485 -0.023391625 -0.31683004 -0.09846637 -0.0073640295 0.051995814 0.079803556 -0.017774701 0.046828445 -0.11164703 -0.22998288 -0.13467434 -0.10969252 0.016539913 -0.14100268 -0.1441677 0.04919398 -0.0111034475 -0.17695555 0.12074257 -0.32081223 -0.06508321 0.13064928 -0.14212367 -0.04726385 0.050257817 -0.014720777 -0.05207506 -0.11189908 0.110454194 0.10937789 0.09023588 -0.04848472 0.089394845 -0.07128321 -0.2215392 0.17407364 -0.11501345 0.032547504 -0.086018845 -0.069651976 0.3000664 -0.14008524 -0.09323 -0.08323762 0.0019358916 0.07302814 -0.13588996 -0.1065526 -0.03681858 -0.022086848 -0.14546213 0.054072727 -0.06405326 -0.26284638 -0.13373017 0.1605602 0.087905936 0.05203858 0.0410342 0.1894584 -0.17749476 0.0704794 -0.11285606 0.24443938 -0.019595327 -0.07004586 0.007970819 0.024050334 0.16927235 -0.17494857 -0.20185953 -0.056861196 -0.00064485194 -0.12551428 0.08094144 0.07212964 -0.022024946 -0.17597318 0.0764297 0.1561756 -0.2391459 0.038507324 -0.037252177 0.26375237 0.12287281 -0.014585007 0.09450514 -0.2532018 -0.21078554
ㅉ -0.095406175 -0.1550634 0.21881469 0.011519326 -0.09286623 0.1517696 -0.0138915945 0.12607652 -0.0037138541 -0.15484196 -0.08272426 0.06016416 0.009752056 0.0676533 -0.08581162 -0.124820575 0.23088838 -0.091815114 0.20376103 -0.11002661 -0.1489909 -0.013954008 -0.17055668 0.16881683 -0.07853473 -0.03956254 0.10789883 -0.08029803 -0.026036074 -0.06767145 -0.08840493 -0.084862046 0.022176065 -0.12951295 0.024591109 0.055618268 -0.036644872 -0.036750767 0.035539053 -0.0036638053 -0.020934021 -0.06505925 -0.03721246 0.065858595 -0.19191292 0.081154734 0.073985904 0.07022903 0.018584631 0.019048054 -0.040202226 -0.051806618 -0.10451695 0.050382994 0.03820866 0.026010493 0.015713843 -0.09020094 -0.014888998 -0.00068007177 0.1770322 0.055869944 0.21567275 0.053007316 -0.19408874 -0.037672676 -0.006925607 -0.119793385 0.08217556 -0.027846687 0.059246592 -0.036249463 0.015438506 -0.28008002 0.207484 -0.018719517 -0.04849669 0.15959232 0.028737098 -0.0676592 0.10066859 -0.027070198 -0.008216194 -0.1607321 0.017577777 0.173942 0.012501738 0.08597671 0.07422645 0.07478666 -0.18712373 -0.19263965 -0.10803089 0.069000535 0.14782281 0.0144017385 0.051747333 -0.07586329 -0.0036382673 0.13357477
- -0.281951 -0.1158078 0.13631658 -0.06457484 -0.016142976 0.1450214 0.16502565 0.012586734 -0.22227438 0.18761876 -0.16549833 0.1532418 0.09037076 -0.10423059 -0.2752119 -0.06456101 0.18500142 0.036178466 -0.06278935 -0.0633429 -0.06946175 0.03430713 0.09969845 0.027409347 0.051859073 -0.014758285 0.007702508 0.25846022 -0.13023052 -0.09875643 0.044410408 0.041582443 -0.0853874 0.06206713 0.12406781 -0.14795128 0.1225037 -0.07765225 -0.021208303 -0.17250167 -0.2571392 -0.2535384 0.0049297493 0.092871055 -0.18516204 0.034706134 -0.47126418 0.11691823 0.091583565 -0.27658275 -0.057323836 -0.04116478 0.12842526 0.12753123 0.0029501333 -0.047326345 0.051553387 0.038242355 0.038538117 0.1311461 -0.07819571 0.038972974 -0.04030573 -0.0002693897 0.09793685 0.05763232 0.10770328 -0.16040495 -0.048072543 0.12578046 -0.2468383 -0.08021318 -0.37269437 -0.22927326 0.127982 -0.12283267 -0.2526393 0.06428142 -0.19733565 -0.08786361 0.2095962 0.07970075 0.15139265 0.17784122 -0.009360729 0.25998032 -0.07797813 -0.10684901 -0.1935414 0.2633965 -0.21289764 -0.3194155 0.034400094 0.030927416 -0.1954169 -0.08017695 -0.05921224 0.31182912 -0.1150843 0.27058855
ㅃ -0.017156838 -0.04440938 0.1428032 -0.056198023 -0.038284622 0.30866948 0.09537552 -0.09927549 0.057119377 -0.13485749 -0.07055909 0.0066964803 -0.042171706 -0.02228114 0.103731096 -0.024336781 0.12069526 -0.17163087 0.19453236 -0.09872119 -0.18131061 -0.28471813 -0.08990875 0.0741157 -0.002233479 -0.09275283 0.06223905 -0.11218611 -0.06657416 0.056185886 -0.2157174 -0.035615157 0.19112058 0.005662276 0.035547767 -0.008595433 -0.022363892 0.03801534 0.035027344 0.030077092 0.00032629434 0.03923475 -0.0021744592 0.08551072 -0.11890711 0.13395452 0.041691013 -0.06697082 -0.082556166 0.17009102 0.10463309 0.055857673 -0.0531254 0.08787641 -0.048490793 -0.012122973 0.07394039 -0.078973405 0.20027117 0.008629769 -0.0632956 -0.093907654 0.07455167 -0.04538009 -0.12142402 -0.25465176 0.09783794 -0.042202067 0.1146742 0.03337924 0.10297325 -0.06780915 -0.037514105 -0.22301248 0.102624394 0.020394802 -0.1101171 0.10405119 0.11943263 0.04274668 0.032381408 -0.09657625 -0.054689378 -0.16801001 -0.059747305 0.09903689 0.11888643 0.13188073 0.051147126 0.025897378 -0.00041946123 -0.14434533 -0.08969739 0.0052896566 0.28664795 0.019435667 -0.032964543 -0.01687413 -0.053397145 -0.0050565694
ㄺ -0.012926727 -0.14496498 0.11259049 0.10322227 -0.023999115 -0.007722836 0.008053038 0.17426383 0.12550999 -0.008546205 0.0117140645 -0.04851062 -0.381044 -0.06688604 -0.19631766 -0.096256316 -0.014229928 -0.1557317 0.19708835 -0.0023986073 -0.28213078 0.010875825 -0.27645528 0.027741846 -0.070803694 0.016601132 -0.26900446 -0.090624124 -0.4207451 0.17993797 0.07019534 0.04268551 0.29264554 -0.011585733 0.057128794 0.020594237 0.19448765 0.226441 -0.15290512 -0.08224238 0.059230633 0.29861146 -0.08752486 -0.23947023 -0.005467193 0.26592064 -0.20907286 -0.06372452 0.050821196 -0.12524576 -0.30494568 0.2804972 -0.029904362 -0.05425822 -0.21665347 -0.090173855 -0.05258 -0.086888865 -0.40476424 -0.012971085 -0.16299659 0.12697199 0.1998486 0.08267587 -0.088214695 -0.0033558663 0.14702879 0.2773656 -0.23755495 -0.10167434 0.16259818 -0.22964008 0.13218632 -0.18104741 0.12064722 -0.11366203 -0.15351987 0.07861207 -0.01718776 -0.10055856 0.21940751 -0.31348392 0.07578229 -0.093490705 0.052917536 0.19147334 0.049372062 0.10657359 -0.16550517 0.10019495 0.08929621 -0.3066659 -0.015453318 -0.14899541 0.24847642 0.15179512 -0.08059716 0.022396013 0.051371165 0.20092161
% 0.024692586 0.0045691417 0.03549108 0.08642839 -0.046108928 0.10015701 0.13840008 0.08432697 -0.17850596 -0.107900515 -0.24654162 0.058755673 0.059517123 0.058978517 -0.06681855 0.04368803 0.2893153 0.08309248 0.24434929 -0.2207503 -0.0901566 -0.094560444 0.011896179 -0.11439481 0.006980691 -0.027691064 -0.14971554 0.08678326 0.09151401 0.07254285 0.30508876 0.008714089 0.19568823 -0.25785384 -0.124162704 -0.003444271 0.17070161 -0.015788263 -0.12989537 -0.111131676 -0.07524279 -0.06469448 -0.075501874 -0.16192791 -0.04081305 -0.092053056 -0.29255238 0.1171351 -0.22400163 -0.10639518 -0.3240797 0.24076027 -0.13711645 0.055883657 -0.013554113 0.04608308 -0.072869785 -0.017862964 -0.119907156 0.06054978 0.20274949 -0.008480368 -0.06802782 0.23540258 0.47380167 0.009487828 -0.03551835 0.101379916 -0.07579326 0.17376922 -0.23099498 0.1563593 -0.142945 -0.29112867 0.1370588 -0.1968266 -0.27021596 -0.05378055 0.07553163 -0.13640574 0.024081457 -0.073535554 -0.0776706 0.20846099 0.2984156 0.44194746 -0.13449298 0.03749939 -0.13916782 0.1681852 0.054309014 -0.2945685 -0.021326773 -0.12735164 0.03593967 -0.033023007 -0.21646869 -0.044606965 -0.08681933 0.178281
A 0.06500479 -0.07962655 0.06313563 0.1703574 -0.07637238 0.10441872 0.21956559 -0.1257254 -0.27034706 -0.08326938 -0.092538856 0.179063 0.059175923 -0.07585198 -0.113154255 -0.030043844 -0.017648535 0.0043390645 -0.2905879 0.010852239 0.0035693822 0.0010804976 -0.20980388 -0.099592336 0.041925203 -0.132625 0.075205795 -0.106692396 -0.05199033 0.07378498 -0.057243954 -0.2743536 0.046959948 -0.02532858 0.121433794 -0.2200527 0.082453474 -0.056524966 -0.063035384 -0.13005991 -0.020301372 0.116204135 0.19028461 0.2977581 -0.22744787 -0.30555242 -0.025626874 0.030901808 -0.08950552 -0.09083629 -0.13569671 0.0292801 0.05633883 -0.15719907 0.12070188 -0.07809765 -0.19376762 0.15803213 0.30428144 0.10383167 0.055768453 -0.129399 0.0316452 0.08971322 0.057407144 -0.22777152 0.08837145 -0.18811546 0.08340448 0.011806698 -0.31556627 -0.13001733 -0.19324839 -0.122263074 -0.008027101 -0.10727013 0.02885352 0.05602186 -0.22370052 0.051504027 -0.07806275 0.03867446 0.13083532 0.089114785 0.11996496 0.26252723 -0.0019291961 0.10613338 -0.09593558 -0.030243563 -0.19161478 -0.22840823 0.060524564 -0.08048184 -0.116627246 -0.037522648 -0.11089103 0.4050463 0.14412956 0.11253186
C -0.013770728 -0.047040123 0.049797323 -0.11322174 -0.15030695 -0.050405473 0.14936271 -0.21132393 -0.07908218 0.004225641 0.057408765 -0.04309338 -0.086968265 -0.13899882 -0.13023807 -0.042384107 -0.053181667 0.071151 -0.28939515 0.028600536 0.039842516 0.0635245 -0.06105003 -0.063652895 0.025802944 -0.07369078 0.047636528 -0.13491178 -0.1086655 0.06284196 -0.010647528 -0.034809805 0.15110902 -0.20897004 0.08825267 -0.22066073 0.10196425 0.014260791 -0.025030164 -0.13482086 0.10469169 -0.029269481 0.08836895 0.2526275 -0.34285924 -0.34535858 0.050859008 0.06345129 0.043337587 0.02555645 -0.2646933 0.07357831 -0.006398905 -0.04689064 0.10762504 -0.07852903 -0.2600594 0.14155445 0.2297205 0.11291025 0.10073317 -0.16337256 -0.038225852 -0.034015737 0.10839303 -0.13223024 0.10287859 -0.20857534 0.082286574 -0.10179177 -0.19470441 -0.21513115 -0.12376188 -0.12042743 0.043717634 -0.06039851 0.14831273 0.18078203 -0.037776515 0.05962727 0.04633683 0.028648656 0.068647206 0.1616747 0.11858998 0.22118215 0.07109738 0.09333902 -0.22156656 -0.01616346 -0.22304234 -0.3049562 0.008547476 -0.16083135 -0.052964006 -0.1514828 -0.14195193 0.23711582 0.072660044 0.08286927
e 0.37371677 -0.013429231 0.27908784 -0.07362698 -0.5259695 -0.02771026 0.4058134 -0.12769489 -0.20707153 0.05978451 0.18815745 0.078871466 -0.2522773 -0.22683592 -0.03989507 0.17771755 -0.2325181 0.24187858 -0.21542369 -0.31920767 -0.12251077 0.06449799 -0.22362155 0.06291509 0.092087835 0.07569495 -0.008745332 -0.08010675 0.03766113 0.4622078 0.12529504 -0.19602126 0.2919098 0.2383901 -0.048225533 -0.31318575 0.17406784 -0.037966736 0.089805 0.19941504 -0.21417016 0.16264524 0.22601159 0.056139253 -0.22041999 -0.33149567 -0.20458058 -0.009695366 -0.2370031 0.3212664 -0.26009077 0.005388728 0.38690495 0.16492446 0.14491026 0.2405712 -0.18502848 0.18424529 0.17794284 0.07361692 -0.16261181 0.043654736 0.11877842 0.035875104 0.17394774 -0.11472987 -0.08468186 -0.1803799 0.15829144 -0.14769694 -0.19843079 -0.26013976 -0.12231758 -0.41558862 0.2566241 -0.29504374 -0.05541701 0.22468948 0.1414317 0.07540249 0.34012774 0.015697131 0.066478424 0.22973289 0.16644119 0.29526386 -0.025662776 0.16366893 -0.23021431 0.02474581 -0.2603903 -0.3684254 -0.14156951 0.046591517 -0.006951034 0.03357564 -0.20797592 0.41002768 -0.25763544 0.27964476
· -0.17106062 -0.16046245 -0.062390402 -0.035470594 0.06671384 0.093823135 0.07708733 0.17599323 0.047116302 -0.014944275 0.022562431 0.09698476 0.02324996 -0.20544033 -0.019779282 -0.053966142 -0.1772667 -0.05956137 -0.0053224266 -0.04997074 0.27158594 0.02607873 0.2615794 0.030366132 -0.15240468 -0.30537206 0.15439321 0.1609444 0.104075275 -0.08731522 0.18024065 0.23797248 -0.10148034 -0.21513812 0.053745773 -0.13532233 0.065317206 -0.016912773 -0.30128637 0.020742148 -0.034108646 -0.052728944 0.14664187 0.1530033 -0.14385366 -0.20792124 0.002960132 -0.07309875 -0.056721464 -0.24386002 -0.012364911 -0.06137161 -0.38973203 0.030604774 -0.069010936 0.15583134 -0.09337716 0.07708309 0.20093416 -0.010238193 0.05230634 -0.05644177 -0.11646208 0.06520909 0.002724547 0.14626656 -0.069067955 0.08292189 0.00992926 0.354902 0.07197456 0.16486795 -0.1831183 0.10906562 -0.10700233 -0.0701282 -0.036777765 0.17895795 -0.30109838 -0.2128934 0.25597134 0.062482655 -0.018278575 0.22781849 -0.043624908 0.21245237 0.059108116 0.09022119 -0.047694046 0.16522695 -0.17749976 0.0013561021 -0.28114107 -0.030729018 0.08504575 -0.09416728 -0.26853707 0.029847406 0.05413024 0.27971196
o 0.2864383 0.027779285 0.21860892 -0.07608266 -0.40310052 6.528199e-05 0.34795043 0.13339886 -0.30373287 0.078350686 0.03709579 0.022316588 -0.28925034 -0.22107829 -0.12556599 0.18826596 -0.25548282 0.32616 -0.18676528 -0.22719002 -0.1519952 -0.0009561826 -0.13100599 0.09782506 0.10342618 0.2498652 -0.07277286 -0.0082290545 0.13209401 0.41414776 0.2236538 -0.11992495 0.33675757 0.16410801 -0.12334061 -0.25075984 0.23284486 -0.12133223 0.18436722 0.30876917 -0.0604551 0.12417588 0.20103316 -0.044230413 -0.21167834 -0.39915946 -0.2105894 -0.11320491 -0.12470944 0.41422853 -0.28696424 0.16509427 0.31084415 0.1617562 0.07037933 0.1737737 -0.13934134 0.04222012 0.023190018 0.0048408797 -0.058081746 0.038379174 0.073467076 0.032629002 0.13110444 -0.09464026 -0.14196959 -0.23597151 0.1920164 0.07469954 -0.18850806 -0.10419933 -0.19182976 -0.38141122 0.26483178 -0.39411288 -0.13341671 0.10639952 0.060853284 0.08795745 0.3914576 -0.008844836 0.038929116 0.25545347 0.15281533 0.5467199 -0.09806849 0.09325711 -0.20210327 0.15148187 -0.19834387 -0.46175924 -0.10642952 -0.09778667 0.12895803 -0.01853328 -0.30259615 0.25771904 -0.112533025 0.35573786
B 0.13891506 -0.05674349 -0.031269412 0.10050578 -0.026845168 0.0017073286 0.05771105 -0.06722866 -0.12617391 -0.21320383 0.035105933 0.014783812 0.20211586 -0.073767595 -0.15025735 -0.03818736 -0.026471322 0.13281715 -0.16757675 -0.014971428 -0.06807517 -0.046848074 -0.10235 0.0031563656 0.08805303 0.18864138 -0.016297651 -0.19868776 -0.2540322 0.039358195 -0.043796126 -0.12204562 0.12624127 0.048787143 -0.18367757 -0.09336695 -0.14571697 0.008835716 0.08042548 -0.21077777 0.08496894 -0.056863464 -0.05230198 0.30037096 -0.3713835 -0.36035043 0.0072811646 0.08286397 -0.08414772 0.10949909 -0.14392571 0.033854775 0.045630503 -0.0755278 0.081486985 0.107893 -0.2460012 0.07884746 0.18061663 0.17251195 0.038211234 -0.16138868 0.26743868 0.12134059 0.044463605 -0.10972765 0.09419625 -0.37703764 0.004815259 -0.12448047 -0.36446586 -0.046635702 -0.03271146 -0.0101325335 0.03030101 -0.09692574 0.04862992 0.10348108 -0.18286948 0.015213966 0.007647189 0.021236189 0.062639125 0.2132838 0.21357422 0.19616958 0.11816965 0.06954827 -0.0530748 -0.03320032 -0.29058456 -0.4516113 -0.31878385 -0.06645076 -0.01902264 0.030980214 -0.08104295 0.3770529 0.017894538 0.13389255
K -0.10629446 -0.12649849 0.04792663 0.12624162 0.085429616 -0.04554297 0.15369931 -0.14775217 -0.066637985 0.05360894 0.2712165 0.092013545 0.16844058 0.036225624 -0.12201254 -0.017568909 0.16197328 0.08741907 -0.20854907 -0.07005398 -0.023973923 -0.008110637 -0.095983095 -0.06958592 0.06632114 -0.06683614 -0.11503756 -0.07400424 -0.15065244 0.043044284 -0.05972297 -0.15622352 0.022172445 -0.18766806 0.016229853 -0.17799215 0.16512622 0.009224954 0.07817824 0.03468669 -0.08148222 -0.19233645 -0.12490423 0.13609478 -0.27683792 -0.1714621 -0.10252322 0.050114572 0.17408541 -0.05949595 -0.30833018 0.013980158 0.059031367 0.023829695 0.17484343 -0.04929695 -0.16821633 0.19410832 0.264686 -0.038524494 0.0281492 -0.10420451 0.08555169 -0.1913487 -0.027625822 -0.18460146 -0.058993027 -0.15635286 0.034877308 -0.057033192 -0.33170044 -0.112342544 -0.12599578 -0.15394564 0.0715938 -0.16915797 0.0322094 0.2141905 -0.02242748 -0.01693129 0.029203944 0.09862321 0.021889668 0.21040191 0.0812335 0.22561285 -0.029781297 0.11483521 -0.036399636 -0.08726256 -0.15082738 -0.1333571 -0.05226511 -0.016148666 -0.03977814 -0.2092831 -0.08322861 0.30673993 0.19342394 0.110437706
a 0.36560175 0.08062067 0.23268975 -0.051933005 -0.33326432 0.039757326 0.30797818 0.04924819 -0.09631969 0.053381525 0.105967075 0.008582396 -0.2718493 -0.1833944 -0.021168182 0.22897719 -0.19067717 0.31110904 -0.18957625 -0.2545004 -0.07505174 -0.026729437 -0.1653863 0.058865733 0.06857302 0.11537986 0.004854241 0.02481908 0.0026132774 0.30359292 0.19063367 -0.14114045 0.3312264 0.17432809 0.0058042067 -0.22431476 0.097528376 -0.15856856 0.14409888 0.17679927 -0.09758447 0.14370207 0.24818917 0.03417533 -0.19267017 -0.30730414 -0.2141382 -0.041756645 -0.10255118 0.24796534 -0.2512234 0.05620147 0.3949457 0.07886088 0.16394459 0.31429034 -0.13279703 0.007269488 0.06419892 0.047946256 -0.12825966 0.07705602 0.15632775 0.13073404 0.13233766 -0.044568453 -0.14063817 -0.19747841 0.2013443 -0.08049724 -0.2521411 -0.25147083 -0.07508287 -0.21237202 0.30380398 -0.2848152 -0.017549532 0.2337228 0.10822814 0.1267694 0.33659354 0.06605649 0.01175515 0.2538007 0.13751744 0.48928395 -0.14609079 0.10079942 -0.1616552 0.026157465 -0.1837077 -0.39098942 -0.2684211 -0.10751149 0.056622908 -0.004141953 -0.26947254 0.3385806 -0.12452389 0.33080968
T -0.010879159 -0.09290952 0.09915677 -0.03336117 -0.14078695 -0.0643559 0.22847092 -0.07611808 -0.1971171 0.09146256 0.08481451 -0.08635515 -0.00027004 -0.09103949 -0.09969018 -0.029513814 0.06271788 0.19143938 -0.0981454 -0.058140993 -0.036698624 0.03273557 0.07159641 -0.1223508 0.15116094 -0.021015277 -0.067441046 -0.0796336 -0.16873337 0.1349644 -0.07789097 -0.08019102 0.044642348 -0.00800592 -0.014050552 -0.31457955 0.1047312 -0.088981874 0.124148205 0.10090733 0.087659165 0.14713112 0.062608324 0.15642641 -0.3627709 -0.27201265 -0.17915876 0.12149428 0.12427567 0.024181925 -0.3824312 0.031767838 0.07429347 0.09193594 0.15379433 -0.043457206 -0.1733014 0.18191159 0.23842672 0.0046931366 -0.0071853343 -0.08644873 0.1137192 -0.11758868 0.024183631 -0.11133303 -0.053692926 -0.1805045 0.076567635 0.095476516 -0.046614513 -0.094629794 -0.21409275 0.049275193 0.053124208 -0.21513759 -0.04238829 0.26280662 -0.14210741 0.10775506 0.24925502 0.045026936 0.10583496 0.23363186 0.14723654 0.12279028 0.030250149 0.21773621 -0.017376484 0.09977527 -0.08218265 -0.18812567 -0.1576738 -0.09621607 0.020726059 -0.13554107 -0.13072287 0.34230226 0.12511727 0.18237546
m -0.0042511676 -0.047010336 0.13400656 -0.060069114 -0.16696656 -0.011574906 0.03968125 0.01378996 -0.20127401 0.099571 0.21144198 0.12790605 -0.18016891 -0.06298859 -0.06306936 0.14997968 0.026599932 0.21557556 0.09816055 -0.24466416 0.012129522 -0.027425036 -0.21143733 0.046711694 0.03223435 0.14187856 -0.074962966 0.1775636 0.13107395 0.1298609 0.23672754 -0.02733269 0.27246904 0.042955495 -0.13520415 -0.036689013 0.21365151 -0.12315306 0.11909654 0.07547384 -0.060223084 -0.09342747 0.035278972 0.070195094 -0.28035918 -0.15029255 -0.20107423 -0.06064985 -0.058575988 0.24304363 -0.38145548 0.14097588 0.18060435 0.20769335 0.20390259 0.15946284 0.008433938 -0.0065867095 0.065636314 0.019994367 -0.0041171554 0.10238192 0.10913571 0.13865963 0.12393568 0.028930755 -0.079408556 -0.15707283 -0.07167959 -0.027885849 -0.3506277 0.14926971 -0.1801145 -0.254048 0.15226473 -0.17298506 -0.22986855 0.10004213 0.13125212 -0.030803867 0.31413826 0.09247616 -0.04649154 0.25338978 0.08045416 0.48968726 -0.2180052 -0.014617071 -0.20661506 0.113198794 -0.16737887 -0.3430557 -0.13807505 -0.21322414 0.021652222 -0.1989551 -0.32491088 0.20306437 -0.04211525 0.42007318
i 0.33691582 -0.0085348915 0.1674713 -0.1442506 -0.37271535 -0.04067549 0.39456603 -0.07738542 -0.29827863 0.0067360555 0.26705033 0.0027701184 -0.19137551 -0.29519114 -0.04094364 0.14693893 -0.19369496 0.28101608 -0.12865803 -0.35663015 -0.12986998 0.055262946 -0.11463954 -0.046032228 0.04965044 0.09460765 -0.044734392 -0.00077812 -0.025482537 0.3541921 0.20342122 -0.1336331 0.3030391 0.24529839 -0.09494803 -0.25684255 0.23527482 0.009907546 0.13916947 0.22562666 -0.14453061 0.07822108 0.16061065 0.012364898 -0.3028058 -0.3551743 -0.29429004 -0.13644777 -0.12295729 0.13388765 -0.14439236 0.11744437 0.43068045 0.009166831 0.08860214 0.2915632 -0.13241003 0.073129065 0.16010725 0.047116566 -0.16465373 -0.032431893 0.1815048 0.07393983 0.17317227 -0.051271193 -0.10785358 -0.120549224 0.15771672 0.0031457518 -0.2550442 -0.26734453 -0.17282239 -0.35640115 0.1406645 -0.37355673 -0.11113302 0.14347838 0.08190869 0.0659167 0.4044439 0.02671447 0.10220607 0.28817478 0.121725835 0.42483738 -0.0027702013 0.12190431 -0.20162295 0.04862968 -0.071699984 -0.43561405 -0.15744139 0.00084106205 -0.007831811 -0.037234124 -0.23686843 0.47751543 -0.20018256 0.4183677
L 0.046877645 -0.065295964 0.045680862 0.014397887 -0.0066443197 0.06706906 0.14253724 -0.085885294 -0.12623504 -0.009626018 0.038948648 0.120534144 0.05571226 -0.16065511 -0.0793679 -0.096810564 0.032741845 0.05777212 -0.106964625 -0.16724555 0.010383297 0.048642725 0.03754333 -0.051552694 0.20467947 -0.033771403 0.006414502 0.03466852 -0.12288584 0.107210234 0.028683402 -0.23123904 0.042839523 0.106756225 0.039792374 -0.20135503 0.08873617 0.097011454 0.11868164 -0.033738077 -0.14241368 0.038452294 0.11522019 0.14592336 -0.249466 -0.12946458 -0.027922746 -0.063092045 -0.060845017 -0.13476747 -0.20588577 0.02808754 0.046286788 -0.040664934 0.209146 -0.1070255 -0.010399623 0.20515774 0.34759054 0.13357975 0.0060365284 -0.070063174 -0.056856062 0.022705324 0.08390806 -0.34630919 0.04738066 -0.05384966 0.08715512 0.04555265 -0.29386932 -0.13476107 -0.08344778 -0.17492418 0.06294944 -0.16938233 0.042757966 0.28578183 -0.070293576 -0.021544622 -0.005987606 0.23397951 0.085842706 0.10172458 0.028764661 0.08920544 -0.008793647 0.14167991 0.037347466 -0.102592185 -0.17623249 -0.074137144 -0.039566383 -0.119522184 0.046647515 -0.07764124 -0.08864389 0.3559835 0.2574339 0.21607816
t 0.30825266 0.072386734 0.12831983 -0.1677188 -0.31882468 0.06908564 0.3458397 -0.022945756 -0.186618 0.014735147 0.09741006 0.019549837 -0.2448022 -0.145277 -0.01692902 0.21512479 -0.22996303 0.22139232 -0.07318323 -0.1540055 -0.06948032 0.033483837 -0.17409542 0.130858 0.09351942 0.16562681 0.13356242 0.08245034 0.09096941 0.37482515 0.10802632 -0.2229854 0.2004061 0.23325738 0.02042887 -0.21458554 0.083182134 -0.031646695 0.07088811 0.19806978 -0.25550342 -0.015914135 0.1918685 0.014238538 -0.22766325 -0.33925688 -0.21336342 0.060324106 -0.18894675 0.22222915 -0.2801752 0.048316933 0.44218278 0.10844509 0.16792172 0.29007158 -0.13266091 0.104118854 0.16776522 0.10792526 -0.15134382 0.15614472 0.105548024 0.14529704 0.104429394 0.06800956 0.012438673 -0.16160817 0.12601495 -0.15907408 -0.18335833 -0.34162855 -0.22785218 -0.30800962 0.1392717 -0.28121087 -0.0044095046 0.117072694 0.0947736 0.09743002 0.31152937 0.09575138 0.009479154 0.31454575 0.13453649 0.40558004 -0.014712398 0.10176628 -0.23007415 -0.055926953 -0.34049958 -0.4778105 -0.28011176 0.005324386 -0.06715055 -0.11732525 -0.07762896 0.38054347 -0.2227163 0.3859868
r 0.2747474 0.034400187 0.113113284 -0.15888189 -0.41067263 0.010735091 0.39060944 -0.037217632 -0.19482878 0.032711733 0.13490495 0.06411103 -0.24160299 -0.25694275 -0.06979023 0.28402185 -0.18944183 0.28801027 -0.073949344 -0.28603923 -0.17339706 0.029368661 -0.09079542 0.021660315 0.17244264 0.17216505 -0.083958454 0.013756104 0.040191147 0.4445662 0.22229949 -0.23029914 0.30134332 0.28910798 -0.06827439 -0.22592928 0.30452296 0.0065032113 0.12568 0.10885837 -0.1689844 0.0996937 0.17881975 0.03399121 -0.1494941 -0.35863274 -0.21769713 -0.06711529 -0.208584 0.21794304 -0.23623383 0.16511059 0.3121763 0.1364164 0.04036319 0.26097545 -0.11484916 0.08537388 0.17704903 0.092495814 -0.116969526 0.089146934 0.14803222 0.15728125 0.06690878 -0.10567994 -0.09875175 -0.21402453 0.10977733 0.062651366 -0.24163428 -0.19000065 -0.09668876 -0.26505944 0.2352622 -0.3753976 -0.0438673 0.26604843 0.0958749 0.046648767 0.32404158 0.13308057 0.043999434 0.28430134 0.12934291 0.43282908 -0.11434093 0.042143907 -0.24568212 0.06651954 -0.16349523 -0.47905585 -0.23567589 -0.13644612 0.09610732 -0.0056719985 -0.20711133 0.33204824 -0.13055228 0.41497397
n 0.23481975 0.024959331 0.0982184 -0.1278794 -0.43913922 -0.019413907 0.46104953 -0.14169611 -0.2177416 0.008274882 0.19907507 0.08006987 -0.21174268 -0.24416806 -0.13691196 0.23304968 -0.27622214 0.23661278 -0.18970363 -0.3383785 -0.10784037 0.1505191 -0.14191279 -0.019474056 0.121519 0.059261013 -0.054576993 -0.038193513 0.09312383 0.49667394 0.12327512 -0.1373121 0.38635883 0.31635764 -0.041320752 -0.23793967 0.19550467 -0.09288071 0.11361302 0.18513992 -0.20360054 0.18262118 0.25320318 -0.037113298 -0.23603533 -0.37827477 -0.30597883 -0.14206271 -0.18507192 0.15509257 -0.26463968 0.04637746 0.38430983 0.08403556 0.11459028 0.27660504 -0.17091726 0.08772958 0.16104591 0.06596655 -0.14801732 0.08631872 0.1419263 0.118376985 0.056610014 -0.0056195613 -0.07770438 -0.15830009 0.27191484 -0.015370959 -0.27443504 -0.2587816 -0.13847941 -0.31729528 0.2868645 -0.3510786 -0.040962517 0.14084059 0.07491059 0.1105227 0.4124208 0.044305235 0.10563982 0.3537901 0.1551684 0.33872646 0.034023013 0.15867624 -0.23173182 0.037749395 -0.10707302 -0.500215 -0.2352578 -0.078479 0.08269516 -0.025189487 -0.27997434 0.44627315 -0.1380356 0.25327036
: 0.09072966 -0.14390302 0.17440976 -0.28809446 0.07203036 0.17498483 0.18247394 0.05973799 -0.22181353 0.1952592 -0.11044253 0.0913349 0.043882817 -0.116543084 -0.106190175 -0.25597912 0.047916047 -0.007920077 -0.12811682 -0.11300604 0.14631253 -0.12820086 0.06685084 0.0030125633 0.048114453 -0.087637156 0.15747195 0.20519087 -0.123778775 0.038437568 0.17831044 0.08145129 0.06521684 -0.038055718 0.03295205 -0.23677917 0.12539096 0.110264346 -0.09729904 0.13291542 -0.23517126 -0.32746893 -0.016942404 -0.035623226 -0.2657005 -0.10977666 -0.27733842 -0.06079899 0.028695703 0.047322202 -0.029926915 0.1434373 -0.030099481 0.45140806 -0.1140114 0.10393903 -0.08027035 0.28065643 0.14505492 0.25641102 -0.17743124 0.0077173184 0.10702069 0.39157113 0.08016727 0.18342896 0.27855426 -0.18080737 -0.11832306 -0.3629202 -0.4018112 0.02486564 -0.17446224 -0.02484846 0.06590166 -0.143562 -0.3456845 -0.26307192 -0.12076661 -0.14820704 0.37313977 -0.05051624 0.14941463 0.09086271 -0.111277506 0.31130257 0.005530823 0.03472852 -0.19430928 0.19077484 -0.19694616 -0.13678747 -0.018271873 -0.010378816 -0.22541927 -0.19766876 -0.122492924 0.42268914 -0.031165712 0.4096184
G 0.037671782 0.085522704 0.02217085 0.21945927 0.043624673 0.1892724 0.15981105 -0.13050136 -0.22969742 -0.16275719 0.019034129 0.12315434 0.12620258 -0.16456471 0.017901981 0.11858471 0.050731543 0.03860347 -0.179773 -0.12133856 0.05568465 0.103664316 -0.08103196 -0.13930003 0.08558991 -0.11144813 0.05588942 0.04932793 -0.040138703 0.017477728 0.10275581 -0.104907215 0.008794417 0.010210297 0.04762397 -0.19139631 0.15558596 -0.07551409 0.065230206 -0.040148582 -0.070371285 -0.0026856787 0.187886 0.029226141 -0.12770599 -0.18086125 -0.105520375 0.06239296 0.14164183 -0.13698885 -0.29449672 0.012286493 0.07670797 0.02637458 0.4320226 -0.20724173 -0.031050224 0.088543534 0.2579411 -0.10984683 0.12017096 0.039475378 -0.086831346 0.019032344 -0.05567137 -0.17002095 0.026777042 -0.032978807 0.0034230168 0.09345433 -0.2938893 -0.095915705 -0.07491017 -0.124485984 0.038840078 -0.15777457 0.091719255 0.1775337 -0.1301874 0.05233234 0.04271748 -0.04337353 0.1337262 0.19704089 -0.036521528 0.1516102 0.085679956 0.26940027 0.020277422 -0.15932716 -0.15232025 -0.027788535 -0.06720076 -0.04886702 0.10744017 -0.03557162 -0.18792316 0.32870528 0.15392423 0.17507932
M 0.10408999 -0.16426244 0.006057219 8.300878e-05 -0.1062418 0.006960938 0.14924684 -0.18895894 -0.23698825 -0.027892224 0.11372891 -0.08210048 -0.0146501865 -0.09717498 -0.16733529 -0.036677197 0.19885392 0.090349846 -0.16157582 -0.12184334 0.072427124 -0.056900542 -0.13158712 -0.09352276 0.12539653 0.08127098 -0.081090696 -0.048854705 -0.1487476 0.051303953 0.084433205 -0.21441893 0.07529043 -0.027609771 0.017616557 -0.1972354 0.04105036 -0.0012470799 -0.018377172 -0.12855625 -0.024054255 -0.09779682 0.079058245 0.22067508 -0.35163414 -0.20035937 0.029993746 0.14951392 -0.038784582 -0.044827577 -0.3024256 0.039129853 -0.014140951 -0.093006276 0.14387836 -0.028187884 -0.13480906 0.23714937 0.158759 0.022805959 0.08937853 -0.07261549 0.07754303 -0.07789572 0.0681865 -0.099347524 0.014960563 -0.30490306 -0.05099334 -0.15506938 -0.37339288 -0.20727035 -0.065165386 -0.03135505 0.025645044 -0.11095101 0.040879082 0.14288895 -0.020826802 -0.07632355 0.062678784 0.07888238 0.05545545 0.12419002 0.1909525 0.22835658 0.12689696 0.06920063 -0.12131771 0.001427965 -0.20715216 -0.23916635 -0.06218532 -0.21284021 -0.010950375 -0.18543552 -0.1597059 0.34750223 0.14840795 0.11299094
I 0.12213094 -0.07617709 0.05663123 0.102077015 -0.24076751 0.092971854 0.17007361 -0.16800097 -0.13362572 0.029471882 0.022266088 0.022805326 0.07467661 -0.19358791 0.0042853015 0.024136465 -0.021926012 0.13175511 -0.08849653 -0.06617215 -0.07607154 -0.0073060766 0.042429145 -0.0992055 0.23020242 -0.03499557 0.03734123 -0.00259187 -0.11096656 0.16529095 0.023109555 -0.06622998 0.080088526 -0.080653444 -0.015465049 -0.28429475 0.059653774 -0.042384323 0.012831187 -0.026772793 -0.047179632 0.108444184 0.20118919 0.15950009 -0.33407155 -0.32902265 -0.11602757 0.028139848 -0.03424629 -0.035586603 -0.1985857 0.20645402 0.09442149 0.088210076 0.22480607 -0.14419852 -0.24020754 0.12295543 0.26996976 0.1315264 -0.07679607 -0.1772675 0.03139044 0.011801989 0.12127671 -0.20778696 0.095814586 -0.312422 0.030659776 -0.06533648 -0.2662759 -0.08621736 -0.1525751 0.09872189 0.0030847418 -0.1993049 0.04221683 0.02079397 -0.10468497 0.13006853 -0.043077465 0.06925173 0.05907126 0.13929386 0.065346874 0.19960488 0.02332289 0.10749233 -0.07994039 0.099197306 -0.28368598 -0.19550857 -0.0047160676 -0.109216034 -0.06011773 -0.077176966 -0.12702592 0.4571478 0.04520179 0.066914946
